avr:[-0.17055705899854787, 0.07068916359289641, -0.17133398232352912, 0.07540636878911128, 0.11203937937611264, -0.009072394884413625, -0.05011314823810984, -0.026517254180275344, -0.032829342478420426, 0.017902004229925945, -0.12600309612776822, -0.09050583903257067, -0.10350718688404077, 0.01364472459591131, 0.058056073781373396, 0.12942319088502585, -0.21000361542737137, 0.024017255402994528, -0.21309083162787115, 0.1447591145885798, 0.0400972823554623, 0.004280879625187645, -0.045624578723804224, -0.011312092061448021, -0.023776453465864458, 0.0383403365417788, -0.14456405448412343, -0.05832132382687262, -0.001770472412764423, -0.011610831169392686, -0.018040820713089545, 0.18376925190383037]
alphaev56:[-0.017700508142963152, 0.13538225550519056, -0.3652349812277628, 0.03596250210395342, -0.0169735139860637, -0.05031417484346543, 0.007452764957804836, -0.004160946286485671, -0.09385074751918537, -0.03275871541517233, 0.16185370481951716, -0.13162403216270016, -0.08052163058655842, -0.01642041899247603, -0.13646527130289443, -0.1770236305893296, 0.028138329412744592, 0.22711568861724274, -0.386640612472686, 0.048403249290086166, -0.0401410899227041, -0.044453671694770845, -0.01972154355143139, -0.021876903448724255, -0.01014272088858667, 0.018423695670177306, 0.21962681861060643, -0.1534536607528924, -0.0635994319677786, 0.00390683801873204, -0.2646383510665931, -0.3236202799505413]
arm:[0.04938680502477845, 0.03491379416282733, -0.027509989467198966, -0.026340697714504112, 0.16328369180408678, -0.045782274840729144, -0.031638531786230197, -0.007057251909131196, -0.07182400135770281, 0.05258620721522493, -0.0877899980695152, 0.10354951874298078, -0.14432562623222792, -0.14664558785348208, -0.06113905924183286, -0.07753886657690189, 0.05313128773638372, 0.02210639014232723, -0.031329453667714044, -0.020020165627058276, 0.26887966420920517, -0.06861045234482452, -0.044635418380012885, 0.04777119867536746, -0.08203142707125674, 0.07074625218069552, -0.062458375585333556, 0.07643140788384575, -0.24160300132955365, -0.20100599001772204, -0.05650005081132036, -0.05397923002321009]
m68k:[-0.09254695970839402, -0.01512403508727715, -0.061076152448026444, -0.17088760756957536, 0.09342585001028778, 0.01741671610364205, -0.0036427046110458004, -0.1695633210154782, 0.030890805075939422, -0.11000831971769597, 0.052387798111354286, -0.10152716836756151, 0.014272255367203626, 0.05786295436080102, -0.005326376118791186, -0.0012738582431278261, -0.05550532467724382, -0.08262822385841646, -0.069494544561196, -0.21028641900049702, 0.13139049956751303, 0.01348785262887449, -0.009275232513688576, -0.18166185532473228, 0.05103268397393128, -0.05043382357034357, 0.05233877386933327, -0.10698281914387225, 0.03028385734149732, 0.058677759865914385, -0.024038769464505737, -0.011056813489798945]
mips:[0.020243980087824003, 0.01855679920764159, 0.04983955856766449, -0.07258522268363629, -0.08338862404374776, -0.004188996569830635, -0.01644354631967585, -0.007016170438603362, -0.0007782025055100698, 0.04116097017570333, -0.0027862402397281277, -0.04730159060098861, -0.11015124286261982, -0.1715293742188057, 0.02161313372031767, -0.1651880992263007, 0.050764797507725425, -0.04562199318116656, 0.09570313788242343, -0.05104821431844353, -0.12593347273095648, 0.031795016163847084, -0.008257607194666342, 0.04470857919000358, -0.014795578633959736, 0.017946181077014952, 0.005146736102549627, -0.1138491329970562, -0.0850507150749209, -0.06904462893440982, -0.008606974812516313, -0.2557064476181282]
mipsel:[-0.006879172041877543, -0.11513708184120601, 0.02340695387592289, -0.03871267501484875, -0.16161350628928714, 0.023694943078655224, -0.012728650349912565, -0.0769000950529844, 0.009728041161956153, 0.02843446929531336, 0.024134951443174242, -0.10991723951073272, -0.10923822425578451, -0.06789498204265727, 0.00855873146951713, -0.16655595675534965, 0.038570430669233165, -0.07203454669410855, 0.03598194221256106, -0.006145912980831046, -0.1253398657141938, 0.008201101899811871, -0.00437144829594227, -0.03396149018740942, 0.03942781186866671, 0.00993136000297924, -0.006425156172464869, -0.10374805945681158, -0.14253554941476546, -0.1552719818741679, 0.02030127711792013, -0.2505018500649203]
powerpc:[0.09438084358168182, -0.19514250347848877, -0.1602554467620147, 0.09908139053575404, -0.02095722771974897, -0.02181276667470691, -0.03186009975545402, -0.003516833316640049, -0.13684267271611716, -0.0004701955742183218, 0.050233801514803604, -0.1573050837009362, -0.03628229502234577, 0.03904090166064257, 0.005564023232313354, 0.09204854639554198, 0.023178981832786775, -0.2671137456224469, 0.0141363457353632, 0.0487638928774404, -0.03145711826158711, 0.006126072593262618, -0.01337109482562507, 0.012203948077584306, -0.1593541581740176, -0.012828495944471358, 0.06323907890371608, -0.21393111130710094, 0.05859511689558262, 0.06428148449499316, 0.05255880034411563, -0.026832564122179395]
s390:[0.11595282224304766, 0.04984338679970278, 0.0690087984664327, 0.16401995183287882, -0.06358335364721453, -0.07221362745052878, -0.019834527294765713, 0.04136917716519546, -0.08068099889875342, -0.19780195100676987, -0.08418486482367728, 0.10988323253890249, -0.06362489118291807, 0.024431186335092798, 0.008181559960838318, -0.3825749278780295, 0.0684853833131688, -0.20612991012580978, 0.06114407181801532, 0.2559942973996491, -0.07905011911287657, -0.04743707384103347, -0.013651521042295547, 0.024730287621458666, -0.12593389225831517, -0.20276891511437092, -0.15205682567349946, 0.13201678102824735, -0.07502523644997058, 0.1275461959055623, 0.018159279871146676, -0.16631514415504017]
sh4:[-0.12659091633568403, 0.08724157067970115, -0.14596379090292366, 0.10018620768251346, -0.05430976376015894, 0.004116902257259775, -0.07811174909438824, 0.08710814711216458, 0.049406575930690075, 0.0071138050327190375, -0.0928405061778778, -0.021970303678150036, 0.17257683329142035, -0.05782524583086187, -0.13141396524471893, -0.03856807719787788, -0.17257975770489012, 0.006551742978597713, -0.0953369693461424, 0.0942980197577081, 0.027837640681413395, -0.013286464238081087, -0.01958000442360166, 0.06037101081031752, -0.00870536571711292, -0.03479479475839185, -0.03849522253382592, -0.004203390385234193, 0.1709135272775044, -0.04580802566866397, -0.08553127988711007, -0.08103144841809688]
sparc:[0.039768253311236575, -0.0016759887809805758, -0.03413934768812711, -0.3214539339040141, -0.0611317850705164, -0.006090661209328875, -0.017252305081188683, -0.012350988336913409, -0.055480034714894454, -0.17653467085322633, -0.12056311119623697, -0.1801689621423285, 0.12593943903904337, -0.07619783732630257, 0.07009113516519407, -0.2981179358417985, 0.030136373422212162, -0.10979600150738598, -0.09302177947356798, -0.45303472725090954, -0.08563983950614606, -0.007152470283800419, 0.0028785973185882583, 0.05947273099860663, 0.046519452818259956, -0.2376261865114295, -0.06073707671862476, -0.2718381129050067, 0.18569744627680404, -0.05107257909547211, 0.08073103456377168, -0.162043602489398]
x86_64:[-0.46640890512421457, 0.14313705891954734, 0.05865838651660144, -0.0283159209067643, -0.05187162576012507, 0.006038096875999626, 0.009296742442583864, -0.026336454994473887, -0.2921443649400245, -0.07161128580772638, -0.02686295744570802, 0.051742358881536624, 0.015933299884658858, 0.08687648058456912, 0.0005448868961738793, -0.13916030534062057, -0.514717206758824, 0.19714528760239342, -0.01737107271099071, 0.02373094726709283, -0.07436485435407302, 0.005835829950269337, 0.0017268748534508562, -0.09277977947554261, -0.32580959498496215, -0.03068038258173325, -0.0387839126558766, 0.11570721730941239, 0.005033851541921477, 0.025787984928318252, 0.09128763828540877, -0.10352429211858777]
xtensa:[0.033914488070238606, 0.10626707930673301, 0.10115503240525604, 0.023545430025245163, -0.3088388371921272, -0.124892589832356, -0.017431204659555707, -0.06781433833866363, 0.024607382737186004, -0.058344759317683216, -0.10829974343535512, -0.08884734383982296, -0.12379693662003068, 0.09436228100523975, 0.023824046880156807, 0.025325067844716113, 0.015580631715346769, 0.07059873619812855, 0.09328426997656289, 0.12779884106920109, -0.31483994296218215, -0.17428367864744662, -0.008516626800913947, -0.04754809970594934, 0.0176973872417374, -0.1234666240918323, -0.09530342013778915, -0.071064704073738, -0.1306808460509039, 0.1126031517373119, 0.015483198238943171, 0.047825267964158924]
avr:[-0.16999088796266165, 0.07002480783963969, -0.1711637604134018, 0.07629612453363202, 0.11245943706421607, -0.009041447274601365, -0.0498734565535227, -0.024498273006506175, -0.032283160895859316, 0.019495271603744282, -0.12613538964381263, -0.0905799445697809, -0.10306368600587042, 0.014677113114390454, 0.057694021531982054, 0.12948020205919097, -0.21008777639514142, 0.023956498551425204, -0.21349440914729387, 0.1453720151080479, 0.03960507635471964, 0.004317579591198205, -0.04400196444685607, -0.010227198874593618, -0.02376376823051997, 0.03969300254967571, -0.144743316267895, -0.0582045962545873, -0.001244728397460177, -0.01063220038640865, -0.018031871322546977, 0.18340399722352915]
alphaev56:[-0.01790232889700496, 0.13511019735484678, -0.3654340421289629, 0.035993110144415405, -0.016846813091093944, -0.04974214216731516, 0.007425878214240033, -0.004208220155999072, -0.09381744042421676, -0.03228222661323812, 0.16190321764170898, -0.13190581646474941, -0.08028615376413002, -0.016443782920850147, -0.1364689555993511, -0.17704615011206137, 0.027998612458152102, 0.22710569000329128, -0.3868363736793516, 0.04824331217223465, -0.04027393331244447, -0.044592035031488626, -0.019792004496497536, -0.02198369248816033, -0.010344518556592948, 0.01804901362449145, 0.219941743571987, -0.15306822794820413, -0.06312807187521777, 0.003900499634304393, -0.2645686378781163, -0.32367958801855373]
arm:[0.04923526992833681, 0.034889716407063155, -0.027476275110535683, -0.026180556622997467, 0.16320601599213672, -0.045817104486533027, -0.03153847735738543, -0.007145817924105854, -0.07181053274580497, 0.05251497455621578, -0.08756096739813439, 0.10359892435654039, -0.14409293256470887, -0.14636775513696745, -0.06122040097865977, -0.07764848932903903, 0.053023129258358705, 0.02222077270892924, -0.031213995361888666, -0.02000307290438647, 0.2689147963634087, -0.06847677986981522, -0.04468566331334469, 0.04767953525690568, -0.08208441164888985, 0.07072949227744685, -0.06250980026904027, 0.07656331694754724, -0.24152360398243813, -0.20092161574888695, -0.05657408014801494, -0.05420540364429851]
m68k:[-0.09173471099169783, -0.015146981682073716, -0.06045281569894021, -0.17099858951821542, 0.09178623345767653, 0.016915081733791856, -0.0055952820549164525, -0.16889487107406104, 0.030568415054836526, -0.11050002417341041, 0.052531767159411456, -0.10152029328686375, 0.013887096741165032, 0.05827348403636249, -0.004817597952448037, -0.0003404154177756321, -0.05579391075468431, -0.08290781168212569, -0.07070465500629636, -0.2102039334794426, 0.130274014070449, 0.014956214025265435, -0.010204804652570341, -0.18236780547360754, 0.052018941411751604, -0.05137005026708348, 0.05344461399857264, -0.10694629597453248, 0.03029373758554491, 0.058136726239416354, -0.025443283700103674, -0.00948496730187206]
mips:[0.020342834721266266, 0.01877665985033022, 0.04913606670554958, -0.07266440108742035, -0.08400774475957304, -0.003941458478256593, -0.016138131400902426, -0.006813254858680173, -0.0009061145551754829, 0.04076822757862229, -0.0033093787102514037, -0.047890369197860196, -0.1096793851177756, -0.1717686302508556, 0.021584302036456334, -0.1650982720324815, 0.04981335041289649, -0.04645062714535684, 0.0953852497720701, -0.05018818042101212, -0.12585586395137585, 0.031575882373118765, -0.007866721571702503, 0.043613014687636, -0.013208383430921919, 0.017292678406642743, 0.003401603239843678, -0.11358730589494476, -0.08567194208407887, -0.06867674880369354, -0.008059209583370171, -0.25658184975732795]
mipsel:[-0.00707429920275233, -0.11453802880323374, 0.023091391729441847, -0.038586071310797006, -0.16165404243630102, 0.022715838995470024, -0.01209688224328161, -0.07713987516166898, 0.009044117428201975, 0.027649236820436175, 0.024526980239560667, -0.10990841474088466, -0.10927054253474142, -0.06779896712709645, 0.008477004660603468, -0.16601844144065522, 0.03842921662857375, -0.07160741986655338, 0.03613270293050316, -0.0057413961055040735, -0.124582328495503, 0.008874470417749544, -0.004497270937949118, -0.033486065937662346, 0.0394007961430035, 0.009477693050270233, -0.005604143829126531, -0.1028876922805821, -0.14267192750379243, -0.15532621293808266, 0.019978754485640873, -0.25052957102219586]
powerpc:[0.09374555496489671, -0.1950707662995102, -0.16059209088161555, 0.1002141332418096, -0.02135308792714911, -0.02185736855305366, -0.031794110091680275, -0.003128031027160357, -0.13709235873721065, -0.0009169190815859199, 0.05098903108706884, -0.15709115700957052, -0.036209532196014645, 0.0387657636075693, 0.004820039144355007, 0.09170333689754408, 0.023222865079545612, -0.2670402316364233, 0.013666543501374983, 0.04820128751492427, -0.03164098766929182, 0.006541590537425166, -0.013305210086071426, 0.012274728617483258, -0.159728039907672, -0.014036941946647686, 0.062462250409220654, -0.2136950635095376, 0.058224543754250235, 0.06364543047799535, 0.05200455875227239, -0.027071898696304355]
s390:[0.11589649449123234, 0.050150814754510546, 0.06877820726357918, 0.16379747945426593, -0.06355483283336594, -0.07239752200388985, -0.019104693761156387, 0.04152878552970598, -0.08094866083086687, -0.19788627465633982, -0.08401164001723409, 0.10972210315518396, -0.06293854737814736, 0.024996674340291077, 0.006769596483641499, -0.3831664664061552, 0.06837137631529609, -0.20615894555900036, 0.0610768857795295, 0.2549525705550279, -0.0790906070841149, -0.0467381721559978, -0.014074634548837273, 0.02402272587865765, -0.12688478306398204, -0.20247754771812324, -0.1515287456284211, 0.13130059799402305, -0.07489160545112296, 0.1276321917166949, 0.01742313776248354, -0.16601001818118954]
sh4:[-0.12684307512589496, 0.08747114800587179, -0.14574121899527898, 0.10005722365728958, -0.054384780519117305, 0.004200052662949937, -0.0783002365135946, 0.08720925678711422, 0.04941169182085159, 0.007009532734421208, -0.0927380766140978, -0.02203475960375414, 0.17253451334939607, -0.05777661982448867, -0.13141125675062704, -0.038556728801703834, -0.17241246925619197, 0.006511049559694301, -0.09541988971421073, 0.09445081367170993, 0.02763816125993589, -0.012926830962348658, -0.01959590615332766, 0.06032005816659252, -0.008549078286697235, -0.03459601643377853, -0.038490533831175476, -0.004103193593442649, 0.17072824122341101, -0.045813514017463725, -0.08540897098575342, -0.08106013884693676]
sparc:[0.039991737561522835, -0.0014443626863850248, -0.03524933031524373, -0.3215093653939899, -0.060433032241891685, -0.007493764044873632, -0.01883259240344085, -0.013161683076643749, -0.053668693957886315, -0.1772560836674131, -0.12064007513416078, -0.17971543417993824, 0.12798080727024116, -0.07613435769503477, 0.07040734493732996, -0.29717733742937524, 0.031128591166917713, -0.10906209618538511, -0.09387255134427851, -0.4525315704885156, -0.0860838548401769, -0.0056448172432129965, 0.004145186967274839, 0.05935687081730815, 0.04470765215246903, -0.23707739403174394, -0.06036911906173645, -0.27172611434852567, 0.18640551448922135, -0.050181680439458316, 0.081241210647693, -0.16251394761130036]
x86_64:[-0.46692320497382106, 0.1440330765618786, 0.05758540076758419, -0.028050463098003943, -0.05207705304714399, 0.005434757863921703, 0.008472478127722885, -0.02576055555934092, -0.2920752871128591, -0.0699403729848388, -0.026153973809463014, 0.05040888994469043, 0.015804325191077356, 0.08586230362160976, 0.0003283398551520207, -0.13839078131670005, -0.5152163403112153, 0.1981450838552011, -0.01778721284010814, 0.02416631369639507, -0.07308485537206418, 0.00432301523576098, 0.0022564553539163217, -0.0920773643978023, -0.3258388702898833, -0.03054862338750451, -0.03943730859213924, 0.11465781685769584, 0.004926235012984833, 0.0258475256494872, 0.09135489487194778, -0.10329758036503599]
xtensa:[0.032700109388927846, 0.10576024954945736, 0.10262429220326505, 0.023643839872992227, -0.30893272698511876, -0.1250609828719157, -0.01972721987523343, -0.06673359500981622, 0.02573391857890616, -0.057774095903525585, -0.10853578113206526, -0.08802198454853702, -0.12358091064541814, 0.09559056399316196, 0.023090789170354585, 0.025080212372267964, 0.015645143351302345, 0.07135585743183231, 0.09372454729145803, 0.1268786770029982, -0.31444363252435625, -0.17398086642708055, -0.005657173627026877, -0.04935920330616602, 0.01680860068430202, -0.12370658533676723, -0.09559321110440745, -0.0720321698060482, -0.1308045181096915, 0.11074523370644734, 0.01693012397009759, 0.04843366156965876]
avr:[-0.0521471795029237, 0.038148263942712486, -0.07097394856817953, 0.0553468179129271, 0.04778578593793138, -0.0016432246195576075, -0.014069665231011195, -0.007921902901232694, -0.018926685107531108, -0.008609233086448762, -0.035412922738777004, -0.050490780052032634, -0.031041251669542764, -0.0053594974857560105, 0.03144496094600781, 0.064271341977395, -0.06033462715755975, 0.0005888002604313856, -0.051281577213888506, 0.03081846636806742, 0.02455076839358235, 0.008322298901903074, -0.0070390161744914945, -0.0032540193500620973, -0.013253445149705338, 0.010908451183742554, -0.047762981853378114, -0.024212883540927262, -0.029077895842482833, 0.027236241755361545, 0.03619395521122249, 0.03784615476355643, -0.0681973164357046, 0.043240396010113286, -0.037698037359437386, 0.029886841800296136, 0.03495751314562803, -0.006372148307557661, -0.009906391655282254, -0.007288340552961156, -0.006016168278083702, -0.006419431503350673, -0.033906177679663564, -0.007194635675731878, -0.030991981741681142, 0.0025731908386208233, 0.002529483560820924, 0.040355761677285974, -0.062283159855519375, 0.018985766141252306, -0.06465246198489241, 0.007069388046795308, 0.039273845686045146, 0.0015542677769291404, -0.012558282307453698, 0.0092772305673376, -0.002123685229576944, 0.012648787137549918, -0.03530128197288469, -0.006237001938369445, -0.017267610813893695, 0.023543236455167003, 0.008760816220399899, 0.01966219913897012, -0.04130998132334649, -0.0005961558296602171, -0.08845288266596509, 0.029274881104602798, 0.02135423430814771, -0.010640488141176838, -0.011393996669817106, 0.009695464385841552, -0.016422525252262146, 0.008015795289025112, -0.018435761011462378, -0.004602587584410198, 0.0007824437215656617, 0.007855236908557809, -0.008329520881860135, 0.06297532296121511, -0.06786862471574326, 0.007924997256200767, -0.057716053613186234, 0.029963790599401647, 0.005152108938953123, 0.005198500579948822, 0.004146957487149177, -0.00890353864731761, -0.003593013670822506, 0.02205693427462492, -0.015655445876364932, -0.02949012835495142, 0.006563134930350942, -0.017424209378648848, 0.011905648078437166, 0.04760770148976064, -0.0820897224672216, 0.016331772687877024, -0.06558523835522724, 0.0469015683408464, 0.018039318027097212, 0.020209144780390285, -0.011118916587518297, -0.002428467796943116, 0.014926713851006138, 0.019946787868020288, -0.07357964252045064, -0.005757757265414661, -0.009141910945786456, -0.014188381928671077, 0.014109939173388479, 0.0533757592367966, -0.05813726245866832, 0.012697033121993564, -0.057683083000164385, 0.046430267982636754, 0.015464201045344841, 0.007610535601450807, -0.031002853562864016, -0.0072217196069374375, 0.004956883519108732, 0.007520463471897198, -0.04033123023917763, -0.0031665871625021183, -0.002738337446208015, -0.00030447861661310027, -0.018440901463364266, 0.06401609280412317]
alphaev56:[0.0006161039635264812, 0.043483075016631484, -0.12557656084910393, 0.023909291301618823, 0.005408725514018819, -0.009820783615867537, 0.012641487866860313, 0.009065987780374221, -0.021321904606689878, -0.010035279485469962, 0.03069369682395456, -0.041233431732705626, -0.014031235440722599, 0.020532473471080226, -0.04150553284305602, -0.0710882223556336, 0.022126152542816375, 0.02781660228412718, -0.08689895830507367, -0.0023157614933590055, -0.0009464522297123174, -0.013950078928952489, 0.013131913004287957, 0.0022218006258731297, -0.02658975387442997, -0.028575734546511883, 0.05483234630255903, -0.036291915157113976, -0.03416032418189479, 0.00286937701550584, -0.03098855800821369, -0.05099868916803718, -0.00018461476589918854, 0.04565843920265536, -0.11494947406231498, 0.006436156558188598, 0.0068841195523520905, 0.004479260701750702, 0.0035406010788685324, -0.01920910404362299, -0.01708982801371907, -0.0011025114039223106, 0.045659996196487126, -0.03596986284405829, -0.013748015012950348, -0.01110390297200992, -0.03228304582743627, -0.0552137952634124, 0.007047916288654597, 0.04931855387878443, -0.09442903642597249, 0.01749767284492652, -0.027436400116343775, -0.004510217496656041, -0.010185454891705548, -0.00505026881300231, -0.0258439445798604, 0.009966833398499188, 0.08033200768902073, -0.04301503974988567, -0.02533825786677857, -0.02214655452474351, -0.05755707789963819, -0.03804479205468941, 0.0019125710059451973, 0.07430156731511381, -0.10020095798013395, 0.011697054880801371, -0.01031622280815407, -0.01731004240758782, 0.00338574693142447, -0.014393409385474528, -0.0018750760386838973, -0.005422269829724721, 0.05646846692805989, -0.051114359211814085, -0.028697286638034343, 0.013066670510867292, -0.0735734180085401, -0.04665523518066484, 0.004169500403025283, 0.07817172676921003, -0.1206144058679472, 0.005323817555149273, 0.0031906408128414133, -0.019496409222568022, 1.88945747517118e-05, 0.004431156081137201, 0.007528884364829523, 0.009015602723299508, 0.06888156871966392, -0.05343068829832578, 0.00042098385907677466, 0.023033236684128145, -0.06909050389823497, -0.13009743696637016, 0.014961878557778365, 0.08168454833840132, -0.08362745356817271, 0.01772506314542328, -0.024299588092118768, -0.007279916468121705, -0.007155324693376698, -0.011068303614946805, -0.020129995111922188, 0.02518390084051105, 0.05494764773467344, -0.04166549189548146, -0.02464467683690878, 0.008311143087050143, -0.09941790205500456, -0.07158304440450515, 0.015020650209921509, 0.06633744355610871, -0.13376048314163122, 0.038083457734819075, -0.026946167191573844, -0.002257753188308426, -0.023170259648631526, 0.025132590747839842, 0.0047078151214680845, -0.002944852863033846, 0.06247917612745646, -0.02367299596498795, -0.0026901173084568613, -0.0024648743356579326, -0.08298894409854239, -0.10006202363565328]
arm:[0.014492800855422282, 0.024037244105350124, 0.00448890510603517, 0.0025212593647593907, 0.05633671691404535, 0.005259160477243428, -0.014250591344199587, -0.023039316604160826, -0.020423248859865708, 0.025757383061790456, -0.04533722320947318, 0.030766257956102595, -0.045262497386559276, -0.03151910978237592, -0.03144710714517123, -0.019724707667947542, -0.003658047423508201, 0.00912532094731363, 0.004931132693041326, 0.012804977213362222, 0.05898787114471715, -0.010893495077938369, -0.006485320364705847, 0.02368962817938059, -0.017142894081371065, 0.02673466619165466, -0.013698268592459546, 0.04511104848340172, -0.06815500572491313, -0.07080379580779267, -0.03527158737898461, -0.023043802705780183, 0.017130391482382996, 0.005621058325583964, -0.005706968174820669, 0.005319630276029933, 0.05559814495151478, -0.022396692200874098, -0.009341205324249969, 0.017773018806918055, -0.005389850309910805, 0.015180724772232234, -0.04843823120583612, 0.06960834183530079, -0.08725954947524026, -0.03556886037152262, -0.02269930838735813, -0.017003125582827155, 0.03702223543748722, 0.009267379984205648, -0.016762774847741684, 0.02771182270839891, 0.09657255444451504, -0.021937523645631788, -0.017030612542095123, 0.0035440670753584137, -0.039046094454673934, 0.016769540613831246, -0.015395507930823383, 0.035942552801585634, -0.07452169260470796, -0.056573647856712754, -0.04341117594518014, -0.009420229193940836, 0.027984906680568678, 0.004789852770278965, 0.010660099364607024, 0.015424177642855322, 0.0862690830088531, -0.026334465568714032, -0.029038578748567436, 0.01261502203295099, -0.03660972183212104, 0.036222723209166356, 0.0008525018183980564, 0.03846356458338075, -0.0839438516212052, -0.06029568929472532, -0.05402903407315481, -0.009491765416448205, 0.028723345245097724, -0.0028369013329213617, -0.010567454557224187, -0.00183761636360051, 0.09186265431886341, -0.00644271479793618, 0.013738373412449946, 0.020363354443013, -0.033192821841536706, 0.009557620064644468, -0.020984150862885215, 0.024413036857280874, -0.0911491142606607, -0.07116889150125642, -0.02603750192099552, 0.007762649504006286, 0.026779534271566482, 0.0028967740145277704, -0.02505281165719486, -0.00023585889129887344, 0.10554866516375278, -0.026111832767916215, -0.023030824574845173, 0.017968630865002593, -0.03822038291525865, 0.025029544929136737, -0.03339237974903086, 0.052159682285374896, -0.07979198954783866, -0.06470859984137692, -0.014193249558350716, 0.006530836743612813, 0.035592612670391995, 0.029633156902130385, -0.022447520237033936, 0.004177066509437448, 0.10907446286542878, -0.007010139720143822, -0.00545464033405964, 4.624216461219645e-05, -0.04523705283988288, 0.016020716472519035, -0.04495673640916159, 0.016237484438201284, -0.06506261289752206, -0.06963713435928019, -0.005757008496084587, -0.012483077909376689]
m68k:[-0.0019363560269033961, -0.015355032177023394, -0.0013722451762705125, -0.03475149072928715, 0.03466663420914891, 0.016296612689139234, -0.0009740173788010938, -0.050408219556090934, 0.01165917351204296, -0.04448903772095655, 0.007864539987614652, -0.027165028211128428, 0.0227532173433729, 0.007404291691820145, -0.011492116461810194, 5.92157968521542e-05, -0.02555615677094645, -0.014454282634444192, -0.002042100239608717, -0.04935409307520479, 0.047834334084368386, 0.006174648811831883, -0.006613588571151334, -0.05619465076832887, 0.015848898876257664, -0.026409077556250497, 0.025461516716323664, -0.030929543492062762, 0.01162500546576214, 0.019168913178912138, -0.01691939535004689, 0.015636850754979892, -0.03923916562031014, 0.009696753623734074, -0.0160506728356902, -0.04218032685530027, 0.021937686856755657, -0.003470647805704561, -2.8765114192905447e-05, -0.036082038671539945, -0.006356671040988207, -0.020365418055379104, 0.025674394618646006, -0.024959800961043957, -0.008016788348151454, 0.027041724024657935, 0.004261522800256352, 0.020305528179003045, -0.02892114213008991, -0.005869195563434907, -0.009361765746317207, -0.05182961564777403, 0.0366077143096687, 0.010943449400878012, 6.973418308254339e-06, -0.04989679228012447, 0.019573639048480914, -0.012833398796658247, 0.02031981672306698, -0.03563733002185441, 0.009405713329684822, 0.01688834346195272, -0.0021292946646849303, -0.005511856457809901, -0.03447148650951772, -0.014886100210428873, -0.02099827628585984, -0.02899388540418742, 0.04613816396311737, 0.011170373110845528, 0.008688396728796923, -0.04614172490509841, 0.02040422786213142, -0.02355062806511065, 0.008851017585637482, -0.02298289167583357, 0.0120342674632709, 0.023184511591448066, -0.012139984319176445, -0.014043826177353468, -0.012219278034678182, -0.023071081969149476, -0.009250310435655202, -0.06267460237428561, 0.04331289588044364, 0.005554845072886236, -9.935844110052082e-05, -0.054675260853633646, 0.011007121207402522, -0.0032116261515280154, 0.01119531991507153, 0.006610696906759828, 0.0011046889631008703, 0.013443998989125417, 0.013805840303886624, -0.028952251437935634, -0.013963375814158161, -0.039351721735294706, -0.0016384690034450746, -0.05627728709151445, 0.01978897738177393, 0.004330412943629171, -0.009516004135573913, -0.04946086025057721, 0.02732488319925725, 0.0012231456055255012, 0.024037608324858968, -0.06959838221468341, 0.03797478378045898, 0.03421673372811636, -0.009671377610770025, 0.011578272349385528, -0.00452887676284311, -0.028493584330291644, -0.0027221916622824395, -0.0816905618429934, 0.0598678196622477, 0.016550992026664532, -0.0026322012258416043, -0.06865540475995832, 0.02488001890024592, -0.012637707608645464, 0.02169797659033766, -0.016483572334822616, -0.003620150005856291, 0.019028547728336922, -0.01162432164569823, 0.0025543126234612726]
mips:[-0.0007737642183104042, 0.01987080923267264, 0.024464406063945107, -0.02411419241560357, -0.03873243162536011, -0.007133991920983158, -0.004936471593590467, -0.03023076397834849, 0.006542935665901731, 0.021132544574783415, 0.010001531211480452, -0.021362306416045942, -0.017196657706488292, -0.050654697246207823, 0.020824700286673218, -0.022850384400318797, 0.020364080282472188, 0.011363232193995935, 0.020756815432183988, -0.019997410227414643, -0.033206005932441794, 0.000863782728951703, -0.006084867861176541, -0.00870468840712961, -0.01945496633778501, 0.020867490707759125, 0.006977623346509979, -0.012078100082370683, -0.017734673369820646, -0.04972257315069568, 0.00036244947829981256, -0.03061058306684235, 0.0009303974619239724, -0.006500175844871564, 0.027009070555750324, -0.009531247031615796, -0.0015746329695097677, 0.01334372700846521, -0.00299014022788423, 0.017671355214993783, 0.007715827919212184, -1.8031263447393418e-05, -0.007918564007898008, -0.01524556043506121, -0.060018863758976464, -0.037828623120598814, 0.009391047154670469, -0.05136995429271986, 0.029086617611712065, 0.008556532168781085, 0.01558759936269189, -0.033574958826529604, -0.03015837477414299, -0.0015445672801364465, 0.003977300057297984, 0.006189930469649881, 0.019441295238190368, 0.027556631332931944, -0.0030772461235158677, -0.0130050014385165, -0.03880753426722328, -0.054358298763840615, 0.012961155269739198, -0.06636047515117108, 0.0404189040295911, 0.009590459666250991, 0.05127962364884039, -0.014699565112177225, -0.05293920456869443, 0.007799659877843949, -0.0004090701842778131, 0.004508775381770882, -0.01883924690676327, -0.0039038547496524504, 0.0031370270707831447, -0.03727519749479091, -0.05147473208171984, -0.002148933631942256, -0.000540380770426877, -0.050723113434188345, 0.02099530706856374, -0.02836830445125378, 0.027932677808381743, -0.006536675596749791, -0.04438672553128243, 0.02277080412590354, -0.005415183052596864, 0.03452305318658358, -0.0123429640781497, 0.005487187295507117, 0.00868466743472896, -0.008236341012149607, -0.03079719552479383, -0.017820336806809386, -0.013474983603295606, -0.06940749456652963, 0.021048435753902132, -0.0038241388653315134, 0.03739976281565488, -0.031541810995991015, -0.03414672618563494, 0.018738920429535136, -0.0027126939172344563, 0.022900057795207075, 0.00013776360441253573, 0.004403255475465611, 0.005334591961944363, -0.030258249233244324, -0.009320544311507745, -0.04856867160419926, -0.006478989921184152, -0.0626145401099875, 0.011386429156929704, -0.007230292672932285, 0.03056348615790006, 0.003282763634878383, -0.03332860683022528, -0.009180942125199305, -0.0022241261154024145, 0.024379656112841305, 0.0028778533169251394, 0.030999191452455555, 0.011964082696404995, -0.032332518626391006, -0.024553964505199605, -0.0007011985591493879, -0.01973674663457544, -0.10216016571160831]
mipsel:[0.0014197621780772539, -0.041947372789032, 0.03707808700234297, -0.015987733796242774, -0.036626216294504396, 0.0165385750666101, 0.0005544263278018665, -0.02073304456486656, -0.0031626414762910573, 0.009558184851419559, 0.034929992558512535, -0.05262852321547633, -0.019971142568012332, -0.04619417179500877, 0.0075598941030364155, -0.036001856230266145, 0.016505535571583883, -0.022022532530287107, 0.004844637719375448, -0.014064825826725767, -0.04543713163357886, 0.017810920754590592, -0.0065998378949596774, -0.026130311474652994, 0.01431266951794738, 0.022035817389197614, 0.007490247129408869, -0.028655390175064497, -0.03888496106893022, -0.014692910040425012, -0.008512905581165268, -0.04164389668656545, 0.014127628171995208, -0.020158121397898843, 0.024154735735308772, -0.0013949811433141546, -0.06076057345146969, -0.005097946676303751, 0.01075803373519105, 0.0007278513618367902, 0.004230218231748726, -0.0010977648261905936, 0.007959878615432806, -0.03700625993867443, -0.021231278232012717, -0.007146393232025458, 0.004239414323025046, -0.078335556075963, 0.0063033786121183995, -0.04612676395400147, -0.0005820345432884995, -0.030377913166522857, -0.023150752244659, 0.004862439363594921, 0.0031813175695576566, 0.0026024317713701428, -0.004076407670150773, 0.007236225161163546, -0.004871983679276035, -0.030993759662116545, -0.03643656622195868, 0.0033977706549639885, 0.009694655858093204, -0.02653427373073829, -0.007492900548532403, -0.019276330446584524, -0.010487567336239378, 0.005335781439890291, -0.048456947009283734, 0.004390774707787607, -0.014046249059657496, -0.011909162402276905, 0.010644489785140482, 0.012558980691803072, 0.007160594898714028, 0.006779529491235568, -0.009227985178404013, -0.005479617601638851, 0.008543713026034523, -0.09537415291071252, 0.02499055285275213, 0.008171993384708438, 0.010227182278994981, -9.168687224523259e-05, -0.02040250274051403, -0.018336667069333457, 0.005627825712275337, -0.00827321864039875, 0.013894011095317927, 0.012233392973165164, 0.007331299512354429, -0.04309164783998596, -0.030975590136236644, -0.038602769850173205, 0.005180585978770961, -0.09072120912863209, 0.01848964295902776, 0.005088059666365538, 0.032442072478663375, -0.01084473712019514, -0.04729912145207237, 0.0018173636037190869, 3.8083393607547605e-05, -0.01122445341620779, 0.017357003586490716, -0.007548747739690463, 0.010870338046409392, -0.0130802698540575, -0.05002071792565145, -0.05632876573465689, 0.020550906837251047, -0.07573634795139128, 0.0076995854530199775, -0.02017169685902217, 0.011719949939865134, 0.014199885313656027, -0.039176869845113205, 0.01822104101587332, 0.0025236694598157793, -0.004417112881602053, 0.009706028920537456, -0.002753197855065524, 0.0009959277700581572, -0.023464376341043616, -0.03847254688705584, -0.07214421777877995, 0.010254654990714424, -0.039869978385579305]
powerpc:[0.05430276349585414, -0.04297160112560977, -0.02892532723649958, 0.027164780977957003, -0.020451976179792383, 0.001743562432955995, -0.0125275357593049, 0.0033242646232949395, -0.06308552353736138, 0.004748511144089878, 0.010100071912881124, -0.04021056049253701, -0.019881585930966436, 0.033583181535871386, -0.0009069386076754602, 0.01792379767999135, 0.01938917281117526, -0.053002986015775, -0.05334117250752562, 0.02560675592081284, -0.0023826714241909396, -0.005646295505086303, -0.001279640269473705, -0.003524873985445735, -0.016315243391877645, 0.007948474498946801, 0.02220232842619174, -0.0678897896459983, -0.007378928703596406, 0.004771600943935293, 0.015554789615049866, 0.03993701887636097, 0.029985298630795767, -0.053086475567118055, -0.044614391236845914, 0.027504534064829382, 0.005840538214273205, -0.011993439425535586, -0.012320714324192022, 0.005785751580171859, -0.04129518480607533, 0.014545699532560331, 0.009072411232364918, -0.03993105493575036, -0.016401653667433184, 0.021769265659709516, 0.003061241837213352, 0.02500254618753617, 0.006435653177085633, -0.06523342277679732, -0.03347713196227959, 0.04525470521209233, -0.009133415734573647, 0.0006799573135757256, -0.0003791753197035927, -0.0024123797635686077, -0.03774572213409908, -0.015255300691599916, 0.0197404746027772, -0.05299124557313595, -0.01077067042730834, 0.0312701230753517, 0.02333863707575616, 0.024719500743738444, 0.013926458257134088, -0.033745475672120676, -0.0015987713272246793, 0.011339878915220059, -0.015926432253806234, 0.012109982003888606, -0.007156643690794516, -0.020740244409823735, -0.05607021541083675, -0.005741094248164392, 0.008005472829876157, -0.04832745047970153, 0.01936823106163393, 0.022585064724530386, -0.010853419779766909, 0.03588903421713184, 0.014594259376337793, -0.06731365742719608, -0.00870986284131778, 0.04655556510357531, -0.03838087180828562, -0.011640202914040039, -0.009054151910314726, 0.017843436007268274, -0.053059615606167836, 0.002433481475069046, 0.034009496731862494, -0.051414474430561845, 0.02310851019219029, 0.014907492350724347, 0.014273305639266709, -0.004439634516983634, 0.014674171877207733, -0.09890232144171356, 0.007009239943026015, 0.014168395483571213, -0.002923868715207551, 0.005486796719921284, 0.006710216740445225, 0.02357611547582907, -0.049442342660316704, -0.022484352950081905, 0.03645305435708745, -0.05096900368557138, 0.020996864069145908, 0.01809437227056251, 0.017600058104735156, -0.014944280968393155, 0.00767594469429888, -0.07992161516180203, 0.009093608176665073, -0.01080099466470435, -0.009264004380636267, 0.00534908121446684, -0.01198687855208703, 0.011621646304796165, -0.033017533922314414, 0.02107708675746424, 0.016764339180670842, -0.08888534735591971, 0.0399902365719782, 0.024649609432986986, 0.034870578326723245, -0.01375445885918463]
s390:[0.035785178466967354, 0.023905652425647402, -0.00993564415347638, 0.05697198164921655, -0.009016299956104304, -0.03826509838900549, -0.0003171147228128468, 0.019797026285250752, -0.02683017512127439, -0.06683162781249206, -0.017680598145926027, 0.04886209211123169, -0.016161439374189412, 0.035482650666641836, -0.019107446982266022, -0.08181639628149234, 0.02240724189613399, 0.04726622119046636, 0.03579451686733384, 0.013057315348041686, -0.014969436032580684, -0.0066370033932567985, -0.0003296960631374783, -0.0066617234197995905, -0.018542166806322032, -0.04559918089962899, -0.008383167142421656, 0.040987489343642186, -0.016948056610443327, 0.009086000409229208, -0.007969388773174877, -0.10657997934407511, 0.04244188639626105, -0.0035888132192627336, 0.05432674282534969, 0.05242383870123671, 9.248034605987178e-05, -0.030388024650220943, -0.005701507631366998, -0.0021302175221837496, -0.009795705559093098, -0.040092292208805363, -0.034674076917285024, 0.02377661507161134, -0.01685144851989644, 0.0012515774599503266, 0.0068728191962032096, -0.10021567075159735, 0.053896614695272745, 0.0035214895032544707, 0.008962575278085288, 0.07221310426591482, -0.029486325946821827, -0.007993379734686749, -0.011788086022937577, 0.015524770222654164, -0.042990310513590195, -0.031212421102197553, -0.02427571071167266, 0.027777496703395684, -0.019276838129802985, 0.01667192003192515, 0.011701739118534303, -0.10568414659526909, 0.009889276454174152, -0.004498318121721856, 0.0349068404921495, 0.052160112567734104, -0.027388944988164663, 0.001758650215409458, -0.00820514430558934, 0.010255504516771667, -0.03393466106000492, -0.06300227928733505, -0.03882485695388826, 0.03163181078365687, -0.03386460474156513, 0.028761153733001428, 0.031011271842589085, -0.053617344601395375, 0.03761421738716275, -0.0959454227092148, 0.029406491355852153, 0.06750559697831966, 0.006259859062797038, -0.003914844610907497, -0.007692341329664754, 0.027624762884017752, -0.03958188780942413, -0.0630462719173713, -0.04789328792302131, 0.02189996891515578, -0.021671544520160076, 0.046560358625678734, 0.028343671246332157, -0.047864575776688414, 0.02950259934463438, -0.06807464168353211, -0.006468303258259253, 0.07676236169355462, 0.007110828835414447, -0.024181972276167807, -0.0005872467228108288, 0.0012756643889568428, -0.01687617858922574, -0.06515044972197344, -0.02203177971864792, 0.0424985683773773, -0.023293650963851137, 0.04292224656863294, 0.012938056115565862, -0.05083222719863644, 0.04052366863943929, -0.026179682483154654, -0.03594522165838181, 0.08477568642254592, -0.053240666502719046, -0.014363505172715186, 0.004084930730867401, 0.009170599503979103, -0.018390246200575867, -0.046538893578414946, -0.05378987771695089, 0.08151414248639077, -0.04326506064039899, 0.06632072931510366, -0.013544706241536072, -0.04415446093935527]
sh4:[-0.029149008663182225, 0.03912851495615878, -0.0070714312345576584, 0.03828480781539112, -0.014401432677364651, 0.006491341964763191, -0.0438156229353161, 0.01808017566816315, 0.02259497654458506, 0.0021274973496141817, -0.036742613245267716, -0.008247021463522327, 0.07363113766504634, -0.03974068167450906, -0.02205007305436629, -0.013755521183042756, -0.029000852730750596, 0.051240909069267, -0.043059556910130206, 0.05825585798492537, -0.0283168135557013, 0.003647944547645477, -0.020571866705266884, 0.044373022378699015, 0.004186554436993103, 0.001964588688080118, -0.020306974792631723, -0.0017829744051939404, 0.047331041206563174, -0.025669284693197143, -0.044034564731078654, -0.012914577905372369, -0.04289145671881788, 0.01257944215024374, -0.05550053304687164, 0.031326467113965674, 0.008299403804858432, 0.006293274706911976, -0.014071797992626535, 0.03026547995296392, 0.02694255399388146, 0.005813025293892521, -0.027609810209532383, -0.032291888284913375, 0.0591828381581711, 0.00986417697119646, -0.03543113653223553, 0.0032901746459117593, -0.0720232125445759, 0.04154778824052114, -0.043078297921985406, 0.02337459261011569, -0.012160961126848861, 0.003266279454789634, -0.004332505117155026, 0.03738117749382328, 0.014907821170178298, 0.007499321904283521, -0.017100999293000182, -0.01677161366262348, 0.061037801750911995, -0.0059679305370445275, -0.03485200408174712, 0.0031887319310755714, -0.06517804077856003, 0.006642405315110048, -0.023648393696600267, 0.031535172484497505, 0.016984184946514075, -0.005173506855218352, -0.02301122433073066, 0.01870261347354554, 0.004772009556431284, 0.0031084788134525376, -0.004676111419711143, 0.003816250690431334, 0.05594123659166608, -0.02119012259202819, -0.02657999438767064, 0.013605601650544828, -0.036142570591273515, 0.019055053415212804, -0.024548574240297816, 0.03261552150047008, 0.008035593162439897, -0.004064960967223856, -0.00364977612937824, 0.009814562222722055, -0.017143375750850617, -0.0013871838515855967, -0.0009279512543835172, -0.007731975645373075, 0.029629656466743086, 0.010220663513667464, -0.020906791732457086, -0.0072117575773346385, -0.04850593257680821, 0.011762721611953348, -0.027497298207865943, 0.04080423347725533, 0.0014477068588597528, -0.015312969231187334, -0.00876904487638325, 0.020547086677209166, 0.009606935491759372, 0.017275586098844758, -0.018110058265041945, 0.028576623135206272, 0.07178557170606718, -0.0019147074132377971, -0.04135666423710062, -0.05492135684103671, -0.04788173175135536, 0.0109837288474483, -0.049983206996253464, 0.043635565989509885, 0.006158176637647905, 0.005802741025848556, 0.008721145686536416, 0.03829421323525957, 0.012807646256011648, -0.010150753977925295, -0.018375674652150346, -0.006525553319833327, 0.06669642153772791, -0.02892281680159784, -0.024897759360568136, -0.020081343978459298]
sparc:[0.019581148065579153, -0.009121615982755939, -0.015086254900430104, -0.08101888649493623, -0.01000872678856981, -0.01029493623697454, -0.0010772240305818432, -0.0012291233656117318, -0.015386632670915907, -0.03123586861747055, -0.034594455290299544, -0.06108145470676168, 0.05030142867588344, -0.048019798398138, 0.02790437866525358, -0.056284624522479045, 0.04788466359040107, 0.0034558907516151075, -0.016424656230334823, -0.10994016681785304, -0.009552237918071664, 0.005623242686458086, 0.004602223344948171, -0.013859388042407248, -0.014604122369859994, -0.03671950513618868, -0.04812614856610525, -0.04216628275347603, 0.04137278260951011, -0.02448673159549015, 0.013151039950989844, -0.07851616720422944, 0.006382248671141208, -0.006349927640397186, -0.00672737693732756, -0.08599140118037883, -0.02265064196611725, 0.017053101650751367, -0.00619168420134595, 0.020534210150717457, -0.02400979691255945, -0.0570751995719353, -0.03448731871130139, -0.03653784247518892, 0.03971499210413274, 0.011203451065584263, 0.026330213453846774, -0.11796578544560772, -0.006606471280660029, -0.005221641536384472, -0.019562954614122427, -0.08825132090024211, -0.026615326758122934, -0.007844685509337522, 0.003293263553028183, 0.002792070836057251, -0.008249310159341376, -0.059966685334698074, -0.009043260689800778, -0.052773818252210336, 0.03011736341850453, -0.0034867174045287667, 0.027844250819437987, -0.05470204914802885, 0.010333352363954192, -0.02147717423541518, -0.024977532658060474, -0.12077665826387317, -0.019431571041642656, 0.013401980539256687, -0.005385376823192892, 0.006532737528699747, 0.02407876781225967, -0.043056358822760016, -0.027726496665460627, -0.03073215531289865, 0.03405289477253543, 0.010013580512097166, 0.009836973214552857, -0.09274058157684353, 0.012647863485788956, 0.002707296624849845, -0.031072393046406833, -0.09920236654509537, -0.05749777482788072, -0.012440589928952346, 0.00017629841433175366, 0.043121936058183374, 0.009973041978292336, -0.0549868224014309, -0.035351230574755095, -0.064888368574957, 0.05980961768415254, -0.023263499124268432, 0.015776575036999942, -0.04289979779861792, 0.0361557430851121, -0.04348367698230076, -0.03227226531484134, -0.13580251059587028, -0.014254713833371712, -0.006407695934660515, 0.007831513776159588, 0.008876492939295889, 0.01482937855656759, -0.06886435749260902, 0.008675455454458358, -0.06043101844659834, 0.053484335062230305, -0.01826270258542073, 0.0208167850542941, -0.04772198076100681, 0.030082405445311135, -0.025792012105961916, 0.0042492204448708005, -0.14911075179825942, 0.0011929084128378124, -0.021814429933291798, 0.003632688308333729, 0.029054111936605845, 0.020648964669237446, -0.07384979160828252, -0.029018529300916113, -0.11753526086917361, 0.07970764998642951, -0.027726017770798413, 0.032789238943457706, -0.03284340781132855]
x86_64:[-0.13398098661988958, 0.024524351111398262, 0.01749525666659034, -0.004777361295184944, -0.029092191774654427, 0.012626292767463647, 0.007882916348491724, -0.01730684450069742, -0.07958687708368951, -0.016405546749492864, 0.01678779749949251, 0.020064796009683247, 0.01204670539245453, 0.026444168900043696, 0.0054669074261885, -0.028262083965193883, -0.11023206671007928, 0.03932637880415902, -6.470788502820536e-05, -0.024876911855447992, -0.008132744138057054, -0.0019335338814147442, -0.01136370029161262, 0.0023201068881178524, -0.09535164333014139, -0.012423403717594914, 0.007059505369374829, 0.0050627119803647236, 0.0307728721037123, 0.05203019869889774, 0.0048429915412478135, -0.04213485158798364, -0.14359330931267186, 0.04975668436716538, -0.0038099440618783787, 0.012742555363930375, -0.013147527290432302, 0.002039876303207817, 0.009979447607450507, 0.004485452270611526, -0.09124310369000665, -0.000767305549673056, -0.007579409955357032, 0.0430929453681814, 0.008683754831057901, 0.007884591968048244, -0.00790239284764435, -0.03623406341592935, -0.14476504724279565, 0.04583713539464064, 0.004187441113527569, -0.006657706404775315, -0.024514807620917733, -0.0016800230083629884, 0.013254335402893249, -0.030081417752061895, -0.03215306410450147, -0.004994922287757602, -0.029150233373817995, 0.038822851916522606, -0.007215754863313577, 0.01973686192636624, 0.007211663588696622, -0.013848749493373197, -0.1675699685863333, 0.0788123723446067, -0.00679507111210485, 0.018096108725159956, 0.005801741898744973, -0.008927269426007118, 2.259829767422562e-05, -0.011223375342809486, -0.0632182776380737, -0.005131633048887733, -0.015922422838472738, 0.011676877934184314, 0.0007730509394503743, 0.00046789887337342015, 0.03710047777858961, -0.038548452589402, -0.12986422852881094, 0.07515269600143654, -0.003035307365167062, 0.025789413680013324, -0.04243766989109364, 0.017408392565161544, -0.001497033390780737, -0.029510797593688427, -0.09279517552448482, -0.014583827595868815, -0.01786188049398932, 0.0566834007429776, -0.008049706856900356, 0.02774481158478348, 0.01629763605887745, -0.04451341165478562, -0.15732015340094382, 0.08574657137016223, -0.00025132055151488966, 0.0056845768184640875, -0.016543465720974614, 0.010519677838542598, 0.0027784300774806774, -0.0473042412986336, -0.11532126128027964, 0.017622658508239426, -0.015056814818065242, 0.053987894077965275, 0.013642904093199364, 0.0019780137069661846, 0.025650426568088233, -0.03059905993850936, -0.1514397862533941, 0.05441677879076497, 0.028605735002774985, -0.011048451354335399, -0.012478554275664645, -0.00014310088317163032, -0.002474624385181205, -0.04029695155175464, -0.10245682115836525, -0.013181022880854808, 0.0016526523250667382, 0.06454200184559881, 0.014108759814108422, 0.006071145456490875, 0.02939949502180116, -0.031627799847715354]
xtensa:[0.015554473975926037, 0.03473454154169496, 0.03284866164323422, 0.00630203945112507, -0.11857380734000365, -0.02381627694095014, 0.007255696011479187, -0.01217182249015052, 0.01844065823877451, -0.01175214347436216, -0.03906588072867923, -0.008506584395683197, -0.045532182460289866, 0.032054034526667045, 0.005262744676088851, 0.014523923413636121, 0.03245880061690502, 0.03284127588769811, 0.0221147478012902, 0.02973502022273193, -0.08237357590896889, -0.026569169972865115, 0.0017418951964905012, -0.005183251489075666, 0.018386405648569595, -0.030946322691136945, -0.04225354091123134, -0.03614040453173508, -0.04243127896924173, 0.013683133694670623, 0.020178066958439368, 0.0032179180629283524, 0.010845731678998839, 0.0382433129903423, 0.027864920247498193, -0.002180226961454022, -0.057106963699717114, -0.04616885700448339, 0.00026373452385534214, -0.006783288007416622, 0.002981367458381571, -0.020550612867120857, -0.016490540127361463, -0.0282563189770664, -0.012236765231240499, 0.009718964583782368, -0.001374545902287346, 0.008932184584599072, 0.0037745930099981743, 0.04687199173779051, 0.015141476900349587, 0.002885918959986034, -0.07059141942325313, -0.03582721577444164, -0.015129044110702507, -0.01979585593577888, 0.003306244142749361, -0.018893737583035624, -0.02770856044011964, -0.022832853993351443, -0.026380966085538245, 0.047916179483950196, 0.013010659879946023, 0.011659694641942898, 0.0030414518448586164, 0.043656175262181796, 0.02720569823391533, 0.008163140373979971, -0.10731448809543373, -0.0574629647758941, 0.008353830850395545, -0.017717966044451992, 0.009973022979393729, -0.021106648042219404, -0.004823623107175313, -0.009863957809732104, -0.020331903529929696, 0.020780762335401163, 0.0002798984567273125, 0.025617607818749884, 0.007141920200262475, 0.01966762561237542, 0.033312523670345845, 0.026039397468236282, -0.09658840991105525, -0.02374662466357478, -0.003477059412495617, -0.009777091852178187, 0.004340993964470314, -0.024909918627833153, -0.03569517394445437, -0.05088530563676721, -0.034717625954093716, 0.04968747015190707, 0.018948296225170646, 0.027771271453461966, 0.030610921902852424, 0.040316851214992615, 0.032557954971569464, 0.045087977424824184, -0.08089999295742287, -0.058520323023130726, 0.0035191547523753027, -0.018176553914996393, 0.003697699153991772, -0.05638868913135005, -0.05057559450127122, -0.02860385615775428, -0.028180541997149065, 0.03294156991883193, 0.010344941318336315, 0.02958144759286618, 0.010363374834098488, 0.014111801289118153, 0.04118666120685541, 0.048334574848402714, -0.07829757417380924, -0.055536165467564874, -0.022136043360462914, 0.003242288569273012, 0.017407275331359804, -0.03107721544189443, -0.029839695527531938, 0.001698461363173325, -0.022832844873906927, 0.006635912045183752, 0.0011870965668762893, 0.0038785732835221677]
avr:[-0.052138570892477504, 0.0381267363983782, -0.07099157331457827, 0.05536847294336421, 0.04773396380278212, -0.001664463344472747, -0.014070431096656072, -0.007942263354211273, -0.01893503721419258, -0.008597224701037487, -0.03539508209515036, -0.05053014783227326, -0.0310515193305807, -0.005343863337812569, 0.031426678248172794, 0.06426193172580623, -0.06029599446087219, 0.0005649968836302744, -0.05125983041054834, 0.03083099444867686, 0.024502235835898875, 0.008378618844928909, -0.007034749794340048, -0.003226806810239194, -0.013238919075571468, 0.010902591176463786, -0.04774188410929782, -0.0242221492877001, -0.029052528391073584, 0.027286106770543734, 0.03619909290323201, 0.037870030099439685, -0.0681732233284283, 0.043223463647192074, -0.03770767545939078, 0.029867401856018782, 0.03494638166532764, -0.006335124790015236, -0.00988724225471833, -0.007318352281201201, -0.006004226433283472, -0.006440469313210801, -0.03394895028864938, -0.007202925279968338, -0.03102721509826793, 0.002632893506702499, 0.0025183095915116355, 0.04035180777414974, -0.06226038715514983, 0.019003188918187645, -0.06467625904303902, 0.007098557936958545, 0.03931683090608091, 0.001534947349090142, -0.012544586355532829, 0.009287996716489954, -0.002109200347253328, 0.01270129875347468, -0.035295422756449334, -0.006249875154324417, -0.01727854500497957, 0.023580820132080443, 0.008717228894257373, 0.019643300751766513, -0.04131438773981443, -0.0006171410948830415, -0.08842983614087226, 0.029279256072333965, 0.021349360314472564, -0.010603341402078045, -0.01141815290966017, 0.009732948675463359, -0.016411653134485893, 0.008010023218075422, -0.018425869265583938, -0.004616894035855488, 0.0007271101820905023, 0.007880421888807224, -0.008309448241025554, 0.0629873333489821, -0.06789490471828445, 0.007966202217606964, -0.057707301683988646, 0.02991960451363998, 0.005145730330978301, 0.005211378057858369, 0.004222164494254661, -0.008895172865930577, -0.003564143671564104, 0.022071973881282715, -0.015631704454079527, -0.02950978369435189, 0.006606873104320671, -0.017385148820685255, 0.011941012677278384, 0.04764455845296983, -0.08207546317038909, 0.01633926584437239, -0.06555691636553686, 0.046928421331040776, 0.01806912901108415, 0.020219709230123447, -0.011109754505677728, -0.0023957837079050695, 0.014888157365219734, 0.019925376717552557, -0.07357229796759239, -0.005782749651180682, -0.009109297011307076, -0.014107854488367632, 0.01418634189457619, 0.05338909408752281, -0.05812462391561431, 0.012699586551530914, -0.05774381245358652, 0.04644780075718943, 0.015476703566516486, 0.007627451975494884, -0.03098762898833339, -0.007190773122849779, 0.004955960436004416, 0.0075157160770609925, -0.04032213799840504, -0.003215010078342443, -0.002782411775433438, -0.0003199406013986002, -0.018403990062152806, 0.0639992274054846]
alphaev56:[0.0005900622751872643, 0.0434316921030024, -0.12557148126834192, 0.02390596327487294, 0.005417637096839951, -0.009833319533579743, 0.012659238185365395, 0.009081378750571375, -0.021341403590114105, -0.01007041902080015, 0.030690901697676035, -0.04123174183678805, -0.014056760135561936, 0.020529332621701504, -0.0415343355072903, -0.07108080515252796, 0.022101331006363058, 0.027839072187006292, -0.08686246272101793, -0.002308465819595515, -0.0009466709030395827, -0.013929007050311365, 0.013132544761252057, 0.0022496631857995904, -0.026566869081800018, -0.028595158998882646, 0.05486304237601929, -0.03627715693249628, -0.03419906271964207, 0.0028749662962367813, -0.031001206456751803, -0.05099476172571947, -0.0002103890016516518, 0.04564079127605692, -0.11498832728713287, 0.006449893445520759, 0.006875084114198308, 0.004499358037158396, 0.003519161095941334, -0.019247543144504706, -0.017075998825901526, -0.0011413572261779472, 0.04562576013266089, -0.03597950454931172, -0.013739343072414404, -0.011136506968252679, -0.03226077641417781, -0.055206304516166406, 0.007035577854782979, 0.04930841436425775, -0.09442672256656455, 0.01752530851359231, -0.027451532242992464, -0.004512080848656835, -0.010144797357804517, -0.005028425195344924, -0.02584514963552648, 0.009960270397299437, 0.08032308001570954, -0.04303243873343392, -0.025337854152373728, -0.022130623127554653, -0.05756676738474329, -0.038060844094961147, 0.0019218252331206786, 0.07429037219698689, -0.10018212587357, 0.011660190929497185, -0.010312014272880905, -0.0173356315554063, 0.0033998950905643577, -0.014395159684136311, -0.0018990870995825582, -0.005468485557258299, 0.05650033690138396, -0.05109953107086614, -0.028695459885582236, 0.013038230671010193, -0.07358846022845768, -0.04669514749067449, 0.004131643397608575, 0.07815754305967146, -0.12058394373544215, 0.005353860445684497, 0.0031918538878337537, -0.019509100632802027, 8.088263824344864e-07, 0.004442727152530506, 0.007546492266957919, 0.009024046758753538, 0.06894234408881421, -0.053429921991411965, 0.0004261545944864821, 0.023032956695401608, -0.06910621532395918, -0.13010978263916204, 0.014998121062123542, 0.08170707666455104, -0.08362273170236134, 0.017720614673148418, -0.024280739386102666, -0.007263625002815895, -0.007160955393889375, -0.011094007980221294, -0.02013033249654056, 0.02519472894594808, 0.05492140314808308, -0.041657695585960386, -0.024654477804631474, 0.008272559574601789, -0.09943045309360157, -0.07155903626881095, 0.015008503481596236, 0.06635963552596091, -0.13377381412911377, 0.03809085976905446, -0.02693298857542562, -0.0022687124900064035, -0.023147788378124146, 0.025170401625543102, 0.004728930361005047, -0.0029726010101820866, 0.06243408777427165, -0.023689677608582097, -0.002689473345180173, -0.0024681809235810315, -0.08297341988125145, -0.10003307479037818]
arm:[0.014489979424393758, 0.024035789084281445, 0.004489633955012088, 0.0025434560091826116, 0.05634526490450981, 0.005234184179208071, -0.014277977775985459, -0.023042161846855813, -0.02041018067502261, 0.02576217420865524, -0.045357554075795885, 0.03074538782918297, -0.04524752832478935, -0.03151199432672654, -0.03147306946288442, -0.019759921366619443, -0.003648979214506935, 0.009132306418037589, 0.004948701546409811, 0.012811260286002291, 0.059012241194399025, -0.010883238811168892, -0.006497684136891466, 0.023668417413442607, -0.01714146465255839, 0.02672633079586298, -0.013659046499674199, 0.04510900868185969, -0.06813028553632405, -0.07080289721178701, -0.03526630977710517, -0.023033960844972085, 0.017143304088767117, 0.005646931163295618, -0.00570415460214759, 0.005303408421503273, 0.05560171693486343, -0.02240347085066534, -0.00933372430208001, 0.017790993029638894, -0.0053637595063040465, 0.015199024943948229, -0.048443713937621674, 0.06960055855136571, -0.08728543604300684, -0.03556585160886584, -0.022662881471849167, -0.01698245919597276, 0.03703152807089981, 0.009260779543453418, -0.016766943549632294, 0.0276786416364375, 0.0965762799289336, -0.021942141735025483, -0.017024818066302735, 0.003553625810296693, -0.03905929356493815, 0.016782554571818417, -0.015401014715156813, 0.03595491993759267, -0.07453492582632057, -0.056575102111357474, -0.043390550530124736, -0.009414810097052207, 0.02799095410853594, 0.0048026319106547, 0.010678547887529559, 0.015410064509281418, 0.0862872900286122, -0.026347697282137067, -0.029060932877992406, 0.012613728892999781, -0.036610403516179536, 0.03622688115571261, 0.0008661204320227104, 0.03846629655886805, -0.08394084148223621, -0.0602917463047238, -0.05403408463598338, -0.009504306201989618, 0.028729159399361055, -0.0028498111857012233, -0.010568966738243797, -0.001838130065035225, 0.09187038562617286, -0.0064337818714032035, 0.01373027087032663, 0.020367698518152816, -0.033212246369580305, 0.009558037334344838, -0.020965334661648516, 0.024412460115339794, -0.09116224424307857, -0.07112823708630378, -0.026014713081500402, 0.0077531286975550725, 0.026796115880572683, 0.002883573938946797, -0.02505610697107517, -0.0002531772974093718, 0.10555548501662304, -0.026130696222598726, -0.023043793649948692, 0.017983905059710172, -0.038220804439101044, 0.025030792259921605, -0.03339749632185506, 0.05216180985399875, -0.07980446225298346, -0.06472569338810864, -0.014183273737180204, 0.006519052124267223, 0.0355691672755677, 0.029645522948784635, -0.022456840082139, 0.004199936027347684, 0.10908691130447264, -0.007023181680419204, -0.005424931840606124, 5.2129196586997097e-05, -0.04524464592395921, 0.016039476459885498, -0.04496196632477231, 0.016239216172234887, -0.0650237060396473, -0.06967620087902508, -0.005791565964842028, -0.012521668696054922]
m68k:[-0.001958584441334036, -0.015399862977767183, -0.0013844990103658301, -0.0347475476259821, 0.03467935654398037, 0.016308892716609676, -0.0009557003044755941, -0.05039804735934357, 0.011712647384610562, -0.04454200998937248, 0.007906819523020208, -0.027113394405509358, 0.02275147614338813, 0.007434688223679509, -0.01143881920990165, 7.289811925957245e-05, -0.025549782021961565, -0.014452290429986739, -0.002067878371615804, -0.04931162789479731, 0.04783095952558362, 0.006120573893192053, -0.0065571826125376004, -0.05623229845141847, 0.015844303875292762, -0.026407225219041555, 0.025427583399576684, -0.030957707735558428, 0.011648412371931961, 0.01915218620717932, -0.01694027012663824, 0.015624985818276647, -0.03925053073231574, 0.009735979898860303, -0.016028647689311126, -0.04224001412462588, 0.021940931946073768, -0.003445253927717999, -1.583616896106825e-05, -0.036066800671918225, -0.0063527789515330025, -0.020388716437982835, 0.025693598104082584, -0.025011209416282643, -0.008065265549178089, 0.02705556557078417, 0.004233215551267967, 0.020324069731759088, -0.028913265924413463, -0.005869726522431728, -0.009408521941790017, -0.05184417189382227, 0.036637729049017034, 0.010951459271074809, -5.790087641463272e-06, -0.0499110749610667, 0.019553379054691206, -0.012826764770877014, 0.020278770693841784, -0.0356571300375561, 0.00936902647723297, 0.01688262496659857, -0.0021491896112451185, -0.005510724835921894, -0.034477085816716976, -0.014851852796568846, -0.02104085994611961, -0.028965760002613326, 0.04615602086948328, 0.011154291357046053, 0.008677377098311808, -0.04613133453428947, 0.020375784213972088, -0.023579714868609183, 0.008804557968147178, -0.02296123157985501, 0.012052391072288962, 0.02320998464265838, -0.012161130313692054, -0.014072919939439965, -0.012175050939405144, -0.023065545996418788, -0.00930592337746238, -0.06266651455391486, 0.04328839361134838, 0.005564837222020415, -7.711779493333297e-05, -0.054678361976155006, 0.01097956176462261, -0.0032356693447064444, 0.01118715459106936, 0.006601644916571871, 0.0011164047557597869, 0.013486798870468676, 0.013757716188836701, -0.028989933710944382, -0.013967625527251658, -0.039387724377358546, -0.0016761894532222774, -0.056258449886295143, 0.019791090728565587, 0.004277505942191733, -0.00949650830831914, -0.04947465002979347, 0.027346119304581615, 0.0011774463992626522, 0.02409570264531674, -0.06966951999044281, 0.03798364085453165, 0.03422272219770086, -0.009673497913146822, 0.011591890528868786, -0.004500877730768633, -0.028488940812916596, -0.002722190723277511, -0.081725573431035, 0.059861046676259314, 0.016613745935813433, -0.002672714077892506, -0.06863053779705279, 0.024856075658648516, -0.012612195116675062, 0.021719276086806457, -0.016493024310659, -0.0036101299143237522, 0.019044490418984497, -0.011589728035746687, 0.0025414546919494815]
mips:[-0.0007291265187177666, 0.019871623181048976, 0.02450030860478575, -0.024130439822279193, -0.03868718193567352, -0.007055543214436216, -0.004892560389733881, -0.030266881362724273, 0.006583929223549959, 0.021125296825353485, 0.010075596457912903, -0.021340283375639868, -0.017252597859616615, -0.05062952270078412, 0.020900871406912696, -0.022868996897233786, 0.020397692566785808, 0.011416867477599802, 0.020779759870959823, -0.019963158659083782, -0.033195612759039005, 0.0008670819659829926, -0.00600738856856629, -0.00871092975712723, -0.01941264330330486, 0.020889743995440937, 0.00700326881787514, -0.012111520919888239, -0.01772832060161542, -0.04972647193506275, 0.0002910752759697593, -0.03062475934070115, 0.0009271645701690851, -0.006506789179519533, 0.02700340063428872, -0.009506445110959853, -0.0015483326470806763, 0.013303490285939109, -0.0029771640680429225, 0.017670275738170604, 0.007643037949952378, -5.008230990556238e-05, -0.007895387127041272, -0.015241719770259456, -0.06000395987968297, -0.037819354889393045, 0.00939959033045432, -0.051360858004320345, 0.02909948724747169, 0.008564289647712445, 0.015567129635357085, -0.033586296440032956, -0.030186061087869406, -0.001587561762442945, 0.004105786067012265, 0.006226567220968413, 0.019451833722663195, 0.027558940012554684, -0.003054056453423979, -0.012990064441923766, -0.03886778178181907, -0.054305598282736074, 0.012938031610889685, -0.06633767810056657, 0.040414113718087084, 0.00958105303235964, 0.05127817118236432, -0.0146391210561778, -0.05300066040558322, 0.007803560939143955, -0.0003374182414553208, 0.004485138408035081, -0.018838244131457918, -0.003931945407992059, 0.003157056440101779, -0.037274987466643504, -0.05149422687149598, -0.002216939271103566, -0.0004472051820045286, -0.05073569298450019, 0.02096728704005168, -0.028451184883806553, 0.027950835739986832, -0.0064580069392363, -0.04437529344373858, 0.02283492146861928, -0.005370741011039797, 0.03456646895516155, -0.012253150689730603, 0.005583594259447051, 0.008687575529363984, -0.008296022479160352, -0.03082132926158209, -0.017771087959485992, -0.013430073290145388, -0.06940315625185338, 0.0210814860047147, -0.0038579246123903554, 0.037358902008907145, -0.031523496258015406, -0.03411434376528333, 0.018753680902513066, -0.0026943791989640677, 0.022859654127517906, 0.00020090081068136644, 0.004386941167582565, 0.0054205025639390645, -0.030228061851826873, -0.009259848743102447, -0.048589871974407645, -0.006443568177874251, -0.06264702811930037, 0.011364810117831553, -0.007183349260877793, 0.03054538296677201, 0.0032480707526395106, -0.03335592529325635, -0.009151767087592674, -0.0021181862340431627, 0.024353596594619893, 0.0029331417131564807, 0.031074712633100656, 0.011913052652512765, -0.03232934799351014, -0.02459621459756009, -0.0006858280214406021, -0.019681682238618034, -0.10208714955086254]
mipsel:[0.0013148828982961394, -0.04190479622427617, 0.037126686239894124, -0.015995465929067563, -0.03664052930651624, 0.016527545794706503, 0.0004879700237883281, -0.02073077224196084, -0.00317894716494307, 0.009477077655324923, 0.03491208048608169, -0.05257896654628518, -0.020022252515698606, -0.04616739722038172, 0.0075378127611821335, -0.03604727372606784, 0.016478609151068982, -0.0220224558441626, 0.0048338795459274475, -0.014100089832755345, -0.04547276213431101, 0.017826727981224977, -0.006571211644218564, -0.026021972107442615, 0.01427388190970437, 0.022029466997140375, 0.007461082223116126, -0.028653709777364283, -0.03885950588200758, -0.01469225242759203, -0.008495778405232123, -0.04165185641648015, 0.014179213196435444, -0.020148876709797817, 0.024099168386402015, -0.0014199498597635152, -0.06084995186616736, -0.005137828744525601, 0.010753091056051822, 0.0006662407171799262, 0.004246441562443699, -0.001106768335206647, 0.00802233289809366, -0.037022346424812405, -0.02123912884865385, -0.007180289502788506, 0.004157483488312586, -0.07829045040143137, 0.006352252431040669, -0.046126115861885246, -0.0005817675541903273, -0.030356910860435838, -0.02318458399084893, 0.004792997518753407, 0.003134155800120564, 0.00260264253564922, -0.004045912179950556, 0.007257244025067606, -0.004879696556571418, -0.03100442394921444, -0.0364255282386944, 0.00338977062744579, 0.009617000658421672, -0.026591858532911548, -0.007481584245863638, -0.019278177101335035, -0.010480825498996206, 0.005351345852782933, -0.04841629244817239, 0.0043159100594139166, -0.01404518740217313, -0.011912573441738369, 0.01066618137522625, 0.012557227220737878, 0.007162709321932398, 0.006738113060541586, -0.009275946730603475, -0.0055332182681931755, 0.00851266715181158, -0.0953921681360104, 0.024959423722740584, 0.00823996537353714, 0.010236691721615912, -7.921683748058493e-05, -0.020432805686294415, -0.018260447361835963, 0.00562208347563597, -0.008240447789562531, 0.013937307681090137, 0.01227470694291449, 0.00730171221824551, -0.043097567668173555, -0.031037383549040478, -0.038678494617095285, 0.005250622410031979, -0.09069279963872195, 0.018452661775725413, 0.005116961727317488, 0.03246293707921502, -0.01086254789155645, -0.04729423641834739, 0.0018362217479029367, 8.660596125002363e-05, -0.011255392849025237, 0.017405824862158917, -0.007524937038676316, 0.010902521567258374, -0.013085422862408944, -0.050014478271277835, -0.056317667927115365, 0.020547151649385805, -0.07575401115821688, 0.007720971144171522, -0.02018507153285976, 0.011732950451017916, 0.014126503882880713, -0.039180684448890855, 0.018208806648860883, 0.0025129337984381773, -0.004349207790903998, 0.009735380400416785, -0.0027445601913839786, 0.0010508367499650257, -0.02343047463521228, -0.03841393321319424, -0.07214962031523806, 0.010313968612935046, -0.03986966436079432]
powerpc:[0.05434404526581724, -0.04296812144297934, -0.028936080150521272, 0.027151085339498417, -0.020441580340274518, 0.0017761558155083117, -0.012590939435169264, 0.00329313856303598, -0.06312722831005012, 0.004773649955227311, 0.010093393532326194, -0.04026406043767892, -0.019849016739374364, 0.03355665704253643, -0.0009418772901214841, 0.01793120866028427, 0.019296727792067373, -0.053035733779946435, -0.05333239347973855, 0.025559841289757263, -0.0023481632114148486, -0.005679258461504957, -0.001294893824177109, -0.003566453180038597, -0.016292369376270415, 0.007942358797116841, 0.022185937479816675, -0.06789959260300554, -0.007427545769717746, 0.004798847171974338, 0.015539314728970877, 0.039958307784114064, 0.02996853963723625, -0.05305049321180628, -0.04461573691877338, 0.02752978087509263, 0.005872270969056421, -0.011994277216985944, -0.012314780319333652, 0.005779813512577165, -0.041291624161683985, 0.014529805824671234, 0.009121987498852648, -0.03995902263944668, -0.016460847453634672, 0.021782905287973008, 0.0030315686886101217, 0.024994352909696888, 0.006431603574951166, -0.06523310579021664, -0.03349212987622397, 0.045237643593664036, -0.009131543897784988, 0.0006809882619070215, -0.00043585132780371593, -0.0024246177894120305, -0.037765953271731406, -0.015252323672239743, 0.019712646534214825, -0.0529779992998905, -0.010825917527391869, 0.03127559632101142, 0.02336255303250939, 0.024693406178244722, 0.013873124676856653, -0.03378664917606737, -0.0015971021653269518, 0.01131408745886909, -0.0159542271346912, 0.01207149164118944, -0.0071716160154256785, -0.020757844492067218, -0.05604214327340384, -0.005754511608561986, 0.007953583673673275, -0.04830815250237971, 0.019409913227774075, 0.022593115497163623, -0.010803243520742092, 0.0359180408910475, 0.01458849419128342, -0.06728545615275829, -0.008733215119516363, 0.046497665428317014, -0.038383942070767056, -0.01165844916363552, -0.009098138147908316, 0.01787531041006418, -0.053040847983775154, 0.0024080434255069486, 0.034033097361628024, -0.05139317449696097, 0.023117215756183154, 0.01493897554177021, 0.014257988879167216, -0.004476672422622988, 0.014666874138418204, -0.09886623858590037, 0.007034775284295432, 0.014213677384623454, -0.0029455129781496042, 0.005406909030796555, 0.006719228937851279, 0.02357310542925583, -0.04945215899806724, -0.022487085024229463, 0.036478767492119625, -0.05091296882433445, 0.021033521108324803, 0.018136687189489856, 0.017597886906813336, -0.014974911999016583, 0.007726729735283906, -0.0799756518101516, 0.009132565967042958, -0.010803678998177017, -0.009225724432202816, 0.005337946575801345, -0.012026850475067276, 0.011622646317751001, -0.03301706128237754, 0.021090065972153862, 0.016737130166941713, -0.08892422377961437, 0.03997320246703452, 0.024678955552699607, 0.034871617282843145, -0.013692516124728193]
s390:[0.035757241551359446, 0.023920690085099026, -0.009933723320161222, 0.0569311610654747, -0.009027129878452706, -0.03827702662522924, -0.00028658381464624204, 0.019884603716641504, -0.02679780751437001, -0.06680133577009471, -0.017627980237745887, 0.048891649631324904, -0.016196795083411854, 0.03549135269669242, -0.019107267384377836, -0.0818141783170709, 0.022388338616163524, 0.04728717799752793, 0.03579876342665524, 0.013073763938909208, -0.014896488501862579, -0.0066615644717719575, -0.0003767418332818348, -0.006654405105350433, -0.018571152937164378, -0.04563633787225551, -0.00838886410561929, 0.040936232677258946, -0.016916867523526377, 0.009068810284188754, -0.008006869654450311, -0.10660829728507477, 0.042426507555497914, -0.003496297222719159, 0.05432398220977727, 0.05236115435497762, 5.939639692072681e-05, -0.030408042448008002, -0.005714511234796361, -0.0022037905809380543, -0.00973227988522946, -0.04003954448643086, -0.034699717254810636, 0.02379989794665401, -0.016809237126412375, 0.0012097846884191652, 0.006856499344415093, -0.10015704511308891, 0.05387923880443177, 0.0035625542420350386, 0.009013017335138977, 0.07220139116232224, -0.029484542086393832, -0.008027644853706765, -0.011782331671334127, 0.015516780314118114, -0.04298755086212295, -0.031175500670182186, -0.02424107648789299, 0.027805042219871682, -0.019232513624406363, 0.01664140919217343, 0.01166901862099354, -0.1056483826808366, 0.009925719339766239, -0.004521986822399114, 0.03494673987793108, 0.05208344876857177, -0.027355426569584475, 0.0017616311381147874, -0.008224097028812176, 0.010273657415438132, -0.03389113636041969, -0.06295911914495073, -0.03883143766231307, 0.031634214793713644, -0.0338552722852307, 0.028723335347576477, 0.031028847154032577, -0.05361821671095824, 0.037572289139764, -0.0959250101225493, 0.02935018199692552, 0.06751266992771016, 0.00622061975400263, -0.0038697589191304493, -0.007675678598331674, 0.02758105144145575, -0.039524568718594374, -0.06305782568714666, -0.047877324689316374, 0.02182450054155552, -0.021644401403573023, 0.04654218436958283, 0.02831037850387412, -0.047829554129553656, 0.029480952621130502, -0.0680570456439485, -0.006489073477249035, 0.07680760907056314, 0.007157712170872524, -0.02419484336988636, -0.0005783019051769273, 0.0012650481016639476, -0.016907369904065724, -0.06511028760566065, -0.02204645467826914, 0.042507782332188715, -0.023245734962569112, 0.04294013505738158, 0.012981304541604259, -0.05084034506868342, 0.04056025893722912, -0.026158344026799722, -0.035923426995777184, 0.08476255221925431, -0.05321883831796251, -0.014405074166675774, 0.004117956486108388, 0.009168895402079115, -0.01832914397027757, -0.04650462376400685, -0.053772155481055524, 0.08150570987081301, -0.043267893433398194, 0.06631641464703678, -0.0135669579879396, -0.04412735013279436]
sh4:[-0.029146798375827943, 0.039111119511761334, -0.007098987378643027, 0.03833970511682209, -0.014418779282394325, 0.006508984149828733, -0.043756259755093056, 0.018083019162362143, 0.02268548840198817, 0.0020768384054504732, -0.036706427782419594, -0.008239708486750165, 0.07365527479249308, -0.03977709026604091, -0.022080128422768897, -0.013766174411478213, -0.029006662330389756, 0.05124093834263818, -0.04302341271641425, 0.05828717258691278, -0.02833235077137018, 0.003618587654747382, -0.020590123969246258, 0.044373816861326375, 0.0041679693750452055, 0.0019668827855739307, -0.020297710699639194, -0.001789952050760413, 0.04738447982999946, -0.02566313508981648, -0.04402087196792394, -0.012941498175976607, -0.04290979333181073, 0.01258314634103933, -0.05551487277796263, 0.03138687958201877, 0.008359122748818169, 0.006319579995002961, -0.014018901295394164, 0.030295311083075423, 0.026987156124872336, 0.005805118260421355, -0.027625847193728726, -0.03226864294887775, 0.05917097381241887, 0.009860594483319138, -0.03541108612135841, 0.0033032197426898836, -0.07210708219019395, 0.04156295779558521, -0.04308811321844945, 0.02333953943790063, -0.012126083827968984, 0.003247118115658534, -0.0043933049093611825, 0.03736323700443925, 0.014868400935770817, 0.00746756391913903, -0.01710772869124081, -0.016770135612473168, 0.06105802856424604, -0.005968295993803937, -0.03486528466222534, 0.003200546793823222, -0.06515641885765892, 0.006641180998034319, -0.023612537824926883, 0.03149594913108883, 0.01698476159209488, -0.005199265387780107, -0.023015741731534388, 0.01868853606933861, 0.004797284759056841, 0.0031105031746430614, -0.004636520479870693, 0.0037986563470311196, 0.055898399405316226, -0.021204062101737118, -0.02663471354035859, 0.013589720785790294, -0.03616764375105677, 0.019048687927389778, -0.024540888296107902, 0.032635825036584805, 0.00805165128002447, -0.004098836872370392, -0.0036637356533716294, 0.009858883577222219, -0.017110924436215234, -0.0013788870514290575, -0.0009569335995128473, -0.0077676014076562975, 0.029655979907729953, 0.010252085665942252, -0.020926735336531922, -0.00721043565235988, -0.04847430699860188, 0.011795779560091762, -0.027524585443413158, 0.04079658087568345, 0.0014753945692527898, -0.015282946515783201, -0.00875164089760445, 0.020534305889479677, 0.009577570215073212, 0.01724103816616868, -0.018099643193963198, 0.02856461550007453, 0.0717689320973473, -0.001888222878451607, -0.041357338414770836, -0.05494361514350544, -0.04788041713617681, 0.010943611402140481, -0.04995667390573766, 0.04370528405245366, 0.006119136888481013, 0.005792929308458604, 0.008693798746007736, 0.03832776812525395, 0.012798420928658748, -0.01013701988652366, -0.018365737756582304, -0.00651734590461016, 0.06669805013770005, -0.02888763454642712, -0.024897785964442424, -0.020086503443636182]
sparc:[0.019608712305817184, -0.009139892381879787, -0.01506241536487735, -0.08103634169251347, -0.009983955408294961, -0.01029195088603144, -0.0010425646651656296, -0.0012504795130810079, -0.015416276230845221, -0.031259826700830454, -0.034578153986852614, -0.06104840688815061, 0.050319634784113366, -0.0480146386893815, 0.027890509975331372, -0.0562907036425422, 0.047905386865585806, 0.0034494151856850207, -0.016460910925435078, -0.10998129176862416, -0.009579439312044271, 0.005613148516916428, 0.004596849352857758, -0.013860710117137793, -0.014587423055458673, -0.036710094951821, -0.04815490203528261, -0.04219615851300347, 0.041369952141889536, -0.024447812690785185, 0.013140203950708208, -0.0785193805640348, 0.006379202657749843, -0.006357696765020825, -0.006710411890935176, -0.08598699867981191, -0.02266155513152969, 0.01703378795287036, -0.006138695820036983, 0.02052786439005915, -0.02398220805254657, -0.05708057902829283, -0.034487931860327656, -0.03657878938659599, 0.03967963818432674, 0.011175170422323367, 0.02635587407077628, -0.11797549977945958, -0.006607632045109533, -0.00525935952965963, -0.019566260628910703, -0.08831873566163718, -0.02666839136107223, -0.007878765177617365, 0.003284259452130699, 0.0027693398523746444, -0.00822657006789161, -0.059982250401939406, -0.009061635797534471, -0.05272779908336661, 0.030121683160606032, -0.00353702585779244, 0.027828887051594003, -0.05469653607476649, 0.010363976436164334, -0.02150653216128065, -0.024972048824279787, -0.12078965006220242, -0.01941621158147182, 0.013408502459035267, -0.005421779140988464, 0.006577485530297692, 0.02408247046689016, -0.04305660532261649, -0.02768086944296566, -0.030727225437074488, 0.03406799916452737, 0.010018304693534487, 0.009826571544542676, -0.0927149190174863, 0.012638904895747033, 0.00267627657726765, -0.0310273799169729, -0.09919581322887491, -0.057497095540151144, -0.0124530935428762, 0.00019849076549321505, 0.04314609750797168, 0.009989219744236203, -0.054990213731573145, -0.035376706748745046, -0.06492257340356195, 0.05976379949051102, -0.023238004629998307, 0.01578734120815617, -0.04290448150801923, 0.03616579701013867, -0.04353638475813428, -0.032260747049476464, -0.13582552697352757, -0.014235827328996581, -0.006408312234644619, 0.007842682395348598, 0.008918756540978573, 0.014847336632822599, -0.0688553562446184, 0.008698523721673153, -0.060417454036083354, 0.05350561579049995, -0.0182639815405224, 0.02079583902674704, -0.047729384443841005, 0.030061533034148245, -0.025789881782740255, 0.004215593661132141, -0.14914896209980122, 0.001177504095159399, -0.021844559200559985, 0.003615202044421536, 0.02900207056424078, 0.020642821412987317, -0.07384124443600978, -0.029021516156966895, -0.1175392182596106, 0.07971264426313492, -0.02768835224683934, 0.032803810418837495, -0.03290598197885391]
x86_64:[-0.13394753090478578, 0.02454159556051745, 0.017472161109342597, -0.004778318985241299, -0.029128970795351802, 0.012591435469224706, 0.00790987232156462, -0.017294655303566258, -0.07956474171326473, -0.016412065998513057, 0.01678513364869818, 0.020069386577933772, 0.012020599456792479, 0.026457537211617442, 0.005460536582263247, -0.02827354665242105, -0.11023625267147076, 0.03931119137325055, -4.159096742201648e-05, -0.024889410363794127, -0.008165818744905799, -0.0018879339540219977, -0.01142097725555221, 0.002305971648975767, -0.09536160367035673, -0.012406702788805771, 0.007091366128635328, 0.0050707426089866385, 0.030772785212178855, 0.052021754285424854, 0.0048523638443712085, -0.04213222272628223, -0.14359782973869217, 0.049787587756241085, -0.00376440875005669, 0.012723167733263986, -0.013154906065454285, 0.0020600763525057044, 0.009957859020947719, 0.0044839049858798295, -0.09122645395308554, -0.0007434111996843931, -0.007560457828476116, 0.04312003208118635, 0.008722579001442153, 0.007867539665768792, -0.007923069276258774, -0.03623443936651237, -0.14476130771057247, 0.04582554712703727, 0.0041686288545898205, -0.006619648133520436, -0.02455266374430932, -0.0017194479814850643, 0.013232158990396476, -0.03010454107743184, -0.03211965390015352, -0.004977614946338519, -0.0290925209807701, 0.03884457592386499, -0.007168888104501457, 0.019731490976428318, 0.007203671699361529, -0.013829499176141714, -0.16757654227975427, 0.0788470702124422, -0.006795364832732708, 0.018069822803173635, 0.005777017444465311, -0.008906419112682508, 7.695658120728281e-05, -0.011207005239148452, -0.06324100176361691, -0.005104257084238496, -0.015901816148640925, 0.01169112046485219, 0.0007369933313461668, 0.00046842115494904763, 0.03709192202161771, -0.03858519247790677, -0.12988319309165466, 0.07514637711510361, -0.003023088948882603, 0.025764326021282934, -0.042465647145736994, 0.017400348064447124, -0.0014689184721634072, -0.029490030112779547, -0.09278348669759644, -0.014566705597577674, -0.017863995430639996, 0.05673899035887861, -0.008048405175390782, 0.027706904689460514, 0.01629019280396473, -0.04446643307797027, -0.15730714560293868, 0.08576400165602932, -0.00023925355963295725, 0.005683787812543132, -0.01648392242626218, 0.010549051647617136, 0.0027487068720568855, -0.047283823333737166, -0.11536069216143158, 0.017631364133935665, -0.015050404188821857, 0.053963857262572176, 0.01363879567157989, 0.002001846434567353, 0.02564634028106521, -0.030636499706296824, -0.1514591465960891, 0.054454440896314134, 0.02862499064099479, -0.011077815438745605, -0.012475349885776985, -0.00015734501313365636, -0.002450185679078557, -0.0403113835827656, -0.1024847194773012, -0.013197484108253556, 0.0016447029807223296, 0.0645509515347787, 0.01412016023377791, 0.006074676246379966, 0.029424027565863632, -0.031614103695088075]
xtensa:[0.015525145039363353, 0.03478909164847911, 0.032795354138011816, 0.006319718179267904, -0.11855994305790464, -0.023786228330016375, 0.007291902659048406, -0.012166536668466262, 0.01844264943087052, -0.011708062308970096, -0.039049745498351336, -0.008511567928164696, -0.04552217429455462, 0.03198040611110981, 0.00528311930963388, 0.014531296119693171, 0.03241172472053493, 0.032879374694893194, 0.022119927589149976, 0.029730440150477315, -0.08236821126139335, -0.026581981077178875, 0.0017363047435395935, -0.0051094487224836735, 0.01838601319671763, -0.03098690847452188, -0.04222173144171867, -0.0360981099829348, -0.042440375764020905, 0.01370750866054364, 0.02017225927754523, 0.003272190879831673, 0.010896930110049422, 0.03824990016226584, 0.027832962788393912, -0.002166704098820909, -0.05712126175103103, -0.04614239861311114, 0.00026958253242737295, -0.006787983172172884, 0.002966378772059433, -0.020595204645976174, -0.016499405866968634, -0.02825144309029238, -0.012286274919481102, 0.009694320963543099, -0.001421731162624428, 0.008945343855235374, 0.0037665845473738645, 0.04688600504902069, 0.015135236522790913, 0.002810979979485929, -0.07055387927668902, -0.03583003783842396, -0.015131682714109699, -0.019839500286687566, 0.00333913431847513, -0.018863799795016095, -0.027694996098533292, -0.022817912146972007, -0.02642607789179405, 0.04792729352842753, 0.012999500939149323, 0.011664178524132911, 0.0030485569424168486, 0.04366956434335325, 0.02718972746973159, 0.008120472622708012, -0.10737371238945949, -0.05744661137115879, 0.008402736638731928, -0.01771308788981505, 0.010019005432560707, -0.0211243620754896, -0.004787681880756404, -0.009885038763900377, -0.020294894038447402, 0.02075160664305723, 0.0002399435398241331, 0.025642262339015384, 0.007158859242507543, 0.019728241094353612, 0.03339893407454047, 0.026047592690632088, -0.09663400316450269, -0.023754295736769772, -0.003414411962994627, -0.00978747666490602, 0.004350184117778122, -0.024931433794292277, -0.03574112671732966, -0.05088144549367242, -0.03470720416563552, 0.04970768681344971, 0.01893465782034092, 0.02777018317368861, 0.030599687548654123, 0.04032791332789225, 0.03253766424710257, 0.04508642580516144, -0.08087830958514133, -0.05849845435696929, 0.0035220199007075866, -0.01816908795492242, 0.0036922462998307272, -0.05637866990733226, -0.0505655980474459, -0.028582115111653664, -0.02814523568148112, 0.03294489718329481, 0.010348078148381146, 0.029639733512822897, 0.010367520137309235, 0.014074425288899786, 0.04121764817880288, 0.04831462643459866, -0.07833132829162236, -0.055546545343035464, -0.02213531776349546, 0.0032318203716296214, 0.01740776648288674, -0.031070145398108196, -0.02983017810246722, 0.0017213151076292481, -0.022854412481299293, 0.006623633469351084, 0.0011592508637363963, 0.0038901231128223974]
avr:[-0.05212180912104144, 0.03815053242746695, -0.070997809538554, 0.055367892166840495, 0.04775128440810762, -0.001666988194829758, -0.014040652968934463, -0.007924335210398356, -0.01888715556094455, -0.008625609912989586, -0.035377605038184615, -0.0505258210467762, -0.031059045124111954, -0.005348572844940078, 0.03143893516589925, 0.06430706203969382, -0.060315162879148634, 0.0005299924109542707, -0.051274295224441754, 0.030863737298218445, 0.024551168023570703, 0.008343092811566238, -0.0070189008975018435, -0.0032462120088990647, -0.013202466619034837, 0.010864271887678287, -0.0476855840941456, -0.024209779045707116, -0.029086421324387306, 0.02722847332654918, 0.03625459295454849, 0.037856514103037205, -0.06816947592677827, 0.04327639751759774, -0.03770705203066757, 0.029844682277939884, 0.03496225018586437, -0.006368081750552169, -0.009936578085263947, -0.007284010497722372, -0.006011654274158227, -0.006459654693526093, -0.033910547190636214, -0.007210874989944473, -0.031004452012485115, 0.0026298264195022594, 0.0025134302456876626, 0.04037428396172629, -0.062256220318824024, 0.01901967413902878, -0.06468968807946743, 0.0071028986672919394, 0.03932919641063326, 0.0015269458863817725, -0.012546281523928459, 0.009283843906892566, -0.002119642938349548, 0.01263346843209088, -0.03527751406943355, -0.0062815512643731065, -0.017321033962447146, 0.02354041368281033, 0.008770757378689082, 0.01963699888094165, -0.04128017456077395, -0.0006240342225064416, -0.08844156656676991, 0.029270390805916983, 0.021338618944362484, -0.010587092184682113, -0.01138744447437972, 0.009751768028601976, -0.01643040910882595, 0.00800070027897221, -0.018412635804287425, -0.004620296875684597, 0.0007461234946207277, 0.007881261142778774, -0.008277825917933152, 0.06300981153899818, -0.06785557957375163, 0.007948254379385504, -0.057673651061723535, 0.029916875524481416, 0.0051426455594696914, 0.0052682667182187915, 0.004202689450280168, -0.00890161259702613, -0.0035809066858794696, 0.022042754679959562, -0.01563158052639487, -0.029490431178323142, 0.0066021750808326184, -0.017431278652900336, 0.011945780558089324, 0.04761199273071771, -0.08208813394721493, 0.016285879783395737, -0.06558696708156665, 0.04691152366782385, 0.018049077979852446, 0.020236855880534175, -0.01111293604651006, -0.002427507320445569, 0.014885401337283466, 0.019950264244500075, -0.07358767034215107, -0.00577436985895034, -0.009129454244678132, -0.014139815556707791, 0.014149332580802698, 0.05334273051532048, -0.05812359800036175, 0.012695393634816794, -0.057709339467026805, 0.04645257617600055, 0.01545295146099576, 0.007610381752306422, -0.03100434399399736, -0.007238367169124459, 0.0049576841020721315, 0.007537240576645727, -0.040346234226203447, -0.0032030787207577276, -0.0027464627765022274, -0.00030290847422511806, -0.01839122826609285, 0.06400832664663612]
alphaev56:[0.0005979561742538806, 0.04343075798480871, -0.12556682649773496, 0.023886826612931702, 0.005411283883198382, -0.009846247883360002, 0.012651581509722768, 0.00908729213825571, -0.021334804236941247, -0.010082551446061615, 0.030673345492246634, -0.04121228358393873, -0.014014182944818617, 0.02057286575640495, -0.04151301822832937, -0.07107538533465071, 0.02208529791253539, 0.02784386193155812, -0.08688518947592563, -0.002330231936342148, -0.0009316123105483297, -0.013889462267104972, 0.013116475795961795, 0.0022347979005778442, -0.026564458288686203, -0.02859962240694514, 0.05481733157599713, -0.03626292202861609, -0.034169682913408286, 0.0028949244748006316, -0.030998027158977835, -0.05104781789679197, -0.00020903861142672683, 0.04564117106033776, -0.11493265538397751, 0.006436860303859677, 0.006889811111375769, 0.004504997519924135, 0.0035163695904448207, -0.01923287926231636, -0.017066258912411935, -0.0011315385633104272, 0.04564029628115638, -0.03599678530528195, -0.013747194751516837, -0.011118416736380168, -0.03226819524234431, -0.05521069224704723, 0.007028143914610906, 0.04929555845271161, -0.09445074451454095, 0.017541873336270043, -0.027457110262396736, -0.00453482669491878, -0.010163350023184949, -0.005050180318343662, -0.025832590807094324, 0.009967386319205494, 0.08030006707804015, -0.043043355772166836, -0.025362460469953652, -0.022153502841442553, -0.057572843800941166, -0.038057060788508144, 0.0019181982123768419, 0.07432984716933022, -0.10018619454890264, 0.011693788207072436, -0.01033693867245372, -0.017327486995152585, 0.0034253390919546456, -0.014382263702225943, -0.0019141829403238513, -0.005438400971876901, 0.056529370375703256, -0.051090482443715175, -0.02870511721894799, 0.013015571110475523, -0.07357988864804478, -0.04667892254944691, 0.004193878773241666, 0.07815168093656652, -0.12057875655740713, 0.005341738363174981, 0.00324012720887173, -0.019447916330026887, -3.9464067837208724e-05, 0.004460427120605637, 0.007518103645855612, 0.009052407711936824, 0.06889087389620067, -0.053409403802793375, 0.0004490993112945184, 0.023071222368584453, -0.06912712808506832, -0.13010530206835927, 0.01498566840249513, 0.08173348122834267, -0.08359638854872223, 0.017724480822212382, -0.024271005851696767, -0.007266208470579506, -0.007150574055426488, -0.011096185283953433, -0.02009362531623825, 0.025192061944709652, 0.0548984482450511, -0.04156702569147759, -0.02462628729542181, 0.00825256968479239, -0.09944128184197194, -0.07156908444917101, 0.015037889163932902, 0.06635870973280916, -0.13375940395127345, 0.03807866936083934, -0.02694227753333574, -0.002278655939189626, -0.023185259666223843, 0.025148524941774456, 0.004722224902302359, -0.002978629193180476, 0.06247890424740728, -0.02371604041002989, -0.002718698288691474, -0.0024780735146906234, -0.08296787440877199, -0.100029482748072]
arm:[0.014482005022919447, 0.02403161583617291, 0.004489942179221572, 0.002523612755798967, 0.05636199993876826, 0.0052453116922260784, -0.014282018504160807, -0.02303653194678254, -0.020410327274220253, 0.02574784330490925, -0.045364264885706204, 0.03077391870625509, -0.04526135678419166, -0.03151218888571264, -0.03146986702992726, -0.01974500796446773, -0.0036508983630928896, 0.009126105514212092, 0.0049449961740923665, 0.01281684675411698, 0.05901461500023061, -0.010878599610198445, -0.006479358893760023, 0.023671888396078047, -0.017150221172639354, 0.026733886334017076, -0.01368833929315499, 0.045132627201993986, -0.06815520390595695, -0.07078961339377628, -0.0352560742841589, -0.02303294155373504, 0.01714315884814112, 0.00561711908721356, -0.005730514263527991, 0.005323415668937864, 0.05559760920604681, -0.02241155918460296, -0.009356484622016326, 0.01777510659009972, -0.005376922941904904, 0.015173520543019854, -0.04843232562347438, 0.06961911908180866, -0.08725938315633408, -0.03557402373664437, -0.022651615039811755, -0.016997326577363126, 0.037030974911193205, 0.009238993346029801, -0.016753724052827153, 0.02769772419240358, 0.09658724319650805, -0.021939464873594904, -0.017040392858824943, 0.003542135696326773, -0.03908266962468797, 0.016757755430864444, -0.015416642518283577, 0.035951488288845417, -0.07454156676343807, -0.05654475182674928, -0.04341178883010413, -0.009434350374927684, 0.027984075303246363, 0.00478532935818742, 0.01066243448104618, 0.015414313952616264, 0.08627588357519037, -0.0263494055692507, -0.02905287040627752, 0.012596458177604597, -0.03664315247448911, 0.03624403228776125, 0.0008483620111253544, 0.03845191008627215, -0.0839247791457246, -0.06031651343540888, -0.05402719280174303, -0.009465510989332357, 0.0287012351382909, -0.002839176103024596, -0.010567816546452117, -0.0018559683858921225, 0.09184106135416521, -0.00645575406776286, 0.013711993210487869, 0.02037210812330122, -0.03320758721301843, 0.009552633806755743, -0.020970107347994114, 0.0244151888449331, -0.09113777221533914, -0.07116316749665261, -0.026007854171544168, 0.007779847757889347, 0.026764927006865436, 0.0028860665977673457, -0.025060404432644075, -0.0002301936857725678, 0.10555691910019992, -0.026116646407917877, -0.0230314993522487, 0.017952551897756082, -0.03823297411456119, 0.025018840118671386, -0.033394434516211255, 0.0521708217242119, -0.07979114840292023, -0.0647480255641845, -0.01418972023615445, 0.006541299369875284, 0.0355704921829362, 0.029618360863533647, -0.022457069137658024, 0.004178819780923606, 0.10908677938350149, -0.007016927595008201, -0.0054615133547093395, 5.5192207960168755e-05, -0.045233058399171897, 0.016026325807673023, -0.04495515494486253, 0.016245902453889294, -0.06504906681554348, -0.06964848004698282, -0.005770852965540076, -0.012511792399995248]
m68k:[-0.001897665603694141, -0.015379942613208858, -0.0013744059771048215, -0.034717205033973735, 0.03468241178954877, 0.016327291002879104, -0.0009624600176269302, -0.050401164355590826, 0.011678119486952658, -0.04451182557338585, 0.007843049433845993, -0.027173934681456506, 0.022747500116431202, 0.007418028548500476, -0.011473560248352272, 3.847723299169208e-05, -0.025564563237443317, -0.014418649813987085, -0.002037260512699538, -0.049282252393800706, 0.047818762894015945, 0.00612784005813088, -0.006601635548297621, -0.0562337164710136, 0.015853835290500908, -0.026435424757341383, 0.02543834541265577, -0.0309438692325929, 0.011622292097135186, 0.019201154182824778, -0.01692667568005071, 0.015579976034148556, -0.039243499963209943, 0.009696683276460547, -0.01601421035649378, -0.042173246749208596, 0.021908069729884714, -0.003450578398346763, 1.0063438574641856e-05, -0.03604697976926051, -0.006326788419176471, -0.02036334358691562, 0.025677559286030913, -0.024995582532949687, -0.008062405138089356, 0.027069573299463114, 0.004246669686549823, 0.02032137786602462, -0.02893023403560229, -0.005830963265055812, -0.009370731093964791, -0.051891816496664446, 0.036612255604113096, 0.010959368880223462, 1.4323152110536428e-05, -0.049887373461953155, 0.01953037330290417, -0.012793342642294375, 0.0202531027956418, -0.035614120232557694, 0.00939043218742215, 0.01688871572347258, -0.0021379713122213306, -0.005507132760973533, -0.034457479960780156, -0.014868617314612356, -0.021010217496296966, -0.02898876147921714, 0.04614731248082691, 0.01111555948687499, 0.00870335957497122, -0.046132241461743655, 0.02042575347328056, -0.02352805576157056, 0.00883611415739515, -0.02296384007650472, 0.012033888149405167, 0.02321325991839909, -0.01217229574309416, -0.014076596327729013, -0.012172933335112768, -0.023072500279093088, -0.009273341005981678, -0.06266031499318754, 0.04326528964456426, 0.005538260177184444, -8.108298200418796e-05, -0.054721278563584705, 0.010978376109119569, -0.0032601566880500602, 0.011181158895118202, 0.006623938333005791, 0.0011100682250309935, 0.0134906731378824, 0.013754504085850978, -0.028955597117600547, -0.014005953131106249, -0.039402433465346325, -0.0016520263132219376, -0.056257967287135315, 0.019799096530805693, 0.004287902436160697, -0.009513586226904205, -0.04946254902151036, 0.027433405027224134, 0.0011506003342759428, 0.024040203125894225, -0.06963310095884125, 0.037999317624305744, 0.03422676187636632, -0.00964947198027074, 0.011551982144726683, -0.004500510181700272, -0.028504957830185428, -0.002744987960742688, -0.08172524385043539, 0.059877114422061284, 0.016587152571836662, -0.002699638605445741, -0.06863693926099, 0.024889827664994722, -0.012625430205756807, 0.02167542061862275, -0.016492184830828448, -0.0036192281046411364, 0.01908931232277057, -0.011586855102487519, 0.002589804201180776]
mips:[-0.0007619033303018962, 0.019835589646534122, 0.024546049305148695, -0.024172891762872337, -0.03871024268396454, -0.0070924508991696686, -0.004953595279649022, -0.030224333651432757, 0.006564568525460985, 0.021099286624044002, 0.01003152782419352, -0.021441872573597233, -0.01727398079722461, -0.050643705253072255, 0.02087731814912657, -0.022871609443391592, 0.020351331588052128, 0.011340350583643402, 0.02075412214977233, -0.020041479179294542, -0.033248040616146994, 0.0008667937013056542, -0.006127672097096904, -0.008762750984692605, -0.0194646225785504, 0.020856369503051995, 0.006965762449363956, -0.012103726709780287, -0.01776097350957909, -0.04972177363305293, 0.0003491129330147332, -0.030642349554642352, 0.000962100085495476, -0.006465898475850391, 0.02701545571342777, -0.00957999432132414, -0.0014920274970202539, 0.0133312899079576, -0.0030038001081821183, 0.017679788208141253, 0.007656717240671963, -3.334381727845714e-05, -0.00794796978944289, -0.015218520450326088, -0.05999064301727663, -0.037838572738277766, 0.009389002388924237, -0.05140817660376866, 0.029071119266492806, 0.008546014227505104, 0.015540421026410572, -0.03358187383435257, -0.030121968467891412, -0.0016412303705031458, 0.004022303962832399, 0.00618279665309671, 0.01942562794537942, 0.027551993378125236, -0.0030388869690051064, -0.013005065887991513, -0.038778165169112214, -0.05435097213810524, 0.012923869231928882, -0.06639655937433278, 0.04046104170268133, 0.009650361299289324, 0.05125303854185957, -0.014703107785207737, -0.052936862586348166, 0.0077591415562057245, -0.00038178661797821873, 0.004479875940757736, -0.01878311029313185, -0.003961560803491231, 0.0031465972732249046, -0.03735699416400848, -0.05153271981884401, -0.0022144239935845762, -0.00048712082558725065, -0.05075047657353611, 0.02100949911760973, -0.02836252099899864, 0.027976434244466036, -0.006453716428938675, -0.04437941918058406, 0.02283920568534374, -0.005382405394828133, 0.03450287327905088, -0.012292877900101246, 0.005576454500390185, 0.008674715482990598, -0.008293873892617053, -0.03081861625753844, -0.017776424235914173, -0.013433881560239806, -0.0693397298317808, 0.021076326789045707, -0.003833128999748, 0.037377439774948874, -0.03146063898448733, -0.03418738869800283, 0.018745499891603082, -0.0027460817400371844, 0.022923097541849513, 9.367153827515045e-05, 0.004368245277592971, 0.005341969574490907, -0.030199117227312857, -0.00926049914276087, -0.04855064656483065, -0.006469797129524609, -0.06264594714608912, 0.011366477818359115, -0.007297900917422476, 0.030478435197736225, 0.0031898980418393293, -0.03335192331461465, -0.009187162208908271, -0.0021446881832921194, 0.02439989407992414, 0.0028674632194650588, 0.03105140555350837, 0.011894409970574272, -0.03230516413268284, -0.02454672672774823, -0.0007340443901429884, -0.01976579505060812, -0.10217869279135426]
