avr:[-0.17055705899854787, 0.07068916359289641, -0.17133398232352912, 0.07540636878911128, 0.11203937937611264, -0.009072394884413625, -0.05011314823810984, -0.026517254180275344, -0.032829342478420426, 0.017902004229925945, -0.12600309612776822, -0.09050583903257067, -0.10350718688404077, 0.01364472459591131, 0.058056073781373396, 0.12942319088502585, -0.21000361542737137, 0.024017255402994528, -0.21309083162787115, 0.1447591145885798, 0.0400972823554623, 0.004280879625187645, -0.045624578723804224, -0.011312092061448021, -0.023776453465864458, 0.0383403365417788, -0.14456405448412343, -0.05832132382687262, -0.001770472412764423, -0.011610831169392686, -0.018040820713089545, 0.18376925190383037]
alphaev56:[-0.01790875304072035, 0.13497923382842228, -0.36554280931949956, 0.03596083060246688, -0.01698148468524946, -0.0505187225775504, 0.004946766238874421, -0.004662637240817527, -0.093957784096426, -0.03276764025699516, 0.1603534390263586, -0.13162570992482206, -0.08082555221540781, -0.016528195034001564, -0.1367740384621207, -0.17703078734019304, 0.028131781250856507, 0.22681286094791472, -0.38674706357978583, 0.04840301874899194, -0.04014876658840854, -0.04466123941265131, -0.022123724847474983, -0.02238277287786096, -0.010248619184024052, 0.018417900297359985, 0.21791804675521462, -0.15366282385800423, -0.06370474765565162, 0.0037989935803808554, -0.26533883306400974, -0.32362570982897587]
arm:[0.049378511482620645, 0.03470799874487837, -0.02781664030940693, -0.026446855737726902, 0.1625823572202362, -0.045888118506564594, -0.03184724063817393, -0.009061998298138111, -0.07202828014132381, 0.05218596681109697, -0.0879962781504524, 0.10294879253645564, -0.1446305593824572, -0.1469540012686273, -0.06184599299021295, -0.07764402126370053, 0.05312631396415866, 0.022004912917494186, -0.031730078226224395, -0.02002701965161176, 0.26827486263212597, -0.06881211427575126, -0.044840010270989404, 0.04566223840385982, -0.082138590248936, 0.07013887489052534, -0.06265982517644773, 0.07612895082376261, -0.2420050149155995, -0.20131080073787158, -0.05710378427825337, -0.054282769396374116]
m68k:[-0.09296464802616757, -0.015331515934945058, -0.062399389000239, -0.17089405703855184, 0.09150775373366543, 0.015408623723057995, -0.007353704558852563, -0.17017852120850036, 0.026883976683934448, -0.11023135203494382, 0.05046962290932321, -0.10173712714655335, 0.013453823601387629, 0.05683928271204941, -0.00614951347066268, -0.0014820425107635157, -0.0561186776059513, -0.08274536487552059, -0.07011030347267129, -0.21050636281798904, 0.12977003476701263, 0.011774796351153395, -0.014492225915660992, -0.182681902634417, 0.04701014769964506, -0.05095507139537042, 0.051319720175884986, -0.10760465996784321, 0.030078081211432062, 0.05786231528888063, -0.024854920500154316, -0.011375174506386884]
mips:[0.01954291573195461, 0.018548592706781764, 0.049038113591748776, -0.07259470835881875, -0.08338894528682103, -0.004195656886707191, -0.01975050513389316, -0.007022045674130573, -0.000780246434136369, 0.04025989006466269, -0.0034866273280067203, -0.047302261567268716, -0.11016099738070734, -0.1715362786958145, 0.02161029984249364, -0.16518972285905645, 0.050258036112957136, -0.0457297720562996, 0.09489863398941376, -0.05135385822375828, -0.12594304232623688, 0.031786096170562966, -0.01076124937340448, 0.04470068977881998, -0.0148043956104978, 0.017142661017018817, 0.004342017110461541, -0.11395557084821897, -0.08525133261783002, -0.06905358539050026, -0.008915057567260982, -0.25571089878687503]
mipsel:[-0.006465864206298375, -0.1150280847726877, 0.0236089384088385, -0.0387067913913161, -0.16150673756536088, 0.02510524205574, -0.010628740633290161, -0.07678607854552943, 0.010431843480298126, 0.029240152275078847, 0.02463646131147646, -0.10981175388235016, -0.10913295531019666, -0.06787957169481064, 0.008365829240770431, -0.16655652493952916, 0.038982140935754785, -0.07194244834091525, 0.03638563733390422, -0.00573923708332793, -0.12513753999700367, 0.009714731941968325, -0.0031770886005594986, -0.03396472214930287, 0.040129879830510716, 0.010637177023618731, -0.005810975863663551, -0.10364554868319513, -0.14233552644603947, -0.15527683591204847, 0.020203611333877065, -0.2505026895369735]
powerpc:[0.09438084358168182, -0.19514250347848877, -0.1602554467620147, 0.09908139053575404, -0.02095722771974897, -0.02181276667470691, -0.03186009975545402, -0.003516833316640049, -0.13684267271611716, -0.0004701955742183218, 0.050233801514803604, -0.1573050837009362, -0.03628229502234577, 0.03904090166064257, 0.005564023232313354, 0.09204854639554198, 0.023178981832786775, -0.2671137456224469, 0.0141363457353632, 0.0487638928774404, -0.03145711826158711, 0.006126072593262618, -0.01337109482562507, 0.012203948077584306, -0.1593541581740176, -0.012828495944471358, 0.06323907890371608, -0.21393111130710094, 0.05859511689558262, 0.06428148449499316, 0.05255880034411563, -0.026832564122179395]
s390:[0.11584814328808272, 0.04933465310054182, 0.06840716244639197, 0.1628083104739275, -0.0637949953203161, -0.07302508980843062, -0.020442566474308876, 0.03896362643613208, -0.08128561063201277, -0.19801441296198377, -0.08469620114498763, 0.10818269946637538, -0.06494352170082555, 0.02362147439590547, 0.00726312765641251, -0.38298820023660446, 0.06847485179192835, -0.2064436779710572, 0.06043670475216541, 0.2549876385398347, -0.07956676770241154, -0.0482474886092111, -0.014961311404547437, 0.022921193994656204, -0.1271413554266836, -0.20307716012294755, -0.1524664696948106, 0.13041126865442704, -0.07524286522034875, 0.1270420407127353, 0.016748189475373862, -0.16712374100259134]
sh4:[-0.12659091633568403, 0.08724157067970115, -0.14596379090292366, 0.10018620768251346, -0.05430976376015894, 0.004116902257259775, -0.07811174909438824, 0.08710814711216458, 0.049406575930690075, 0.0071138050327190375, -0.0928405061778778, -0.021970303678150036, 0.17257683329142035, -0.05782524583086187, -0.13141396524471893, -0.03856807719787788, -0.17257975770489012, 0.006551742978597713, -0.0953369693461424, 0.0942980197577081, 0.027837640681413395, -0.013286464238081087, -0.01958000442360166, 0.06037101081031752, -0.00870536571711292, -0.03479479475839185, -0.03849522253382592, -0.004203390385234193, 0.1709135272775044, -0.04580802566866397, -0.08553127988711007, -0.08103144841809688]
sparc:[0.039659965727361225, -0.0021895944278075468, -0.0344451735918184, -0.3215585550536158, -0.06114153903044159, -0.006208809800675616, -0.018257568348280073, -0.01425622170694479, -0.059682334315228715, -0.1765447278811973, -0.12097426595158452, -0.180177588686239, 0.12273249654313893, -0.07620736284467473, 0.06908624907400804, -0.2981321867828266, 0.030030139294997173, -0.11020673475614481, -0.09333186021712643, -0.4535433313332629, -0.08585395980477392, -0.007263923516480432, 0.001966313907924696, 0.057268716150619355, 0.04290900377505984, -0.23784551096418818, -0.06114653773811673, -0.27234511387936644, 0.18317963696770456, -0.051575522959286954, 0.08032602400772637, -0.1620456057053971]
x86_64:[-0.46652065907023343, 0.1417272671696841, 0.05775163088422631, -0.029230481316882936, -0.05297949120376927, 0.0051281862416616055, 0.0023864250744752157, -0.02765194038491701, -0.2924573094337013, -0.07212429287850047, -0.0277763137434642, 0.05072534786563604, 0.015516417166965418, 0.08646521102458053, -0.0007616501777260532, -0.14007083929757463, -0.514840060723153, 0.19493466078385005, -0.018391030364565204, 0.022709302967292504, -0.0755804858282734, 0.004820346467749317, -0.0041861464779409515, -0.09409579233940137, -0.325823603522481, -0.031297631916712594, -0.039902207158800995, 0.1148939955729037, 0.004725166625811763, 0.025378224044994818, 0.08977388923063256, -0.1043419901015778]
xtensa:[0.03341392232209489, 0.1063597777752891, 0.10144831440923105, 0.023137754492434662, -0.30884804974123686, -0.12500107675143604, -0.015238188347837321, -0.06851598656681031, 0.02120720753087035, -0.05885200482867691, -0.10699694101690145, -0.08964937103126595, -0.12350691196102037, 0.09245591530458162, 0.0225243707170329, 0.02432170153576737, 0.015078728316020336, 0.07089070094537776, 0.09307548868654146, 0.12690488194139513, -0.3151419568073759, -0.17438875325261038, -0.0062262379702864214, -0.04845107729841457, 0.013893165311606706, -0.12407556724933887, -0.09360660434709082, -0.07136963543063975, -0.13088485064017016, 0.11139811174448173, 0.01448093410156706, 0.04711923461684408]
avr:[-0.16999088796266165, 0.07002480783963969, -0.1711637604134018, 0.07629612453363202, 0.11245943706421607, -0.009041447274601365, -0.0498734565535227, -0.024498273006506175, -0.032283160895859316, 0.019495271603744282, -0.12613538964381263, -0.0905799445697809, -0.10306368600587042, 0.014677113114390454, 0.057694021531982054, 0.12948020205919097, -0.21008777639514142, 0.023956498551425204, -0.21349440914729387, 0.1453720151080479, 0.03960507635471964, 0.004317579591198205, -0.04400196444685607, -0.010227198874593618, -0.02376376823051997, 0.03969300254967571, -0.144743316267895, -0.0582045962545873, -0.001244728397460177, -0.01063220038640865, -0.018031871322546977, 0.18340399722352915]
alphaev56:[-0.018103457949084665, 0.13470616354500772, -0.3657429532891783, 0.035988492967219156, -0.01684877334392567, -0.049944597111520384, 0.004923776123205597, -0.004709781067768092, -0.0939189807595796, -0.032285001807720315, 0.16040281041872703, -0.13190587946196458, -0.08059587895222652, -0.01654697530729256, -0.13677078072245774, -0.17704618182455717, 0.027993298324806706, 0.2267980424478793, -0.38694144547100406, 0.048241476857264265, -0.040276944852054124, -0.04480092758065692, -0.02219917504449058, -0.022493566654440526, -0.010446070670719244, 0.0180451707335836, 0.2182331249163709, -0.1532753203140714, -0.06323551243836714, 0.0037949145446857903, -0.2652688544474388, -0.32368022787636]
arm:[0.049231242378073775, 0.03468852107301126, -0.027777883367308392, -0.026287942175981727, 0.16249841577498672, -0.04591998069669434, -0.03173852290625107, -0.00915161185066113, -0.07201387065050044, 0.052112740301499365, -0.08776803395840953, 0.10298947341918527, -0.14439873197069952, -0.14667411276877454, -0.06192176460189736, -0.0777536531217511, 0.05301371833137554, 0.02211456763095399, -0.03161584935590946, -0.020010102512617665, 0.2683088303463733, -0.06868606700321123, -0.04489011559108582, 0.045575550406494345, -0.08218779316256178, 0.07012369854821421, -0.06271238377236138, 0.07626185493562383, -0.24192772614146255, -0.20122547816756053, -0.05717849620577362, -0.05451144875950563]
m68k:[-0.09185054555017406, -0.015357696164856868, -0.06145908873875246, -0.17099802794792524, 0.09068373201138928, 0.014897258116512156, -0.006400353372092292, -0.16930695482832542, 0.02674297849805108, -0.11070967690091751, 0.05111973682813414, -0.10143090835078748, 0.013378786801297624, 0.057470492209993534, -0.005231557981484568, -0.0005565995066398168, -0.05629667654866829, -0.08291364882281547, -0.07091213920660056, -0.2104150307695477, 0.1294604196574612, 0.013445317106037857, -0.013217197704441965, -0.18327287218092694, 0.048412760763608495, -0.05188160057557485, 0.05292883582867482, -0.10725240614129727, 0.030686920743259797, 0.05763285956441818, -0.02584887897418832, -0.009786825231016538]
mips:[0.01963728314168801, 0.018768881409620422, 0.04832820432239267, -0.07266454939826378, -0.08401509143420685, -0.003947652865736245, -0.019442830429930582, -0.006819334214180264, -0.0009145779244408759, 0.039867182034164665, -0.0040099053411222245, -0.04789135939327396, -0.10968563120108689, -0.17177644537947998, 0.0215792453188433, -0.16510530000198922, 0.04931333208514552, -0.04655905893106411, 0.09458069389239657, -0.05048878486856815, -0.12585594945855075, 0.03157192443744739, -0.010370785158022353, 0.04361212098545227, -0.013211155910503298, 0.016483176789715545, 0.0025940936851479974, -0.11368922116952317, -0.08587843336368936, -0.0686798693632233, -0.00836495772966216, -0.25659038319374505]
mipsel:[-0.006678123935696862, -0.1144383774806522, 0.023309572503685656, -0.03858139188737232, -0.16154227997630863, 0.024119645574889815, -0.010000008933853348, -0.07702786665225336, 0.00974472179837428, 0.028453380639381878, 0.025032600936626587, -0.10980226989356702, -0.1091621519475163, -0.06779490826850353, 0.008295532170285913, -0.16601052055918214, 0.03882865015205787, -0.07149846214565105, 0.03653390679480032, -0.005340754705830661, -0.12437183688220317, 0.010382610065545835, -0.003282155731143952, -0.03348014949112499, 0.04010240281204437, 0.010179287614725568, -0.004995659323135444, -0.10279077598085767, -0.14247201928145167, -0.15531700605629448, 0.019887874979312943, -0.25052488087708796]
powerpc:[0.09374555496489671, -0.1950707662995102, -0.16059209088161555, 0.1002141332418096, -0.02135308792714911, -0.02185736855305366, -0.031794110091680275, -0.003128031027160357, -0.13709235873721065, -0.0009169190815859199, 0.05098903108706884, -0.15709115700957052, -0.036209532196014645, 0.0387657636075693, 0.004820039144355007, 0.09170333689754408, 0.023222865079545612, -0.2670402316364233, 0.013666543501374983, 0.04820128751492427, -0.03164098766929182, 0.006541590537425166, -0.013305210086071426, 0.012274728617483258, -0.159728039907672, -0.014036941946647686, 0.062462250409220654, -0.2136950635095376, 0.058224543754250235, 0.06364543047799535, 0.05200455875227239, -0.027071898696304355]
s390:[0.11578729609039956, 0.049638140568169564, 0.06816924111477246, 0.1625875267925073, -0.06377384551783677, -0.07321009278891905, -0.01971919616825143, 0.039116723277964276, -0.08155720154450483, -0.19810099120659128, -0.08451706162788833, 0.1080143552680462, -0.06424488402145948, 0.024180347555585728, 0.005866650131425883, -0.3835790668347559, 0.06836284231796413, -0.20646786356031335, 0.06036672733075916, 0.25394540631394535, -0.0796038768801815, -0.04754831768049225, -0.015388115149119731, 0.022210019105692518, -0.1280951922573177, -0.20278763975993658, -0.15194180591902834, 0.12969520671645227, -0.07509951393100657, 0.12712314054848775, 0.016010183451593062, -0.16682036693546246]
sh4:[-0.12684307512589496, 0.08747114800587179, -0.14574121899527898, 0.10005722365728958, -0.054384780519117305, 0.004200052662949937, -0.0783002365135946, 0.08720925678711422, 0.04941169182085159, 0.007009532734421208, -0.0927380766140978, -0.02203475960375414, 0.17253451334939607, -0.05777661982448867, -0.13141125675062704, -0.038556728801703834, -0.17241246925619197, 0.006511049559694301, -0.09541988971421073, 0.09445081367170993, 0.02763816125993589, -0.012926830962348658, -0.01959590615332766, 0.06032005816659252, -0.008549078286697235, -0.03459601643377853, -0.038490533831175476, -0.004103193593442649, 0.17072824122341101, -0.045813514017463725, -0.08540897098575342, -0.08106013884693676]
sparc:[0.03987534279614011, -0.0019566592483061655, -0.035568826869510926, -0.3216184378814954, -0.06043326549384823, -0.0076024924351335565, -0.01984297915921992, -0.015071612857561038, -0.05788197474758924, -0.17726361220695422, -0.121052230772413, -0.17971855730487651, 0.1247626204915921, -0.0761467439573252, 0.06939401972054136, -0.29718609480850816, 0.03101036581977814, -0.10947744442392994, -0.09418489853418127, -0.45303504723528387, -0.0862987742866697, -0.005748613720020216, 0.0032349615225732856, 0.057145326881840375, 0.041093370232025674, -0.2372959696381308, -0.06077092533556114, -0.27223207291653884, 0.18390214731549065, -0.050689692766147904, 0.08083754562786136, -0.16252696449748347]
x86_64:[-0.4670366093179495, 0.14261980505826702, 0.05666580545100192, -0.028962665110709614, -0.053185223532825676, 0.0045192094712079136, 0.001554034373425785, -0.027079063020323535, -0.29239518244262236, -0.07044914913172502, -0.02706638116426485, 0.04938982017576713, 0.015382183536567694, 0.0854445185659662, -0.0009819793035940863, -0.13931248745405797, -0.5153289956614031, 0.19592979124024032, -0.01879698151393347, 0.023140333851914423, -0.07429947496829682, 0.0033065640389739292, -0.0036662171559507816, -0.09338513632330404, -0.3258529028394208, -0.031161908252273423, -0.04055157753048323, 0.11383721187686645, 0.004608766715517409, 0.025437488332354104, 0.08984754616833786, -0.10411431474189049]
xtensa:[0.03219769021942127, 0.10586361621528038, 0.1029174749395265, 0.023236352433140275, -0.308933120145565, -0.12516634204880503, -0.017533895677880437, -0.06743943610481767, 0.022320274012880788, -0.05828060756609298, -0.10723689876159641, -0.08883237511814904, -0.12328969396579458, 0.09368033573431112, 0.021790651426660132, 0.02406975784797261, 0.015137029625136009, 0.07165813999555684, 0.0935217264937928, 0.12597861936496316, -0.3147448996107981, -0.17408201927665742, -0.003370563309808397, -0.0502599489569783, 0.01300250817115364, -0.12430896325716685, -0.09390120424926338, -0.07233359019283925, -0.13102103922671596, 0.10953797410692219, 0.01592505003057659, 0.04772795710624606]
avr:[-0.0521471795029237, 0.038148263942712486, -0.07097394856817953, 0.0553468179129271, 0.04778578593793138, -0.0016432246195576075, -0.014069665231011195, -0.007921902901232694, -0.018926685107531108, -0.008609233086448762, -0.035412922738777004, -0.050490780052032634, -0.031041251669542764, -0.0053594974857560105, 0.03144496094600781, 0.064271341977395, -0.06033462715755975, 0.0005888002604313856, -0.051281577213888506, 0.03081846636806742, 0.02455076839358235, 0.008322298901903074, -0.0070390161744914945, -0.0032540193500620973, -0.013253445149705338, 0.010908451183742554, -0.047762981853378114, -0.024212883540927262, -0.029077895842482833, 0.027236241755361545, 0.03619395521122249, 0.03784615476355643, -0.0681973164357046, 0.043240396010113286, -0.037698037359437386, 0.029886841800296136, 0.03495751314562803, -0.006372148307557661, -0.009906391655282254, -0.007288340552961156, -0.006016168278083702, -0.006419431503350673, -0.033906177679663564, -0.007194635675731878, -0.030991981741681142, 0.0025731908386208233, 0.002529483560820924, 0.040355761677285974, -0.062283159855519375, 0.018985766141252306, -0.06465246198489241, 0.007069388046795308, 0.039273845686045146, 0.0015542677769291404, -0.012558282307453698, 0.0092772305673376, -0.002123685229576944, 0.012648787137549918, -0.03530128197288469, -0.006237001938369445, -0.017267610813893695, 0.023543236455167003, 0.008760816220399899, 0.01966219913897012, -0.04130998132334649, -0.0005961558296602171, -0.08845288266596509, 0.029274881104602798, 0.02135423430814771, -0.010640488141176838, -0.011393996669817106, 0.009695464385841552, -0.016422525252262146, 0.008015795289025112, -0.018435761011462378, -0.004602587584410198, 0.0007824437215656617, 0.007855236908557809, -0.008329520881860135, 0.06297532296121511, -0.06786862471574326, 0.007924997256200767, -0.057716053613186234, 0.029963790599401647, 0.005152108938953123, 0.005198500579948822, 0.004146957487149177, -0.00890353864731761, -0.003593013670822506, 0.02205693427462492, -0.015655445876364932, -0.02949012835495142, 0.006563134930350942, -0.017424209378648848, 0.011905648078437166, 0.04760770148976064, -0.0820897224672216, 0.016331772687877024, -0.06558523835522724, 0.0469015683408464, 0.018039318027097212, 0.020209144780390285, -0.011118916587518297, -0.002428467796943116, 0.014926713851006138, 0.019946787868020288, -0.07357964252045064, -0.005757757265414661, -0.009141910945786456, -0.014188381928671077, 0.014109939173388479, 0.0533757592367966, -0.05813726245866832, 0.012697033121993564, -0.057683083000164385, 0.046430267982636754, 0.015464201045344841, 0.007610535601450807, -0.031002853562864016, -0.0072217196069374375, 0.004956883519108732, 0.007520463471897198, -0.04033123023917763, -0.0031665871625021183, -0.002738337446208015, -0.00030447861661310027, -0.018440901463364266, 0.06401609280412317]
alphaev56:[0.0005152782585851619, 0.04337862321248829, -0.12558330591903313, 0.023900820776491565, 0.005405209801284681, -0.009926955235551309, 0.012238225739689315, 0.008956788264012274, -0.021428905464449987, -0.010042048998217682, 0.030287513005772256, -0.04123901001622166, -0.014236244271540039, 0.02052362227403775, -0.04161190947895848, -0.0710883988354928, 0.02201904082175138, 0.02780908795450232, -0.08700527496293431, -0.0023242556307757336, -0.0009539082666686645, -0.014055200870427909, 0.012426479925808503, 0.0020120940806165823, -0.026596885640541357, -0.028580411948402943, 0.05453151690886921, -0.03629327252278081, -0.034266934802488595, 0.0028598772170635675, -0.03099632402021795, -0.051003242553543514, -0.00018493061360435725, 0.04554875791616681, -0.11515713086742152, 0.006426587925039802, 0.006881311253928631, 0.004472841602416239, 0.0028372781018398143, -0.01931798106765191, -0.01709218750136977, -0.0011028569219620873, 0.04535004728337609, -0.03597904528380292, -0.013748263589745393, -0.011109596406764522, -0.03248860283657618, -0.055220014852730745, 0.00704327351279046, 0.04911149466183961, -0.09443379948320638, 0.017489619983130793, -0.027439276376904236, -0.0045139207007746105, -0.01089149299604384, -0.005153796548119279, -0.02584724237148557, 0.009964923979340847, 0.07983196644320813, -0.04301888261504432, -0.02534702719874835, -0.02224776790050838, -0.05756082372593036, -0.038045216847664556, 0.0019036471995197523, 0.07419510088360419, -0.10020587104418102, 0.011687274656645836, -0.010320628493227582, -0.01731535157827396, 0.002977565382510404, -0.014596506300746655, -0.0018770667757035107, -0.005431167830571807, 0.05596809576975119, -0.051117111838518484, -0.028705447573765867, 0.012958400145306689, -0.07387591875968703, -0.04666301069138131, 0.004162118762403583, 0.0780685015734318, -0.12071543604895603, 0.005318499216523855, 0.003181904577932797, -0.019603680998172984, -0.0004850749826981039, 0.004426602592720678, 0.007528403480390802, 0.009006946595145126, 0.06838095645201543, -0.05343895405193176, 0.00041321200184041897, 0.023025606670332145, -0.06939065074216699, -0.13009928628294928, 0.0149604589780809, 0.0816821170282991, -0.08363270467038174, 0.01772332879015285, -0.02430833409055406, -0.007386029136581897, -0.007962158464345623, -0.01107457399809951, -0.020236526666513818, 0.02518143658190648, 0.05454251963570916, -0.041871685018445626, -0.024644917016405907, 0.008306999997554415, -0.09942129643806354, -0.07158938838142498, 0.015013704368355151, 0.06622769846926757, -0.13376632374938593, 0.03808002068355464, -0.026947463761448243, -0.0022642779562157805, -0.023872716330037798, 0.024828073754456337, 0.004705910248988503, -0.002947140531827637, 0.06217689999518136, -0.023673778851958545, -0.002790139209755047, -0.0024683928225113097, -0.08309770380723787, -0.1000670335165802]
arm:[0.014485197187807474, 0.024033386093448773, 0.004484081822276819, 0.002516232318694835, 0.05593509242555727, 0.005250028864769135, -0.014552367354554382, -0.02304562720792779, -0.02042364679779008, 0.025752127580395905, -0.04564275022246631, 0.0304577029887489, -0.04536341057684435, -0.03162889812169636, -0.0315498830162151, -0.019725094966791056, -0.0037642763779740253, 0.00912258402701296, 0.00492620269593064, 0.012699662951471853, 0.05878336052957366, -0.010900987450225897, -0.007390384255188756, 0.023686363312905027, -0.01734850919484232, 0.026729462413861496, -0.01370011747397409, 0.045103990266543256, -0.06816339176095278, -0.07081375460281226, -0.03537410376353824, -0.02304818713613976, 0.01712833991628114, 0.005619839851674059, -0.005808189916050934, 0.005315026725007374, 0.055193865665459474, -0.022399885024906214, -0.009644869915108038, 0.017770504126901343, -0.005397937397966396, 0.015171528053582862, -0.0487400171655603, 0.06930741806104132, -0.08736305712619977, -0.03567820902306475, -0.022704401466157712, -0.01701082404756474, 0.036914116279181765, 0.00926698773714394, -0.016769535252092717, 0.02770868837831726, 0.09636354020198708, -0.02193764052225069, -0.017935117657483297, 0.0035370812725036434, -0.03925324010580788, 0.016766305044741515, -0.015396415035689677, 0.03593534827140929, -0.07452823822007398, -0.05657493191913984, -0.04351950260720259, -0.009529520185707728, 0.027976588886285063, 0.00478388248905976, 0.010555731217828374, 0.015423593798533258, 0.08586465660992354, -0.026341460402875126, -0.029348050229216313, 0.012613456338523957, -0.03661161802998828, 0.03621859994887675, 0.0005504657821130334, 0.038156658064455666, -0.08404740945465734, -0.060402490583074085, -0.05403768566634121, -0.009496754569619063, 0.02871393682032887, -0.002838937624219279, -0.010675792682996664, -0.0018473498054832162, 0.09165614819698445, -0.0064457577569950126, 0.013029066383644788, 0.020363210735061473, -0.03349736127585473, 0.009547935553395882, -0.02109306485876467, 0.02441152199602293, -0.09115721901865159, -0.07117638479329297, -0.026239172658301013, 0.007759588235104155, 0.02677053721588019, 0.0028911450201946085, -0.02515391147473001, -0.00023871952199746368, 0.10514065663689609, -0.026118983699942783, -0.023538021180209593, 0.017966141131973458, -0.03822243504185314, 0.025020965384560667, -0.03369968054427207, 0.05195479906624579, -0.07979662228492924, -0.06481500087420113, -0.014201705536592646, 0.006526326359028092, 0.03538307762481726, 0.029624347503326053, -0.022552941755224907, 0.00417390180699409, 0.10897363933257447, -0.007014220508155904, -0.0061574556067890565, 4.0348390079114925e-05, -0.04524502311733151, 0.01601887815694756, -0.045062112710284596, 0.01613233491235669, -0.06526283984249787, -0.06973952330471211, -0.005759757885966622, -0.012489903437662606]
m68k:[-0.0021534095029374645, -0.015385888745806979, -0.0017964132962080884, -0.03477552813738169, 0.0343488615552968, 0.015677438065397106, -0.002497461271870211, -0.050518658071385024, 0.010435600575385114, -0.044614798039759776, 0.006755893313583645, -0.027387463668055174, 0.022632901924243883, 0.006986422043714619, -0.011708507854461125, 5.1401209493963285e-05, -0.025580093129132425, -0.014470383786129814, -0.002452704947850415, -0.049477737545411744, 0.04741240024834947, 0.005643140079047538, -0.008425031175928806, -0.056422245048288425, 0.01502657165147884, -0.026535862399183124, 0.02483812734441891, -0.0311486819487233, 0.011304916256337994, 0.018845402912666058, -0.017437041356454488, 0.015416961865668974, -0.03946287751226704, 0.009561588809401993, -0.016374882418247784, -0.04230356055434598, 0.021324568800160384, -0.004293956136671638, -0.0011500039824918911, -0.03629392661352366, -0.0075723717935622945, -0.020385495131493056, 0.02496491810018902, -0.025167812822063013, -0.008144252255641065, 0.026716975729068913, 0.0039353246147625, 0.020082869174160564, -0.02893629245602613, -0.006288880342731581, -0.009784995287139346, -0.05204950799636546, 0.035686200163084596, 0.00972143579473392, -0.0014146381362938113, -0.05001425207030093, 0.01876140463074705, -0.0128576920390839, 0.020194461143559397, -0.035660780741825805, 0.009085012556178705, 0.01666982769970617, -0.002436308550516623, -0.005626351349898565, -0.034786479068865506, -0.014998821920444494, -0.021115989769242498, -0.029110251295971837, 0.04542659249536228, 0.010251482641349702, 0.006867919655480652, -0.04636414058755162, 0.01918662623323031, -0.023667015511472322, 0.008631688385798093, -0.023305218393599697, 0.01191893180898049, 0.023057336692163526, -0.01235424162262286, -0.014064544757329997, -0.012336450781263048, -0.023285777575869325, -0.00976980331472195, -0.06290152753002445, 0.04278724065211684, 0.004736095313436231, -0.0016217156847114363, -0.05499260543580747, 0.010089485943711032, -0.0034305993266470275, 0.010968944995004996, 0.0063970696140672806, 0.0007809110060975853, 0.013330177311046177, 0.013584412138606214, -0.029178964277432808, -0.014092586617303057, -0.03957664301828699, -0.0017556174391345908, -0.05640794265202515, 0.01935800295105647, 0.003219105370378484, -0.010838119837887964, -0.04968115024435228, 0.026317028934872744, 0.001097419786624191, 0.023526517456179605, -0.06972148905754447, 0.0377493686901323, 0.03369478088820049, -0.010086463479638343, 0.011457342319700059, -0.004654363809226227, -0.028613398219932636, -0.002742993152602925, -0.08171088912880359, 0.05914867495275382, 0.015427612357957674, -0.004153988546185746, -0.06897569312315241, 0.023963546828098353, -0.012759641498806627, 0.021179614983136485, -0.016803115232553272, -0.0037426049543896854, 0.018715517710144524, -0.012046038650401736, 0.0025369543343226305]
mips:[-0.0009790503125360615, 0.019869251879821102, 0.024262487235657534, -0.024123170915160995, -0.038734749123176995, -0.007139171477112694, -0.005743813586698449, -0.030237640735741388, 0.006542912773000997, 0.020926301088848732, 0.009800284533031698, -0.021365976952962145, -0.01720287084482804, -0.05066010849174494, 0.020816179087898165, -0.022850455248416085, 0.020160107435137548, 0.011357755442861729, 0.020553988948841615, -0.020002702390944253, -0.03320761865458293, 0.0008605153066935291, -0.0068865821680512175, -0.008710506022893881, -0.01946155279209229, 0.020662072566649863, 0.006773288778726301, -0.012080014901215972, -0.017739468349643878, -0.04972430458750506, 0.0003545069913590185, -0.03061609458970349, 0.0007206095289959693, -0.006503299525354954, 0.02680673805885905, -0.009540153503761431, -0.0015775683747122843, 0.013337372703168905, -0.0037978345907987857, 0.017665415373670182, 0.007711764306296782, -0.00022131652240403265, -0.00811932000275441, -0.015248296528864154, -0.06002682304367544, -0.03783583170741779, 0.009382032641363393, -0.0513785575018221, 0.028980834192825496, 0.008555787930280879, 0.015378321473228216, -0.03357672627215691, -0.03016755476292506, -0.0015517304463767087, 0.00307416718567714, 0.0061828879928299925, 0.019440904506384825, 0.027250397192359218, -0.0031864164394110727, -0.013013227434891821, -0.03881610464462343, -0.054365037271814326, 0.012956243567184614, -0.06636832945164689, 0.040315918779646805, 0.009584278048479809, 0.050971581067444864, -0.014708530889483961, -0.052943532444033964, 0.007793636122901881, -0.001109433865444559, 0.004503650756164677, -0.018843367979011368, -0.00400998201972188, 0.0030353880373821347, -0.037379557168729836, -0.051574853626353855, -0.0021493388309120893, -0.0006488715816221786, -0.05072441607210681, 0.02078963526605086, -0.028370842219152155, 0.027725974412985552, -0.0065412880006904366, -0.044390711406643704, 0.0227627703686645, -0.006223452920668965, 0.034519902604280284, -0.012351904206946913, 0.00548094046870607, 0.008280449322356356, -0.008236502350912047, -0.03080359613553842, -0.017825658882605896, -0.013478332191805801, -0.06940892859800225, 0.02094200550498059, -0.003931932787483682, 0.03719418422238002, -0.03175162971498374, -0.03414902568679057, 0.018732671029868656, -0.003215928270555405, 0.02289026117637458, 0.00013097458362829235, 0.004095511125859788, 0.0052246377887406594, -0.030263859430043564, -0.009330385147568286, -0.04857723361987682, -0.006588182917357229, -0.06261700569006742, 0.011279298902530403, -0.007231901231961232, 0.030458516937855798, 0.0031750762835707678, -0.033329652577220446, -0.009183339418286493, -0.0027277194819867834, 0.0243760964030908, 0.002872563755434405, 0.03059734551160569, 0.011762241265083523, -0.03233729595233541, -0.024657630683797872, -0.0007034275497563823, -0.01984177082866427, -0.10216535136333868]
mipsel:[0.0011085974007112832, -0.04195618998402066, 0.03667482317459689, -0.015993451707986668, -0.036621543956300115, 0.016928735284580856, -0.00015924176151626307, -0.020740039625236743, -0.002970788544035443, 0.00936003584848092, 0.034622636973795744, -0.052637064081736684, -0.019976537724918458, -0.04620451491845113, 0.00725605536516018, -0.03601711475995523, 0.01630476753045841, -0.02203148329800195, 0.004831627422923914, -0.01416655247643433, -0.04534314643115213, 0.017703327573978304, -0.007310142204495708, -0.026131340848434523, 0.014111182060292068, 0.0218268259803374, 0.007183872926606425, -0.028561913279167694, -0.0387897422727937, -0.014694873925834757, -0.008614500753587084, -0.04164135342302618, 0.014014753332670885, -0.02015987722156366, 0.0236590807921001, -0.001401795463381003, -0.060767118304659605, -0.004705520184570061, 0.009747660693374127, 0.0008260328800052766, 0.004416683259728644, -0.0012987123280840773, 0.007750667235902304, -0.03700391029968857, -0.02124106196000102, -0.007148171376288821, 0.00393682706616428, -0.0783442865820698, 0.006100352460841073, -0.046032140886022525, -0.0008952078048267024, -0.030385838665447938, -0.023156044647432646, 0.005162042482079175, 0.002072718686428509, 0.002600027984872455, -0.0038865262054823173, 0.007122916077272585, -0.005180801559516566, -0.030992092271960293, -0.0364507290997377, 0.0033923631390023684, 0.009492183402570306, -0.026539456109576205, -0.00749336149906381, -0.01928051850974562, -0.010800753627639667, 0.005431190874957956, -0.048469768221687894, 0.00438903535042057, -0.014757276433662616, -0.012017993091049442, 0.010646006983126715, 0.012448741746856775, 0.007057062013475142, 0.006775371976330984, -0.009322075873780797, -0.005582747460030986, 0.00834042403699745, -0.09537463869789085, 0.024974562310954712, 0.00816833395970744, 0.010022707010397473, -0.00010020035903169346, -0.02041620098588482, -0.01804288823044196, 0.004926032187404283, -0.008276012611334288, 0.013886202077551804, 0.011722146039714106, 0.007228651284931179, -0.043095396107098026, -0.030979301477780077, -0.03860328121762195, 0.004785000471295918, -0.090722621029349, 0.01828735909887681, 0.0050800850901861, 0.03213706389847016, -0.01084766653642329, -0.04720472749203146, 0.00231028899500352, -0.0011688555486151617, -0.01122657380656819, 0.017353812194853296, -0.007645553915706523, 0.010762905858666023, -0.013285090163369867, -0.05013114471024074, -0.056340002718465974, 0.02055060633255695, -0.07574456625268729, 0.007299957178797532, -0.020180271417547184, 0.011317585374021064, 0.014192263266621222, -0.03918006852490808, 0.0186111322172779, 0.0016270668327337725, -0.00442604077210877, 0.010009079399204873, -0.002860337276115208, 0.0006906905778881014, -0.02346833313612235, -0.03848157218929464, -0.07214146642258251, 0.010048577731325135, -0.03987303727510231]
powerpc:[0.05409422186988042, -0.04318253674032957, -0.02903554877191547, 0.027053354736463347, -0.02055438774262251, 0.0015354770266221276, -0.012931974706388228, 0.0031214406127544362, -0.06309746173066752, 0.004537593516677655, 0.010085951761110004, -0.04021425459959164, -0.019897539924371963, 0.03337279198590419, -0.001608346537682319, 0.017320456695999097, 0.01927326767390024, -0.053005928811626295, -0.05345321333398881, 0.02549325662799593, -0.00239530142416495, -0.006059950746312985, -0.001988002716725779, -0.004135382576192544, -0.016327778255997, 0.007939988984805205, 0.02208920113031586, -0.06799679450955334, -0.007388688458932938, 0.004760339530525054, 0.015147807936216381, 0.03932618386170332, 0.02987634823832419, -0.05309878911957971, -0.04482281431588595, 0.02729103694394372, 0.005831199682282633, -0.012295943311761122, -0.012533268475590345, 0.005275599966887128, -0.04130809079033737, 0.014343332920240953, 0.009061995124179269, -0.04014879874824291, -0.01640903622103309, 0.02175675884427934, 0.0025540883274203416, 0.024193271061946745, 0.006330663562892474, -0.06553642871285394, -0.033685446023744375, 0.04514535164397696, -0.009246240476940542, 0.00047610751486603243, -0.0008863686474403134, -0.0026220788745004247, -0.03785553366161288, -0.015264101848609029, 0.01973204570684779, -0.05309713851152, -0.010880904461084178, 0.030967035847316384, 0.0230291755348199, 0.024112428043601388, 0.013819229502820492, -0.0340549839413632, -0.0018003418177456145, 0.011028005732724047, -0.01613220989183345, 0.011405745258113973, -0.007670459813784379, -0.020947228980384914, -0.05608180783544824, -0.005753932580925551, 0.00789503743876466, -0.0483372250490001, 0.01936442215773422, 0.022576047477897456, -0.01096241760297181, 0.03538499757179305, 0.01458850742760959, -0.06742598629149388, -0.00891889283560616, 0.046447775069402314, -0.038395822380498774, -0.011847694750971572, -0.009366125768810178, 0.01773594840766902, -0.053064618021327344, 0.0018267633437439074, 0.03400500881855603, -0.05152211451385596, 0.02299998355312029, 0.0148052248222554, 0.013562939984328002, -0.005050058697505026, 0.014465567382284963, -0.09910721389826911, 0.006901447761193083, 0.013756324838995148, -0.0030357230945970157, 0.00547569843818279, 0.006097365560998714, 0.023064621684281042, -0.04944280614143387, -0.02249764340744872, 0.0363402194003075, -0.050980207923418994, 0.020790240920094634, 0.01788782679433146, 0.01729116450106588, -0.015262505101274006, 0.007667373357007982, -0.08013138411598643, 0.008882997482177617, -0.010810882540240386, -0.009277191025129982, 0.005240574026618665, -0.012000439944579168, 0.011113796916017129, -0.03302669124136475, 0.020664923307392214, 0.016659080574532078, -0.08889535151535445, 0.039780520884492195, 0.02453910874903692, 0.03385605403718163, -0.014165232227609929]
s390:[0.035564128460749085, 0.023398320472402045, -0.010247193051610835, 0.05666059079877046, -0.00912219992064673, -0.03887449188449699, -0.0006262094022703087, 0.01958064455689225, -0.026836985100583542, -0.06704960705645698, -0.018001205514063798, 0.04844827949848339, -0.016179605433573038, 0.03526891618819265, -0.01991606049016918, -0.08223101198372357, 0.022301573437735478, 0.04685670830885562, 0.035479158935544985, 0.012538816119282155, -0.015283846978408518, -0.007159503735749141, -0.0009360758781134686, -0.006675846588513764, -0.018562524783810035, -0.04581809251323349, -0.008898481482850914, 0.040276314235992886, -0.016966870251819657, 0.00887813752371327, -0.008274744071910293, -0.1067918506389392, 0.04242346222323624, -0.0037019434326006472, 0.053707078580292285, 0.052009573256484073, -0.00012510680307602413, -0.03089981536273048, -0.0057107021976927005, -0.0021435143414325728, -0.00981201829917338, -0.0403054838005419, -0.03508759762029118, 0.022858327750579634, -0.016864609970623157, 0.0009363841985171849, 0.006053132291905978, -0.10063062832666558, 0.053881980743398714, 0.0032954186054648723, 0.008451879875950894, 0.07159415507922312, -0.02960421769874201, -0.008502484289154238, -0.011802704690531914, 0.015512004483870481, -0.04300707576230141, -0.031430574420006664, -0.024585686327848327, 0.026872164192209246, -0.019297286632546568, 0.016255378127403883, 0.0108871130253777, -0.10600805699282884, 0.00988499287169117, -0.004717785174480677, 0.03449561218611998, 0.0518553902831932, -0.027605412826270513, 0.0013412309356627087, -0.00821473120584632, 0.010242063726418763, -0.03395503808669642, -0.06311521169554579, -0.039035150904973635, 0.030720890620520407, -0.03387859057271987, 0.028342678046596327, 0.029891344887958856, -0.054231016357515725, 0.03759575544311203, -0.09636104695736718, 0.02899230663451482, 0.06728746870536241, 0.006246289351123263, -0.004633921221288441, -0.008003238161570525, 0.02741198336609511, -0.03960337462062984, -0.0631618464232794, -0.048204998790199835, 0.020885670165984457, -0.021685986085962054, 0.04644696679524994, 0.027328401136235126, -0.047977299436682955, 0.029486077785722615, -0.06809057641681657, -0.006789499905218042, 0.07624612955407546, 0.006894311874392509, -0.024496661136567538, -0.000909510976095413, 0.001156382840214528, -0.016885966711299424, -0.06536426488610508, -0.022335543454668785, 0.04149054257770696, -0.023313034080809095, 0.04270943045531062, 0.012024484853234929, -0.051339091651821996, 0.04050458365523947, -0.026492936157888766, -0.03646141067720148, 0.08445672675521876, -0.05336049813451573, -0.015086973214276368, 0.004077110906573532, 0.009158034788979419, -0.018500545459399935, -0.04664962070360745, -0.05411111951803872, 0.08080122511747408, -0.043290976446716416, 0.06591356307398334, -0.014459575251331512, -0.04456879326631899]
sh4:[-0.029149008663182225, 0.03912851495615878, -0.0070714312345576584, 0.03828480781539112, -0.014401432677364651, 0.006491341964763191, -0.0438156229353161, 0.01808017566816315, 0.02259497654458506, 0.0021274973496141817, -0.036742613245267716, -0.008247021463522327, 0.07363113766504634, -0.03974068167450906, -0.02205007305436629, -0.013755521183042756, -0.029000852730750596, 0.051240909069267, -0.043059556910130206, 0.05825585798492537, -0.0283168135557013, 0.003647944547645477, -0.020571866705266884, 0.044373022378699015, 0.004186554436993103, 0.001964588688080118, -0.020306974792631723, -0.0017829744051939404, 0.047331041206563174, -0.025669284693197143, -0.044034564731078654, -0.012914577905372369, -0.04289145671881788, 0.01257944215024374, -0.05550053304687164, 0.031326467113965674, 0.008299403804858432, 0.006293274706911976, -0.014071797992626535, 0.03026547995296392, 0.02694255399388146, 0.005813025293892521, -0.027609810209532383, -0.032291888284913375, 0.0591828381581711, 0.00986417697119646, -0.03543113653223553, 0.0032901746459117593, -0.0720232125445759, 0.04154778824052114, -0.043078297921985406, 0.02337459261011569, -0.012160961126848861, 0.003266279454789634, -0.004332505117155026, 0.03738117749382328, 0.014907821170178298, 0.007499321904283521, -0.017100999293000182, -0.01677161366262348, 0.061037801750911995, -0.0059679305370445275, -0.03485200408174712, 0.0031887319310755714, -0.06517804077856003, 0.006642405315110048, -0.023648393696600267, 0.031535172484497505, 0.016984184946514075, -0.005173506855218352, -0.02301122433073066, 0.01870261347354554, 0.004772009556431284, 0.0031084788134525376, -0.004676111419711143, 0.003816250690431334, 0.05594123659166608, -0.02119012259202819, -0.02657999438767064, 0.013605601650544828, -0.036142570591273515, 0.019055053415212804, -0.024548574240297816, 0.03261552150047008, 0.008035593162439897, -0.004064960967223856, -0.00364977612937824, 0.009814562222722055, -0.017143375750850617, -0.0013871838515855967, -0.0009279512543835172, -0.007731975645373075, 0.029629656466743086, 0.010220663513667464, -0.020906791732457086, -0.0072117575773346385, -0.04850593257680821, 0.011762721611953348, -0.027497298207865943, 0.04080423347725533, 0.0014477068588597528, -0.015312969231187334, -0.00876904487638325, 0.020547086677209166, 0.009606935491759372, 0.017275586098844758, -0.018110058265041945, 0.028576623135206272, 0.07178557170606718, -0.0019147074132377971, -0.04135666423710062, -0.05492135684103671, -0.04788173175135536, 0.0109837288474483, -0.049983206996253464, 0.043635565989509885, 0.006158176637647905, 0.005802741025848556, 0.008721145686536416, 0.03829421323525957, 0.012807646256011648, -0.010150753977925295, -0.018375674652150346, -0.006525553319833327, 0.06669642153772791, -0.02892281680159784, -0.024897759360568136, -0.020081343978459298]
sparc:[0.019571743041244753, -0.009129346715680607, -0.015093430932933284, -0.08112496594049991, -0.010012199580513515, -0.010298526226328212, -0.0010797835130221304, -0.001438189431834954, -0.01609212186474126, -0.031242105251001104, -0.03470400895650865, -0.061088059542868736, 0.04989428506345696, -0.04802734217015029, 0.027796192571620356, -0.0562848975626906, 0.04787997101946602, 0.0034548701262748886, -0.016428579165354614, -0.109949447974618, -0.009552722960442718, 0.0056220828596584066, 0.004597325714745529, -0.014067742481162014, -0.015312322693398156, -0.03672536378043861, -0.048129087236897475, -0.04217102429909275, 0.04066405371184415, -0.024492076324972648, 0.013147525992472217, -0.07852215064335775, 0.006376798061162159, -0.006359802338960817, -0.006729400814688322, -0.08599322953081075, -0.022650994734209885, 0.017047697790306536, -0.0061924210924465505, 0.020326005786996327, -0.024714187638529735, -0.05707946024981581, -0.03448743543462974, -0.03653887513383564, 0.03901477501265847, 0.011201868139907522, 0.026322975292843935, -0.11796771481202366, -0.006613880174836264, -0.0052218078403368845, -0.01956671291566794, -0.08825142103145521, -0.026615575933325624, -0.007846291976061353, 0.0032911434067944712, 0.002584176544652848, -0.008955517292742422, -0.05997091691241632, -0.009048283110343242, -0.05277867922692833, 0.029416712811249687, -0.0034924417313300427, 0.027841145289546013, -0.0547054516329902, 0.010327414572613613, -0.021484616841537116, -0.024982225993283234, -0.12077751602799258, -0.01943984954764114, 0.013398540261314415, -0.005386258539953199, 0.006226996758917278, 0.023371437684136638, -0.04306238827663516, -0.027729693643043302, -0.03073845119645217, 0.033446984565284214, 0.010003835657355777, 0.009830682181367874, -0.09274892343825125, 0.01263996267582138, 0.0027072328999934747, -0.031081489689771622, -0.09940861978952344, -0.0575039448317519, -0.01245054799148976, 0.000171284745762142, 0.04281753794952439, 0.00966958032125603, -0.05499587633169835, -0.03535389622722095, -0.06509284496752689, 0.05940430682272913, -0.023468981827835255, 0.015774456924501325, -0.04290700583517598, 0.03615304224038985, -0.043486697581521384, -0.032377731589427756, -0.13580899315621156, -0.014457568713783961, -0.006413756380710251, 0.007828220701407875, 0.008568260653772255, 0.014322637615923364, -0.06897107165751694, 0.00866988967098264, -0.060535231603244644, 0.05318346464383063, -0.018265131770836888, 0.020808786229788427, -0.04773133664257659, 0.02997655935813675, -0.025901625372191997, 0.004243719050549526, -0.1492153156796918, 0.0011850887348576003, -0.021820211291316793, 0.0036303006548412597, 0.028645757737518363, 0.020048517539455874, -0.07385686138657836, -0.029021066247211406, -0.11754188594823253, 0.07959854633182487, -0.02793570910400471, 0.032782483148789385, -0.03284409964356343]
x86_64:[-0.13410279636251268, 0.02431667418968806, 0.017282935859615094, -0.004998642337649983, -0.029307600390814186, 0.012618664686358078, 0.006465350072909714, -0.017425147711672685, -0.07970815917229913, -0.016518874576627613, 0.016475554259141465, 0.019549783776773497, 0.012040718457997337, 0.026037328987709243, 0.004652331934716851, -0.028481035641086328, -0.11035013991387556, 0.03921263296338199, -0.0002735644731451624, -0.025189099760127575, -0.00835524900965159, -0.0019510912795068795, -0.013282823597003827, 0.0020027798056887385, -0.09546868289679382, -0.012641444676243374, 0.006953921100105628, 0.004644819306145119, 0.030660812551113928, 0.05181103562572655, 0.004522090598049077, -0.04245190060237222, -0.1436108573108336, 0.049440642702384525, -0.004131049736383136, 0.012622688655162856, -0.013458728520083788, 0.0016305166942005068, 0.008260600486916313, 0.0041707556080211065, -0.09126249139805927, -0.0007810853112560701, -0.007701013304533418, 0.04276830387466479, 0.00837434294586835, 0.007776854442053927, -0.008321562312523031, -0.03644510543681031, -0.14477690456859163, 0.04552448056692744, 0.00358143014039383, -0.00706105656834996, -0.024826554200809897, -0.001987093803041266, 0.011929827430500863, -0.03029260843224031, -0.032172627893675164, -0.005308770513881809, -0.029166816498976386, 0.03840653444673281, -0.007232721242772625, 0.019524368244620366, 0.006891625096592563, -0.01406225941769795, -0.16759413815671736, 0.0785921745198872, -0.007314337121383703, 0.017688433749624696, 0.00548324633604846, -0.009137594960364648, -0.0011933734489908028, -0.011436792793738817, -0.06333058633971564, -0.005452795586929446, -0.016044870164176918, 0.011255001795477067, 0.0007578684122274983, 0.00025740839279338895, 0.03668027635444124, -0.03886982181137828, -0.12988658051974605, 0.07484698108880046, -0.0032512275093255234, 0.025577802623610767, -0.04275773507349303, 0.017199459963572215, -0.002917726114642529, -0.02962845350396901, -0.09281039191332914, -0.014696304959127831, -0.01807907204223053, 0.056364202766564744, -0.008366076818699192, 0.027323276654300604, 0.015886519069988506, -0.04492315981630101, -0.15753326816691535, 0.08521933871157428, -0.0005587738260840735, 0.005365463502716519, -0.016862678648048413, 0.010100671161558838, 0.001456977625098965, -0.04752248925371498, -0.11533605047156979, 0.017512532032971435, -0.015170299703942333, 0.05367798267872054, 0.013629482615429596, 0.001665946888729428, 0.025138019757934622, -0.03061171714706499, -0.1515524518625181, 0.054006836999561054, 0.02818916579459807, -0.01126300264478415, -0.012790629126558746, -0.00035624176800309876, -0.0037912025467936542, -0.04040427773512268, -0.10247498311295518, -0.013388014460830334, 0.0015340660031386041, 0.0640317777780316, 0.013988008904922713, 0.005859640515056517, 0.02878108111677009, -0.03174174303644578]
xtensa:[0.015546970541593343, 0.03482852413701127, 0.03284336295373631, 0.006195186277338263, -0.11857969765032611, -0.02402408486091629, 0.007446530244498323, -0.012281309033269386, 0.017839450756529568, -0.011856264090605877, -0.03876777673223036, -0.008604696703486963, -0.04532412316792627, 0.031555387323290156, 0.004951574836611306, 0.014122223440041342, 0.032454916136026836, 0.03284162937904814, 0.02220474485544766, 0.029624868737117394, -0.08237857173184093, -0.026471508754202802, 0.002330528111433148, -0.0053784588899243695, 0.01738337729933744, -0.031043853465073445, -0.041958275619448746, -0.036342655609204105, -0.042344156513383704, 0.013172613229684424, 0.019779527929681975, 0.002908616945593144, 0.010448101244720655, 0.03834325400582916, 0.028059529772957878, -0.0022785037591508055, -0.05711495964840582, -0.04616577550587162, 0.0009497749939792118, -0.0069879465359851895, 0.002172102770470421, -0.02075273482348754, -0.016190849767954898, -0.028459377864596968, -0.012249298984312226, 0.009207172025632888, -0.0015845361162484313, 0.008629052750890416, 0.0036648500171715826, 0.046760805747588834, 0.015138543316231469, 0.0027848635890469118, -0.0705980699620247, -0.03583299311407157, -0.014435092861853595, -0.019994967703637557, 0.0023006451065449413, -0.019007645960735016, -0.027308096335622853, -0.02313032310143755, -0.026394530018911275, 0.04751921344164775, 0.012605331799990321, 0.01165055302647797, 0.002935624516462068, 0.043752352539582685, 0.02690497758962815, 0.008055318054715372, -0.10732024059381412, -0.05746046907498681, 0.008756883423447485, -0.017823140092939404, 0.009267268093420131, -0.021212328204688026, -0.004324165177448547, -0.010063146230870262, -0.020445114508860784, 0.020274441775759027, 0.0001857598556190621, 0.02530321316459324, 0.007027480432327783, 0.0197631445804888, 0.03341072813712552, 0.02563440831625874, -0.09659695330121017, -0.023646846943039933, -0.0029792075564627164, -0.010085819223317187, 0.0033357924335382623, -0.025005067742683382, -0.03520692616155587, -0.051093375841503516, -0.03472612141232817, 0.049180243242097965, 0.018748252294547168, 0.027665735982543113, 0.030412763399876527, 0.04030612900564127, 0.03254525809566966, 0.044888598649910405, -0.08120747805562888, -0.05842093797631613, 0.004315625177943455, -0.018584423740608227, 0.0027952521746437615, -0.05649268447606579, -0.05017543145814747, -0.028501811222945227, -0.02828273417534489, 0.03283361820191013, 0.009943191613583516, 0.029268663558087587, 0.010260844496173269, 0.01420860531802198, 0.041178017715674586, 0.048126513481902305, -0.07830485188309987, -0.055838375543676676, -0.02153704899162348, 0.003138690018171331, 0.01619925801096642, -0.03138102451204172, -0.029546895495230926, 0.0016906155706309818, -0.022834262104609662, 0.006530714374714221, 0.0008841703460327945, 0.0038765236854996733]
avr:[-0.052138570892477504, 0.0381267363983782, -0.07099157331457827, 0.05536847294336421, 0.04773396380278212, -0.001664463344472747, -0.014070431096656072, -0.007942263354211273, -0.01893503721419258, -0.008597224701037487, -0.03539508209515036, -0.05053014783227326, -0.0310515193305807, -0.005343863337812569, 0.031426678248172794, 0.06426193172580623, -0.06029599446087219, 0.0005649968836302744, -0.05125983041054834, 0.03083099444867686, 0.024502235835898875, 0.008378618844928909, -0.007034749794340048, -0.003226806810239194, -0.013238919075571468, 0.010902591176463786, -0.04774188410929782, -0.0242221492877001, -0.029052528391073584, 0.027286106770543734, 0.03619909290323201, 0.037870030099439685, -0.0681732233284283, 0.043223463647192074, -0.03770767545939078, 0.029867401856018782, 0.03494638166532764, -0.006335124790015236, -0.00988724225471833, -0.007318352281201201, -0.006004226433283472, -0.006440469313210801, -0.03394895028864938, -0.007202925279968338, -0.03102721509826793, 0.002632893506702499, 0.0025183095915116355, 0.04035180777414974, -0.06226038715514983, 0.019003188918187645, -0.06467625904303902, 0.007098557936958545, 0.03931683090608091, 0.001534947349090142, -0.012544586355532829, 0.009287996716489954, -0.002109200347253328, 0.01270129875347468, -0.035295422756449334, -0.006249875154324417, -0.01727854500497957, 0.023580820132080443, 0.008717228894257373, 0.019643300751766513, -0.04131438773981443, -0.0006171410948830415, -0.08842983614087226, 0.029279256072333965, 0.021349360314472564, -0.010603341402078045, -0.01141815290966017, 0.009732948675463359, -0.016411653134485893, 0.008010023218075422, -0.018425869265583938, -0.004616894035855488, 0.0007271101820905023, 0.007880421888807224, -0.008309448241025554, 0.0629873333489821, -0.06789490471828445, 0.007966202217606964, -0.057707301683988646, 0.02991960451363998, 0.005145730330978301, 0.005211378057858369, 0.004222164494254661, -0.008895172865930577, -0.003564143671564104, 0.022071973881282715, -0.015631704454079527, -0.02950978369435189, 0.006606873104320671, -0.017385148820685255, 0.011941012677278384, 0.04764455845296983, -0.08207546317038909, 0.01633926584437239, -0.06555691636553686, 0.046928421331040776, 0.01806912901108415, 0.020219709230123447, -0.011109754505677728, -0.0023957837079050695, 0.014888157365219734, 0.019925376717552557, -0.07357229796759239, -0.005782749651180682, -0.009109297011307076, -0.014107854488367632, 0.01418634189457619, 0.05338909408752281, -0.05812462391561431, 0.012699586551530914, -0.05774381245358652, 0.04644780075718943, 0.015476703566516486, 0.007627451975494884, -0.03098762898833339, -0.007190773122849779, 0.004955960436004416, 0.0075157160770609925, -0.04032213799840504, -0.003215010078342443, -0.002782411775433438, -0.0003199406013986002, -0.018403990062152806, 0.0639992274054846]
alphaev56:[0.00048695861058201145, 0.043326502600270704, -0.12558126130167258, 0.023905504723236118, 0.0054115165568858516, -0.009934905571738432, 0.012256970286709253, 0.008979784994293104, -0.02144917504015769, -0.010071324538104998, 0.03028380955180931, -0.04123940683236674, -0.014258847860364353, 0.020521323128070715, -0.04163443616987099, -0.07108636249794949, 0.021998953752480312, 0.02783807647022861, -0.08696878197997987, -0.0023148956000458077, -0.0009537762606025047, -0.014033999802727652, 0.012431854414724684, 0.0020469559907237526, -0.026567665071808425, -0.02859967153285961, 0.054553119692792154, -0.03628573669538288, -0.03430642040071785, 0.0028726040382525157, -0.031007861694779284, -0.05100009940506742, -0.00021754951880335568, 0.04553285667847922, -0.11519302406705585, 0.00644334033099933, 0.006869629944369714, 0.004496689417009206, 0.0028099260223221445, -0.019353374334456375, -0.017077509641730142, -0.001143763443733643, 0.045323784916707285, -0.03598135653746996, -0.013746785904429487, -0.011144837010584536, -0.03246755299090449, -0.05521266246618549, 0.007031136277370347, 0.049107673166189796, -0.09443648411874532, 0.017523886676486463, -0.02745645259332165, -0.004514723314405743, -0.010850741070080546, -0.005130439335106275, -0.025851595104842372, 0.009955459731445813, 0.07981923444512222, -0.04304198338036126, -0.02534017951170238, -0.02223189997404064, -0.057574042228312146, -0.03806804157748654, 0.0019202467347443626, 0.0741877357800415, -0.10019024387345186, 0.011653170078498478, -0.010314254083502361, -0.017345599114613714, 0.002999249872741424, -0.014601142705450508, -0.0018992286654603411, -0.0054729301406331535, 0.05599370962231625, -0.051102596352234034, -0.02870404454889652, 0.012936503745377477, -0.07389183600130322, -0.046704818117469134, 0.004130758002690056, 0.07805649336570057, -0.12068719868007284, 0.005348887979597224, 0.0031883185115124625, -0.01961090634549988, -0.0005087881509382376, 0.004434348237903427, 0.007543424717989747, 0.009017871871647579, 0.06843922753990923, -0.05343257381240169, 0.0004218026274913566, 0.02302527741481542, -0.06941255219817095, -0.13011055955946196, 0.014995383855351034, 0.08170597670953193, -0.08363156869191513, 0.017715759766925947, -0.02428901730989327, -0.007366833671636671, -0.007962134799474411, -0.011099648455322322, -0.02023496390621399, 0.02519065342314522, 0.05451944752361144, -0.04186239092290541, -0.02465896589426802, 0.008263630793217945, -0.09943677571008273, -0.07156478583906234, 0.014999862589188371, 0.0662595911887049, -0.13378015569173057, 0.03808131480098671, -0.02694215475634965, -0.002272007293176029, -0.023857572871943778, 0.02487011074760653, 0.00472685229413237, -0.002974520607925933, 0.06212673543777852, -0.023695568131612707, -0.0027912556694718437, -0.0024775739611473785, -0.08307761967750688, -0.10003443697474788]
arm:[0.014480399590756216, 0.024029931172720984, 0.004485170785661335, 0.0025411585857959725, 0.0559385634797365, 0.005225987906451765, -0.014587602002593738, -0.02305006607078821, -0.020413819994193644, 0.025759934541093665, -0.04565919378021106, 0.030435573564331485, -0.045356762960534654, -0.031612777689553964, -0.031574868384053344, -0.01976349995135665, -0.0037537823024658126, 0.009131104521988176, 0.004940479965780321, 0.012706181539905789, 0.058808010445321496, -0.010885364829974592, -0.00740604933455558, 0.023659875110405546, -0.017345542340846842, 0.026719537347419844, -0.013660201382421822, 0.04510287485596923, -0.06813942529164242, -0.0708048739232488, -0.03537624396857547, -0.023036625421751264, 0.01714294960120316, 0.005640067427419644, -0.005810873120436296, 0.005294999674977757, 0.055200541525639496, -0.022408651829132813, -0.009635243426957485, 0.017786051482442833, -0.005368868347988016, 0.015194941135563349, -0.0487483459873736, 0.06929319594796515, -0.0873869548198278, -0.03567135267035187, -0.02267010686662697, -0.01698535860785244, 0.03692417115890614, 0.009254301079508708, -0.016767234494492685, 0.027675296284097827, 0.09637500665486287, -0.02194951049931469, -0.017927165079258938, 0.003549553641303065, -0.039266108566635434, 0.01677817214410081, -0.015406238038023006, 0.03594902605378577, -0.07454028113124728, -0.056576198805277686, -0.043500475760236024, -0.009515915300953701, 0.027982198933016022, 0.004798207675880882, 0.010569228252011634, 0.015408938359904208, 0.08587776988706088, -0.02635012108716283, -0.029369080676146457, 0.012606838552331329, -0.036615099195039254, 0.036222576352691695, 0.0005625839319131547, 0.03816436701979551, -0.0840449649519662, -0.06039918873335322, -0.05404122940218999, -0.009508701277401997, 0.02872586510734605, -0.002853468996536895, -0.010672104448630232, -0.0018382658209751333, 0.09166640475857105, -0.006442869603321904, 0.013028367780878673, 0.020361203230493334, -0.03352149092337819, 0.009555110823767173, -0.021072326013049248, 0.024404609741447387, -0.09116638747511728, -0.0711287889229302, -0.02621986372791766, 0.007743154092196505, 0.026786647271337706, 0.002879020918655761, -0.02516087560257202, -0.000255450322201063, 0.10515150475862964, -0.0261346194491683, -0.023546515291627226, 0.01797949208934436, -0.03822952288394177, 0.02502311193790574, -0.0337032578280855, 0.051954154185365344, -0.07981012615490221, -0.0648303111737844, -0.014188605898718658, 0.006513211443207706, 0.03536856782580166, 0.029640623432371123, -0.022564084386270056, 0.004193064957129791, 0.10898357067495885, -0.0070311049630047895, -0.006132323733357658, 4.844493715855235e-05, -0.04524569554542611, 0.016037786542983015, -0.045065180480824966, 0.016129681942672565, -0.06522897215877636, -0.06977643284008025, -0.005801268569413308, -0.012525424772920521]
m68k:[-0.0021828291778254218, -0.015419418506328315, -0.0018066793185823192, -0.03475900641987811, 0.034356983052082145, 0.01568343546032655, -0.0024826316153170147, -0.05052606027581687, 0.010492777651023199, -0.044671855111678926, 0.006791004185695816, -0.02733492302360995, 0.02263840771019686, 0.007004356226122331, -0.011652238818210349, 4.743379951198437e-05, -0.02556213485705091, -0.014471860518295392, -0.0024860944156989144, -0.049439338632385456, 0.04741025617687636, 0.005585598468433401, -0.00837457433905738, -0.05645034360467893, 0.015011227714895423, -0.026521989527371847, 0.024823286774394694, -0.03117285800935345, 0.011328215924644136, 0.018837745371269, -0.017462972736565132, 0.015405433914036737, -0.03946913985172922, 0.009620916339851201, -0.016350176744822847, -0.04235783800294154, 0.021311159560233855, -0.0042582977145007765, -0.0011360044112686681, -0.03628381300189375, -0.007577128643049728, -0.020402488855813316, 0.024981346612697, -0.02522433225074595, -0.008185904021292429, 0.02673471397881982, 0.003907413423235888, 0.020103509967068767, -0.02892997142208676, -0.006288150431685617, -0.009830206836997101, -0.052069977110497476, 0.03570804252191647, 0.009730275955831109, -0.0014183069678850402, -0.05002663473574521, 0.018749696554433818, -0.012839183046544085, 0.02016552762629596, -0.03568177280674771, 0.009046450755931463, 0.016661171978140023, -0.002456384887674519, -0.005640126014405219, -0.034801363803049074, -0.014963531126303827, -0.021162282088503053, -0.02908726752119812, 0.045441464689146664, 0.010232004387813614, 0.006856953951135565, -0.04634246194204291, 0.0191566506320346, -0.023702401839263917, 0.008593934627338859, -0.02327957728427029, 0.011924175823639048, 0.023092462432865207, -0.012375445289699992, -0.01409034656590197, -0.012293209650402414, -0.023277443073964264, -0.009810595353895222, -0.06288059918037901, 0.04276222124347095, 0.004759124057162257, -0.0015957295050617062, -0.05500636493305152, 0.01004895482877425, -0.003458968250284746, 0.010960967788018767, 0.0063802403012267524, 0.0008041812099134053, 0.013360810635178801, 0.013540963139634338, -0.029207184388080898, -0.014085250086050456, -0.03960369858951337, -0.0017975371991386744, -0.05637400535873827, 0.019366097090354244, 0.003156974685628529, -0.010805945907577654, -0.04968395343749239, 0.026328983884598957, 0.0010678511969533467, 0.023566783748850323, -0.06978715669562023, 0.03775853350732521, 0.033700410835026444, -0.010102384679023156, 0.011479524432004487, -0.004619145687711499, -0.02860638061196384, -0.0027459931478700335, -0.08175340050465543, 0.05914137829298185, 0.01549781862438553, -0.00418597369592871, -0.06895751575951242, 0.023938958075310997, -0.012734452505734866, 0.021194085305552043, -0.016812812557308644, -0.0037306937034647125, 0.018710787941135027, -0.012000874053445593, 0.0025276714366174726]
mips:[-0.0009323093723216806, 0.01987141620053331, 0.024300186567237998, -0.02413627435177694, -0.038695307145968666, -0.007064651811299697, -0.005694559466212523, -0.030274739458302096, 0.00657678189218994, 0.020918826975744015, 0.009874813917862504, -0.021347061532264032, -0.017259554823830653, -0.05063129791162769, 0.02089281034675235, -0.02287856308191518, 0.02019148950964316, 0.01140723465168301, 0.020576761782539692, -0.019970650238131833, -0.03320497529711948, 0.0008626525570609709, -0.006814333163869714, -0.008720200739162236, -0.019414302904633446, 0.02068397198120956, 0.006798562781593484, -0.012119426108746409, -0.017736346636438884, -0.04973212413211917, 0.0002882811598383995, -0.030626341186247654, 0.0007185754660050438, -0.006516423641557405, 0.026802656367250557, -0.009513037103936708, -0.001554813834890365, 0.013300201113029373, -0.0037802499695154695, 0.017669388553382362, 0.00764049384437786, -0.00025203747311049315, -0.008104480490138921, -0.015250538954606985, -0.06001078300692249, -0.03782752107023753, 0.009393451080879802, -0.05136946734139076, 0.028999395699571936, 0.008563029230566444, 0.015364994941054436, -0.03359100278609339, -0.030190672134595403, -0.001594353227163672, 0.003203392363669395, 0.00621970922412768, 0.01944766959655127, 0.027253907555256928, -0.003163735412419358, -0.012997437352500614, -0.038868672401163595, -0.05431367158689897, 0.01293793384455942, -0.06634229894720173, 0.04031377261048743, 0.00957552464059418, 0.0509750232974277, -0.014641647656501776, -0.05300460182564676, 0.007803260823514337, -0.001041355516782091, 0.004478690706390648, -0.01883932059610511, -0.004032801442459641, 0.003054601030950172, -0.03737761817463232, -0.05159837738942876, -0.0022244338429754473, -0.0005545706853857209, -0.05074198193449569, 0.020757660746584645, -0.02845732065671727, 0.027744178487745328, -0.006462886661291651, -0.0443756338593525, 0.022827184376365963, -0.006173012618914864, 0.034560920667559884, -0.01225957546652514, 0.005574195659280298, 0.008277766870109098, -0.008296196055302895, -0.030826618885746452, -0.017774298066947705, -0.01343308662016349, -0.06940499020763669, 0.020975683414026152, -0.003958216239876609, 0.03715006365870335, -0.031724990123831426, -0.03411653315726039, 0.018745277553664147, -0.0031999283909967926, 0.022853633326732497, 0.00019143275160776754, 0.0040842268000911685, 0.005315477188716006, -0.030228404075567247, -0.00926455986169613, -0.048592613258631685, -0.0065435908018814885, -0.06265551698620553, 0.011255476017917265, -0.007187884193658318, 0.030441304414962185, 0.003146133676619561, -0.03335670031578436, -0.009154915634955539, -0.002620677964149, 0.024349642760205906, 0.0029267816237906136, 0.030668118977906018, 0.011706115497425694, -0.03233585007855429, -0.024700201013456078, -0.0006867961051403357, -0.01978188485136105, -0.10208813327307381]
mipsel:[0.0010001981836893607, -0.04190619470421662, 0.036716689026314475, -0.016005975353962656, -0.03664054310117352, 0.016927105094579415, -0.0002170097503054504, -0.020735442153195244, -0.002978610665661883, 0.009264026215167002, 0.03460044200233981, -0.052590679418019655, -0.020035136675889638, -0.04617056444590756, 0.007234243637605556, -0.03605251461213127, 0.016284768206765707, -0.022023552485468934, 0.004836026532959726, -0.014207158259871209, -0.04538228187930107, 0.017719765543984793, -0.00726957364816392, -0.026019112595582566, 0.014068960412514219, 0.021821566824205108, 0.007156766430188129, -0.028551254473692816, -0.038759994033541585, -0.01469704537667902, -0.008602642131864699, -0.04165296995912454, 0.014066107320338571, -0.02015137666773002, 0.023598735829029563, -0.001415629961609939, -0.0608665092656363, -0.004739581529333187, 0.009745600097204982, 0.000758278957291121, 0.00445071570485033, -0.0013140086548864604, 0.00780894279385283, -0.037032230275963085, -0.02124285226921673, -0.0071824980024750695, 0.0038545388975144415, -0.07829515256833983, 0.00614926934353846, -0.04603167427710842, -0.00088917498144308, -0.030368675224786673, -0.023190826839313786, 0.005092365008291414, 0.002022925811495972, 0.0026032696697456366, -0.003847683186849578, 0.007151642135213771, -0.005185669612001576, -0.031017937293348306, -0.03643769745231424, 0.0033843890678483877, 0.009409021895582074, -0.026599500260756567, -0.007496105271571283, -0.019279002395930233, -0.010782276995125718, 0.0054449318458281975, -0.04841751144019921, 0.004311840190228379, -0.014743384499149094, -0.012011252981363948, 0.010670552222197106, 0.01245655619058176, 0.007047448708369623, 0.006736856901632751, -0.009379250984556118, -0.005629929934522517, 0.00830507086772298, -0.09539217693612528, 0.02494865911883496, 0.008228722059148293, 0.010023551357146459, -8.783794444615924e-05, -0.020433737392015757, -0.01796331589982703, 0.004916160440791091, -0.008242503145793974, 0.013925168242790116, 0.011777687101366972, 0.007188667477764855, -0.04310593766862201, -0.031045477740018354, -0.03868649393674008, 0.004842483660250875, -0.09069664154452689, 0.01824800611674644, 0.005117014962800342, 0.03215017278051143, -0.01086655515560154, -0.047200037102913865, 0.002336500671821351, -0.0011169124612290184, -0.01126412348364044, 0.017397018799987465, -0.007624945625892153, 0.010793057552419114, -0.013289458885364343, -0.050111484738153154, -0.0563268104323953, 0.020542972455839432, -0.07576679300093456, 0.007319055927092098, -0.020187135635994943, 0.011325529818566117, 0.0141193907064108, -0.03917328635277424, 0.018605255158753088, 0.0016074075696767786, -0.004344245367103681, 0.0100364454838077, -0.0028462183758848755, 0.0007430045451566662, -0.023439749238423964, -0.038415432064916016, -0.07215226207712715, 0.010110110933967574, -0.0398713735010873]
powerpc:[0.05413032831741056, -0.04317326628456014, -0.02904130760486944, 0.027044378288744616, -0.020546812325760458, 0.001564041877131283, -0.012999017265064257, 0.003091733348976188, -0.06313352708483073, 0.004563150032007799, 0.01008972218310193, -0.0402727276293665, -0.019864681820145412, 0.03334822139530686, -0.001650528738961712, 0.017317765034780573, 0.01918892210881875, -0.05304774224905831, -0.05343904177359312, 0.025456471640328514, -0.002353487740863139, -0.006091551529675523, -0.00200519677658699, -0.004178888851895635, -0.016304177493097732, 0.007927075477166909, 0.022076839879805722, -0.06800965326572252, -0.0074454065908526835, 0.004785381778314553, 0.01512964550830252, 0.039352123297643815, 0.029850417612427994, -0.0530647097368767, -0.04482472028087205, 0.027326725161021435, 0.005856268555119806, -0.012296391588391662, -0.01252828358197058, 0.005266115647122799, -0.041309256234577645, 0.014324241704087153, 0.009115198540171994, -0.04017567402479039, -0.016472355304616756, 0.02176597125341616, 0.00252740767321475, 0.024185847945298874, 0.0063255561753528915, -0.0655429068421564, -0.0337064547778078, 0.04512788341653869, -0.009245388839133733, 0.0004642002437414593, -0.0009428016062988683, -0.0026345929130235203, -0.03787722864569384, -0.01526155806966217, 0.01970110019199703, -0.05308942016123153, -0.0109366427085733, 0.030968004941091302, 0.023057041226457707, 0.024081951499260023, 0.013761846622448694, -0.034101923164817756, -0.0018045270596315412, 0.011007140251899587, -0.016164463597152342, 0.011358488143731716, -0.007682374257081802, -0.020967114442984536, -0.0560536499192598, -0.005768224493702002, 0.007839977668617541, -0.048320180049963746, 0.01939578723451676, 0.022579724584202474, -0.01091348460281204, 0.03541278813739032, 0.014571135497042349, -0.06739426449418157, -0.008942770138969075, 0.04638790989476672, -0.03839454062639531, -0.011870006159201248, -0.009403689583303931, 0.01776102019971, -0.05304531831557401, 0.0017913990306782062, 0.034018967787313385, -0.051508829127814626, 0.023013613141836455, 0.014827990126347515, 0.013542053893167632, -0.005079678915449443, 0.014454470070382424, -0.09907433763404928, 0.006928142665075929, 0.0138070669717676, -0.003053132538317982, 0.005393402166400824, 0.006102429513614608, 0.0230674163187421, -0.04946542227096267, -0.02249436106664335, 0.0363714618423737, -0.0509261441401431, 0.020829364564670005, 0.017926892853304174, 0.017285699663895725, -0.015287207348536523, 0.007721105814073143, -0.08018439581745393, 0.008914852041759768, -0.010804942260860463, -0.009227820540139955, 0.005222355027579303, -0.012032798525805454, 0.01111890594995742, -0.03302424578935156, 0.02067533302234609, 0.016630690325232813, -0.08893147222689676, 0.039763403494229216, 0.024566984733608705, 0.03386687529118147, -0.014103253653367124]
s390:[0.03554441086854741, 0.02341404810975351, -0.010239340817882083, 0.056614333915632746, -0.009138631612426026, -0.03890131564818312, -0.0006124864068007345, 0.019676161241497413, -0.02680745446886736, -0.06701602970637445, -0.017947593125615266, 0.04847434110404631, -0.016211268653186346, 0.03526706958995002, -0.019925584224959766, -0.08223025766573641, 0.022272574869730836, 0.046869877660711975, 0.035478407564039756, 0.012565324347510622, -0.015211656833531106, -0.007183952698060153, -0.0009974808730472012, -0.006678710209085373, -0.01857774598036502, -0.0458462356910565, -0.008910505485847639, 0.04021372237208318, -0.01692525082763598, 0.008849071013481627, -0.008324516270218168, -0.1068176799184613, 0.042418137549308135, -0.0036132779274699487, 0.05370018064999095, 0.051944039716937195, -0.00016273309461541726, -0.03092784743706207, -0.005726549100185646, -0.0022242359209643675, -0.009744656203537434, -0.04025999307542215, -0.035114243204229, 0.02288552513882853, -0.016822723587471937, 0.0009044573410547119, 0.006050508254960607, -0.10056448408794033, 0.05386528861521421, 0.0033503572547396924, 0.008501894478083647, 0.07159008358479374, -0.0295927591424208, -0.008537802682938826, -0.0118008014346302, 0.015510083579584916, -0.04300618904764682, -0.03138667088048368, -0.024551730143404112, 0.026890375460522663, -0.01924177967765254, 0.01623157536637733, 0.010846449632167103, -0.10596088749484361, 0.009900615566843315, -0.00473773397631795, 0.034533139451510264, 0.05177145096687925, -0.027569611584241437, 0.0013482813823971539, -0.008242238214849549, 0.010259048370287472, -0.033898367347864056, -0.0630764667295907, -0.03904233419713309, 0.030729986222465866, -0.033880853359028164, 0.02830250632419485, 0.029916888821443815, -0.054227845887847674, 0.03755785947387372, -0.09634528927034039, 0.02892927725523178, 0.06729572741041598, 0.006206271472227983, -0.004592977981235502, -0.00799564175838808, 0.0273668385835256, -0.03954078495682906, -0.06316674476349877, -0.048184832922583944, 0.02081585778091058, -0.02165192321115627, 0.04643603400286945, 0.027292903224821367, -0.04795442516861408, 0.02946524687756758, -0.06806244027542104, -0.006811332382089419, 0.07629558539335622, 0.006950549066756378, -0.024506748508090724, -0.0008920319631392387, 0.0011428889759878842, -0.01692343817299445, -0.06532966649236184, -0.02235969660985037, 0.041498892786056674, -0.023257826868343993, 0.04271821625129055, 0.012068902072722095, -0.051353465049845996, 0.04054533419452047, -0.026471776603232394, -0.036438614787255914, 0.08444686887714055, -0.05334542558751098, -0.015110256919592033, 0.004096855553376913, 0.009157769381702475, -0.01844588104053496, -0.04661658673594258, -0.054077498802776104, 0.0807923668891361, -0.04327894980245504, 0.06589995967704161, -0.014485221814406668, -0.04454049063141282]
sh4:[-0.029146798375827943, 0.039111119511761334, -0.007098987378643027, 0.03833970511682209, -0.014418779282394325, 0.006508984149828733, -0.043756259755093056, 0.018083019162362143, 0.02268548840198817, 0.0020768384054504732, -0.036706427782419594, -0.008239708486750165, 0.07365527479249308, -0.03977709026604091, -0.022080128422768897, -0.013766174411478213, -0.029006662330389756, 0.05124093834263818, -0.04302341271641425, 0.05828717258691278, -0.02833235077137018, 0.003618587654747382, -0.020590123969246258, 0.044373816861326375, 0.0041679693750452055, 0.0019668827855739307, -0.020297710699639194, -0.001789952050760413, 0.04738447982999946, -0.02566313508981648, -0.04402087196792394, -0.012941498175976607, -0.04290979333181073, 0.01258314634103933, -0.05551487277796263, 0.03138687958201877, 0.008359122748818169, 0.006319579995002961, -0.014018901295394164, 0.030295311083075423, 0.026987156124872336, 0.005805118260421355, -0.027625847193728726, -0.03226864294887775, 0.05917097381241887, 0.009860594483319138, -0.03541108612135841, 0.0033032197426898836, -0.07210708219019395, 0.04156295779558521, -0.04308811321844945, 0.02333953943790063, -0.012126083827968984, 0.003247118115658534, -0.0043933049093611825, 0.03736323700443925, 0.014868400935770817, 0.00746756391913903, -0.01710772869124081, -0.016770135612473168, 0.06105802856424604, -0.005968295993803937, -0.03486528466222534, 0.003200546793823222, -0.06515641885765892, 0.006641180998034319, -0.023612537824926883, 0.03149594913108883, 0.01698476159209488, -0.005199265387780107, -0.023015741731534388, 0.01868853606933861, 0.004797284759056841, 0.0031105031746430614, -0.004636520479870693, 0.0037986563470311196, 0.055898399405316226, -0.021204062101737118, -0.02663471354035859, 0.013589720785790294, -0.03616764375105677, 0.019048687927389778, -0.024540888296107902, 0.032635825036584805, 0.00805165128002447, -0.004098836872370392, -0.0036637356533716294, 0.009858883577222219, -0.017110924436215234, -0.0013788870514290575, -0.0009569335995128473, -0.0077676014076562975, 0.029655979907729953, 0.010252085665942252, -0.020926735336531922, -0.00721043565235988, -0.04847430699860188, 0.011795779560091762, -0.027524585443413158, 0.04079658087568345, 0.0014753945692527898, -0.015282946515783201, -0.00875164089760445, 0.020534305889479677, 0.009577570215073212, 0.01724103816616868, -0.018099643193963198, 0.02856461550007453, 0.0717689320973473, -0.001888222878451607, -0.041357338414770836, -0.05494361514350544, -0.04788041713617681, 0.010943611402140481, -0.04995667390573766, 0.04370528405245366, 0.006119136888481013, 0.005792929308458604, 0.008693798746007736, 0.03832776812525395, 0.012798420928658748, -0.01013701988652366, -0.018365737756582304, -0.00651734590461016, 0.06669805013770005, -0.02888763454642712, -0.024897785964442424, -0.020086503443636182]
sparc:[0.01959904289617669, -0.009143358746234344, -0.015063403720057919, -0.08113651162706395, -0.009991707015952098, -0.010300251045233706, -0.0010477568668777557, -0.0014568656409788734, -0.01612301949051735, -0.03125985730012442, -0.0346877948270922, -0.061052974224959145, 0.04991161899843897, -0.04802066006145719, 0.027786395908193196, -0.056293938532981154, 0.047899060204449055, 0.003447872697548928, -0.016466028947818876, -0.10998171198434839, -0.009584250748595119, 0.005612044529552099, 0.004587619782394803, -0.01406742652407395, -0.015290340583989452, -0.03671465137617623, -0.048156830672387775, -0.04220237485390542, 0.04066021731014936, -0.0244502892888653, 0.013132311910673761, -0.078521493728585, 0.006376136223066732, -0.006359466987907812, -0.006719751312424724, -0.08598932881722209, -0.02266279190119577, 0.01702590682376276, -0.006141740397831388, 0.020326510674888408, -0.024684946765433702, -0.05709043499775982, -0.03449777127650726, -0.03658796981918761, 0.038977652368716746, 0.011172812989129378, 0.026353806667465608, -0.11798341464981878, -0.006614261038429215, -0.005269327121979137, -0.019566923428518745, -0.08832220508097845, -0.026671166972269063, -0.007888056240466025, 0.0032837179431245795, 0.0025671033291577044, -0.00893329662170061, -0.059991450172673044, -0.00906429895097949, -0.05273634319349359, 0.029417761918393136, -0.0035446074462033906, 0.027827713478838844, -0.054698746670064836, 0.010363600231453832, -0.021514144408229647, -0.024980597756608044, -0.1207978009071956, -0.01941652279222392, 0.013402377070659966, -0.005428062608146371, 0.006275450924029288, 0.02337861122672177, -0.04306083455628004, -0.027683318939950775, -0.030732859434174965, 0.033462467687732804, 0.01000993409534223, 0.009824044294543437, -0.09271967959083105, 0.012634315788485702, 0.0026686798624001124, -0.03102851706232212, -0.09939612608105636, -0.05750471309012547, -0.012454381549193708, 0.00019156600665815068, 0.04283896961672618, 0.009687578278167384, -0.05499796117576639, -0.03537956631573285, -0.06512410129808631, 0.05935644424879501, -0.023441985600027047, 0.015780312392625617, -0.04290449178515681, 0.0361637225145855, -0.04354632889649391, -0.03237056006386889, -0.13582865197187252, -0.014437044710011171, -0.006413664938576071, 0.007838318697997471, 0.008617786933138746, 0.014337720876869034, -0.0689618253163353, 0.008691805714117826, -0.06052680846365081, 0.05320036412136168, -0.018273914157130353, 0.020790411834596224, -0.047731154931441665, 0.029959540428528535, -0.025890858879138688, 0.004208852211009581, -0.1492502578341141, 0.0011748433395934704, -0.021851643394200024, 0.003607978609849313, 0.028595574787218143, 0.020042511238633577, -0.07385017705887671, -0.029029298690619265, -0.11754234044327998, 0.07960269220974589, -0.027895537158222065, 0.032797414800357284, -0.03291235444952334]
x86_64:[-0.1340619761065895, 0.024324256738161135, 0.017259618986684815, -0.004990781828885625, -0.029348579496038578, 0.012580681700531922, 0.006482410852231308, -0.017407601027672276, -0.07968013287152707, -0.01652540984768223, 0.016468447922139775, 0.019550823978695085, 0.012003641412659633, 0.026034966775718028, 0.004643045957041851, -0.028489492109636735, -0.1103473020797354, 0.03919256576685642, -0.00026019426149867937, -0.025198152512122988, -0.008378754972379809, -0.0019143416484609386, -0.013331860904958763, 0.001989866262524188, -0.0954801074956235, -0.012631101722059846, 0.006964446663756648, 0.004649074107565763, 0.030648156771366508, 0.05179892757718905, 0.004541813272094202, -0.042443208960349345, -0.14360734506373746, 0.04947776955734495, -0.004084408394628459, 0.01260885516184381, -0.013462517990852338, 0.001645832990352244, 0.008237347621577403, 0.00416538299617247, -0.09123306974708678, -0.0007632642512400012, -0.0076784338434047845, 0.04280532590120213, 0.008413365579136375, 0.007754668762032474, -0.00833038625272401, -0.036448094430624745, -0.14477766994371508, 0.04550793544503812, 0.003550511619765986, -0.007032262944975628, -0.024859878442018823, -0.0020244496980769385, 0.011921958433293987, -0.030314750156153387, -0.03212889029740014, -0.005297976607208377, -0.02911345068309639, 0.03842610790090029, -0.007185241149505739, 0.019515714401118305, 0.006887078204759574, -0.01404082671844569, -0.16759332789144077, 0.07862926507730411, -0.0073110210886105165, 0.017657708743438888, 0.00545617869193491, -0.009122299556652853, -0.0011398857715286962, -0.011426310975135343, -0.06334687328397323, -0.005417257985356361, -0.016018347233581105, 0.011272385953674304, 0.0007159591738691674, 0.00025657390467006066, 0.03667399855074732, -0.03889703864315705, -0.12988942723449995, 0.07482838284651698, -0.003237470102840214, 0.02555302803782444, -0.04278710476663024, 0.01718891448936606, -0.0028816342036208442, -0.02961365350327668, -0.09280452535106394, -0.014679852451063187, -0.018081582495747855, 0.056420429878807105, -0.008369686797696452, 0.027297855298608408, 0.015868263233706395, -0.044882080228143495, -0.15752381794064355, 0.08524779891934524, -0.0005523552235959987, 0.005367308758494111, -0.016796658625568305, 0.01013303116540589, 0.0014366786396118516, -0.0474914888525245, -0.11537598819051184, 0.01751299511112986, -0.015169425521873984, 0.05364570843747892, 0.013630373342988243, 0.0016844663328691382, 0.02513189711722023, -0.030652501767478205, -0.1515850859826351, 0.054043794451588356, 0.028219692683293947, -0.0113007237332142, -0.012797129017685533, -0.0003708536918594445, -0.0037691819910090833, -0.04042147127705091, -0.10250446241617611, -0.013411572583416851, 0.0015280898607434948, 0.06402879175640082, 0.014006660367577218, 0.0058619738843066595, 0.02881245496517918, -0.03172887360160847]
xtensa:[0.015528671027230604, 0.0348804855272383, 0.03278856692341322, 0.006217536002497028, -0.11856424459762285, -0.023989953596840606, 0.007487889885505246, -0.012270951677638586, 0.017838537809981438, -0.011809222404273116, -0.038746874546245036, -0.008622904384411035, -0.04532670904447098, 0.03147656446564288, 0.00497462557742566, 0.01413228147166793, 0.032404071315535486, 0.03286551962273661, 0.022213827550491373, 0.0296248376838967, -0.08237787606056197, -0.02648316487156166, 0.0023282368554654763, -0.005324271999400883, 0.01738185499405519, -0.03108624582914038, -0.04193678030734749, -0.03631111672983285, -0.04233921945422816, 0.013195841432352837, 0.01976960369499736, 0.002962773800525457, 0.010500752102548696, 0.03834029696868773, 0.028031720027746464, -0.002264903949289225, -0.05712483887184211, -0.04614604370668866, 0.0009610281206080237, -0.0069953759010953544, 0.0021590754736053987, -0.02079591207557565, -0.016211581834554623, -0.02845695887269303, -0.012283570186171011, 0.009192127157994133, -0.0016261870076041361, 0.008637839613315651, 0.0036676579517140196, 0.04678046092298535, 0.015128382124168371, 0.0027040924622490805, -0.07056411968309519, -0.03582934347034553, -0.014440369240124193, -0.020047066633161043, 0.0023363868257449205, -0.01896353177947794, -0.027305716716359316, -0.023128218827760328, -0.02643239673835339, 0.04751886396973191, 0.012593041247397097, 0.011659999650236815, 0.002935931556586162, 0.0437584967952301, 0.02689473793037888, 0.008014955521512336, -0.10737264337862977, -0.057448734433037385, 0.008791619433018105, -0.017823479659126264, 0.009314894355940224, -0.021235326422586586, -0.004290406728149366, -0.010079683024260962, -0.020402393649312737, 0.020244919033372763, 0.00014535227301795458, 0.0253385892155611, 0.007057821878003249, 0.019821840914719925, 0.03350653967996141, 0.025644715597926627, -0.09663553610763702, -0.023665457812767573, -0.0029246648794259214, -0.010092583909981736, 0.003338067760938397, -0.02503882649843432, -0.03524020998346365, -0.05108330303289556, -0.03471054346590104, 0.04919537846858651, 0.018736327744079472, 0.02767505951412414, 0.030400233150772223, 0.04032980691009236, 0.03253420469303277, 0.04488766498513769, -0.08118776891369983, -0.05840568116848011, 0.004308378340945917, -0.01857072480258393, 0.0027960660750710707, -0.05647931477566872, -0.05015763584318154, -0.028484399411643584, -0.028246202665747646, 0.03284134344227319, 0.009938098280745225, 0.029323358656133343, 0.010263472313721024, 0.014162511803468834, 0.04121070522399252, 0.048103989800302595, -0.07834449054355475, -0.055846029328227964, -0.02154525258180078, 0.0031352631144604547, 0.016205954402232357, -0.03136840444946282, -0.029546251358045054, 0.0017091062177806346, -0.022868804610422285, 0.006513610517688257, 0.0008505339960203311, 0.0038785857388043154]
avr:[-0.05212180912104144, 0.03815053242746695, -0.070997809538554, 0.055367892166840495, 0.04775128440810762, -0.001666988194829758, -0.014040652968934463, -0.007924335210398356, -0.01888715556094455, -0.008625609912989586, -0.035377605038184615, -0.0505258210467762, -0.031059045124111954, -0.005348572844940078, 0.03143893516589925, 0.06430706203969382, -0.060315162879148634, 0.0005299924109542707, -0.051274295224441754, 0.030863737298218445, 0.024551168023570703, 0.008343092811566238, -0.0070189008975018435, -0.0032462120088990647, -0.013202466619034837, 0.010864271887678287, -0.0476855840941456, -0.024209779045707116, -0.029086421324387306, 0.02722847332654918, 0.03625459295454849, 0.037856514103037205, -0.06816947592677827, 0.04327639751759774, -0.03770705203066757, 0.029844682277939884, 0.03496225018586437, -0.006368081750552169, -0.009936578085263947, -0.007284010497722372, -0.006011654274158227, -0.006459654693526093, -0.033910547190636214, -0.007210874989944473, -0.031004452012485115, 0.0026298264195022594, 0.0025134302456876626, 0.04037428396172629, -0.062256220318824024, 0.01901967413902878, -0.06468968807946743, 0.0071028986672919394, 0.03932919641063326, 0.0015269458863817725, -0.012546281523928459, 0.009283843906892566, -0.002119642938349548, 0.01263346843209088, -0.03527751406943355, -0.0062815512643731065, -0.017321033962447146, 0.02354041368281033, 0.008770757378689082, 0.01963699888094165, -0.04128017456077395, -0.0006240342225064416, -0.08844156656676991, 0.029270390805916983, 0.021338618944362484, -0.010587092184682113, -0.01138744447437972, 0.009751768028601976, -0.01643040910882595, 0.00800070027897221, -0.018412635804287425, -0.004620296875684597, 0.0007461234946207277, 0.007881261142778774, -0.008277825917933152, 0.06300981153899818, -0.06785557957375163, 0.007948254379385504, -0.057673651061723535, 0.029916875524481416, 0.0051426455594696914, 0.0052682667182187915, 0.004202689450280168, -0.00890161259702613, -0.0035809066858794696, 0.022042754679959562, -0.01563158052639487, -0.029490431178323142, 0.0066021750808326184, -0.017431278652900336, 0.011945780558089324, 0.04761199273071771, -0.08208813394721493, 0.016285879783395737, -0.06558696708156665, 0.04691152366782385, 0.018049077979852446, 0.020236855880534175, -0.01111293604651006, -0.002427507320445569, 0.014885401337283466, 0.019950264244500075, -0.07358767034215107, -0.00577436985895034, -0.009129454244678132, -0.014139815556707791, 0.014149332580802698, 0.05334273051532048, -0.05812359800036175, 0.012695393634816794, -0.057709339467026805, 0.04645257617600055, 0.01545295146099576, 0.007610381752306422, -0.03100434399399736, -0.007238367169124459, 0.0049576841020721315, 0.007537240576645727, -0.040346234226203447, -0.0032030787207577276, -0.0027464627765022274, -0.00030290847422511806, -0.01839122826609285, 0.06400832664663612]
alphaev56:[0.000491381092487007, 0.0433218177899493, -0.12556803600010993, 0.023879217024714388, 0.00540642734660641, -0.00994953619738573, 0.012242655720376425, 0.008979269322173362, -0.021438046533797578, -0.010084771441214273, 0.030263502632332143, -0.04122206252823443, -0.014214475549938918, 0.020564467370746027, -0.04161491159106919, -0.07108360696227338, 0.021977754984170206, 0.02784218001007125, -0.0869861935507963, -0.0023362110000897376, -0.0009373733064984277, -0.013997399205740918, 0.012409443497219027, 0.0020262405236176084, -0.02657245971997398, -0.028605708081484556, 0.054517315838976045, -0.036268285244620384, -0.034277285337521494, 0.0028900052257324754, -0.03100449533374333, -0.05105756566306683, -0.00021159617016340473, 0.04553930316916618, -0.11513872897531198, 0.006428870127729097, 0.006882380491497121, 0.004498746735276062, 0.0028080015499289943, -0.019339958065254126, -0.017070889875334606, -0.001139116939910568, 0.0453401044788242, -0.03600204272397828, -0.013747247523070036, -0.011124443711099842, -0.032474660287907464, -0.05521886007138133, 0.007024708058641358, 0.049088905870554235, -0.09446051985326055, 0.017534435683743205, -0.027463446191364, -0.004536288200685187, -0.010866225567804505, -0.005154316375743613, -0.025832871967987357, 0.009966708506126826, 0.07979102238924005, -0.043043706765641745, -0.02536311040536166, -0.022255210117935846, -0.05757967500715804, -0.038063050585450134, 0.0019177335929256353, 0.07422425482596248, -0.10019121976315314, 0.011692145796324155, -0.010344834793993445, -0.017332022467031097, 0.003021512132349145, -0.01458854120029548, -0.0019223638104481685, -0.005443860818415627, 0.05601953872873368, -0.051097775149333426, -0.028707273673951112, 0.012908441068448101, -0.07388116359497937, -0.0466800947361059, 0.0041844368732056126, 0.0780508402113364, -0.12068064297761583, 0.005341593683797778, 0.0032361949651296133, -0.019548958264678132, -0.0005407558678177326, 0.004451677371534925, 0.007509851032353299, 0.009050488947439848, 0.06838497381160209, -0.05341269248609061, 0.00044661144972218725, 0.02306834759467769, -0.06943374605632704, -0.13011043148639975, 0.01497724820453083, 0.08172764985928742, -0.08359935228570439, 0.017718412960724197, -0.024274922446656907, -0.0073703433704879915, -0.007953744845993795, -0.011096202596275147, -0.02019516729757102, 0.025187557679674327, 0.05449336342205701, -0.0417729838549197, -0.02463498131062897, 0.008249338889074552, -0.0994454779134119, -0.07157157989102096, 0.015028047494258819, 0.06625706756253882, -0.13376572195575806, 0.03807676475235014, -0.026943786305991858, -0.002282310570737559, -0.023889183842793895, 0.02484178991061219, 0.004715626841659873, -0.002985522855202316, 0.06217315828747451, -0.02372252347109898, -0.002819586779219238, -0.0024837050908199185, -0.08307285797766592, -0.10003166943940577]
arm:[0.014477698194824924, 0.024024093174509008, 0.004482958248289736, 0.002520962684041779, 0.055959660723684135, 0.005235780302913358, -0.014584090084879703, -0.023042101008895633, -0.020417964635163637, 0.025741160016619732, -0.045672972836374774, 0.03047119057821212, -0.04536287652232243, -0.03162002608210102, -0.0315781249223982, -0.01974680440149053, -0.003756425960027174, 0.009121317498399633, 0.00493737023742523, 0.012712344075171673, 0.05880720231140795, -0.010884122704671342, -0.007382367516126762, 0.023664324225630324, -0.01735104667025317, 0.02673347483094275, -0.013698258248074031, 0.04513044076499178, -0.06816036677375967, -0.07079185825567255, -0.03536600012860707, -0.02303429831736998, 0.01713929185451473, 0.005612618996201318, -0.0058373411536412146, 0.005317377003050549, 0.05519659910530239, -0.022412595902505054, -0.009661354980768627, 0.017768657594985488, -0.005377345614827687, 0.015173247682720083, -0.048739152816775454, 0.06931436239122335, -0.0873647665690686, -0.035675055867008545, -0.022652234839411558, -0.01700422625859754, 0.03692470037048865, 0.009229382076792867, -0.016757248029017405, 0.02769422604799529, 0.09638640895343278, -0.02194392300618635, -0.01794978848884909, 0.003535989746254382, -0.03928771573838917, 0.016756194726948892, -0.015419221511854264, 0.0359508074957524, -0.07454544434072959, -0.0565484390180881, -0.04352177960871195, -0.009538962764937401, 0.027981729459423326, 0.0047769241078663436, 0.010560419594454319, 0.01540508013664312, 0.08586954994418422, -0.026352231561108812, -0.02935987903540359, 0.012588314574647048, -0.03664521625895758, 0.03623940266452758, 0.0005445500259356923, 0.03814852959158227, -0.08402841599319406, -0.06042296933652298, -0.054030014370959605, -0.009474632999499199, 0.028691561631409932, -0.002840990088714101, -0.01067586305602156, -0.0018590926598717017, 0.09163533718816992, -0.006456625339542146, 0.013007547136375544, 0.0203692857105035, -0.0335112270594704, 0.009546932314736353, -0.02107718112088032, 0.024410426836632856, -0.09114475911918485, -0.07117103745529407, -0.026210381325972604, 0.0077734788568327015, 0.02676419760880031, 0.0028772401167983333, -0.025160914282915916, -0.0002347357757993265, 0.10515344415840426, -0.02612455000634852, -0.023535711247598824, 0.017951854256037306, -0.0382345156154641, 0.02500988074493993, -0.03370261724766744, 0.05196660246801604, -0.07979349365539357, -0.0648560290362495, -0.014199101040498985, 0.006536974724447622, 0.0353642382056248, 0.02960942243659518, -0.02255932801621654, 0.0041714422854775245, 0.10898310825567843, -0.00702557176267329, -0.006166625440526788, 5.478297331008294e-05, -0.04523415882433101, 0.016025100786358045, -0.04505749407508991, 0.016144443001144173, -0.0652543489349541, -0.06975496420269521, -0.0057715113516198105, -0.012518508568263774]
m68k:[-0.002118605984269933, -0.01539853468330897, -0.0017896451134433297, -0.034737559391679364, 0.03435806299863808, 0.015714802252163384, -0.002482399572514882, -0.050531452413205995, 0.010460134301736689, -0.04461986892957524, 0.006730483008758489, -0.027396188173470334, 0.022625845266361903, 0.006994491779851568, -0.011696466070133318, 1.5994785905355513e-05, -0.02558805572782551, -0.0144260551433412, -0.0024523192423395964, -0.049402303964147416, 0.0474006180699489, 0.005598736436419561, -0.008427286482224157, -0.05645518775805211, 0.015032120332245345, -0.026554183881122323, 0.024826521717155617, -0.03116122727583767, 0.011293798485179052, 0.018871450314954186, -0.01745300498940424, 0.015363617860549192, -0.039454404708166135, 0.009580607466455653, -0.01633955083923053, -0.04228245533819473, 0.021279306578333552, -0.00426900758117652, -0.00111298068696196, -0.03626847057785364, -0.007542158594621742, -0.020371591832207374, 0.024959039977609458, -0.025213533151934017, -0.008184769824950278, 0.026738376984345145, 0.003933070289147622, 0.02010135421247086, -0.028951886998927933, -0.0062594322573507, -0.009791997850082649, -0.05210854134611607, 0.03569594481954141, 0.009740424760516805, -0.0013922440282779726, -0.049999900486295434, 0.01870256968466439, -0.012812335660052892, 0.02013580230945378, -0.03564336393686461, 0.009067551895023307, 0.016666202241511024, -0.00246345168301746, -0.005630217094436644, -0.034765273071114225, -0.014988357916276212, -0.021137026469959474, -0.029101107247709184, 0.04542172069863955, 0.01019061090303373, 0.006888521391635047, -0.04635051328406213, 0.019205378428587123, -0.023647815831738587, 0.008621065567572597, -0.023284836760449578, 0.011910188276696869, 0.02309316637452047, -0.012398071553934192, -0.014095101249622863, -0.012280201724681274, -0.023290139540453756, -0.00980225711746133, -0.06288787074262042, 0.04275080534838664, 0.004714770707394466, -0.001589075340899915, -0.055024892752072715, 0.010048181652915393, -0.0034825127849614835, 0.010965184677209607, 0.006416842727384172, 0.0007815799491361803, 0.013362701940596109, 0.013530516253617746, -0.02916690349089029, -0.014126541328660862, -0.039622946873316606, -0.0017684329092095027, -0.05638620916009962, 0.019380854214127514, 0.003166615161875855, -0.01083050738958489, -0.049685822890547265, 0.02640791546667827, 0.001027916048826644, 0.02352525588544492, -0.06974496536890097, 0.03777588604658784, 0.03369686624133171, -0.010071286974326285, 0.011438527116200938, -0.004618305305341845, -0.028628412778917325, -0.0027573199668188774, -0.08173454428167998, 0.059156288385638224, 0.015461871180718267, -0.0042178876703161845, -0.06895031137855805, 0.023964987071244104, -0.012737233546923419, 0.021168482573910307, -0.016804724023346852, -0.0037377254257665226, 0.018765940414245768, -0.012002586667501883, 0.002559949968256566]
mips:[-0.0009679726827209709, 0.019830657075896253, 0.02433895671016037, -0.024177301109426636, -0.038718025365795015, -0.007100318917892337, -0.005755224968864738, -0.0302280058776852, 0.006557961942459991, 0.020898399220225117, 0.009825086386654533, -0.021447436153601018, -0.017276620580733613, -0.05065293773051044, 0.02086803094263938, -0.022874742177112734, 0.020142796257536802, 0.011331207082991014, 0.020545917243118033, -0.020050451901429, -0.03324879783249348, 0.0008611369824944997, -0.006930961641125328, -0.008766059379460376, -0.019472498280081907, 0.020648524879610903, 0.0067656195280009195, -0.012105545933671654, -0.017768835443582966, -0.04972819501116923, 0.00034139798437066924, -0.030642924293828235, 0.000752894670016518, -0.006470259361502775, 0.026815083878748702, -0.00958292415712848, -0.0014936933362337, 0.013322017084800568, -0.0038101267794697735, 0.017676211211918643, 0.007647306329578926, -0.00024215140045015667, -0.008148468793524866, -0.015222381453336096, -0.05999258479978356, -0.03784813482407835, 0.00938584755958113, -0.05141437879972328, 0.028969673982926967, 0.008545791364783116, 0.015337488792679222, -0.03358674053281983, -0.03012456926262301, -0.0016474175861673954, 0.003117958845440366, 0.006177165550777884, 0.019415839930603945, 0.027244612131869492, -0.0031457427080953783, -0.013008256826455006, -0.03877900715977097, -0.05435378457786377, 0.012918331602950753, -0.06640045469751507, 0.040356991120540274, 0.00964502141013836, 0.0509479128471477, -0.014711445043958073, -0.052939005242052715, 0.007756088225694039, -0.0010837556170766884, 0.0044740898978558345, -0.018783651304608098, -0.004064641964303946, 0.0030429243957890615, -0.03745699524403758, -0.051637884192842605, -0.0022243559222887067, -0.0005958905889824742, -0.0507553595630265, 0.02080228790413, -0.028363433081244456, 0.027771611362882608, -0.006461915671543509, -0.04438240840955678, 0.02283467240815611, -0.006187416917961671, 0.03450128408337982, -0.012298514316392038, 0.005571286459735928, 0.008269192742482414, -0.008296528639373291, -0.03082732963764583, -0.017783137269146557, -0.013438808253576785, -0.06934533924957217, 0.02096709582143399, -0.003940650978032345, 0.0371741932932481, -0.0316667466106812, -0.03419444793235678, 0.01873803977491308, -0.00324967299031816, 0.02291392206207666, 8.889059414009755e-05, 0.004061996262878108, 0.005239171152520199, -0.03020327583951595, -0.009262612475764277, -0.04856018728157804, -0.006576336952630549, -0.06265471739465227, 0.011262682351816227, -0.00730439695795295, 0.030369153733874308, 0.0030815667253897712, -0.033352620581875846, -0.009195610271493205, -0.002651431407143091, 0.024393791433308425, 0.00286090975724764, 0.03064231073399252, 0.011691422317441387, -0.03230889630245903, -0.024653626728334446, -0.0007400241047383073, -0.019874429930995804, -0.10218328534677065]
