avr:[-0.17055705899854787, 0.07068916359289641, -0.17133398232352912, 0.07540636878911128, 0.11203937937611264, -0.009072394884413625, -0.05011314823810984, -0.026517254180275344, -0.032829342478420426, 0.017902004229925945, -0.12600309612776822, -0.09050583903257067, -0.10350718688404077, 0.01364472459591131, 0.058056073781373396, 0.12942319088502585, -0.21000361542737137, 0.024017255402994528, -0.21309083162787115, 0.1447591145885798, 0.0400972823554623, 0.004280879625187645, -0.045624578723804224, -0.011312092061448021, -0.023776453465864458, 0.0383403365417788, -0.14456405448412343, -0.05832132382687262, -0.001770472412764423, -0.011610831169392686, -0.018040820713089545, 0.18376925190383037]
alphaev56:[-0.01790875304072035, 0.13497923382842228, -0.36554280931949956, 0.03596083060246688, -0.01698148468524946, -0.0505187225775504, 0.004946766238874421, -0.004662637240817527, -0.093957784096426, -0.03276764025699516, 0.1603534390263586, -0.13162570992482206, -0.08082555221540781, -0.016528195034001564, -0.1367740384621207, -0.17703078734019304, 0.028131781250856507, 0.22681286094791472, -0.38674706357978583, 0.04840301874899194, -0.04014876658840854, -0.04466123941265131, -0.022123724847474983, -0.02238277287786096, -0.010248619184024052, 0.018417900297359985, 0.21791804675521462, -0.15366282385800423, -0.06370474765565162, 0.0037989935803808554, -0.26533883306400974, -0.32362570982897587]
arm:[0.049378511482620645, 0.03470799874487837, -0.02781664030940693, -0.026446855737726902, 0.1625823572202362, -0.045888118506564594, -0.03184724063817393, -0.009061998298138111, -0.07202828014132381, 0.05218596681109697, -0.0879962781504524, 0.10294879253645564, -0.1446305593824572, -0.1469540012686273, -0.06184599299021295, -0.07764402126370053, 0.05312631396415866, 0.022004912917494186, -0.031730078226224395, -0.02002701965161176, 0.26827486263212597, -0.06881211427575126, -0.044840010270989404, 0.04566223840385982, -0.082138590248936, 0.07013887489052534, -0.06265982517644773, 0.07612895082376261, -0.2420050149155995, -0.20131080073787158, -0.05710378427825337, -0.054282769396374116]
m68k:[-0.09255383446438271, -0.0152255815217026, -0.061484421887822535, -0.1708897862156625, 0.0933186624647781, 0.016011043705549018, -0.005244364491746277, -0.16966966131590197, 0.03008964507108375, -0.11011456178121995, 0.05128499413456497, -0.10163039662246447, 0.014163186669893973, 0.05785475993177936, -0.00583560779968124, -0.0012744637942729833, -0.055711812015407335, -0.08263474975935876, -0.06979928934324298, -0.21039539523292164, 0.13118326733619326, 0.011986296907741644, -0.01118516825005391, -0.18187147313147392, 0.05012781319599289, -0.05064331674432806, 0.051430162044962036, -0.10699269755518652, 0.03028244864264763, 0.05867567776401573, -0.024042648793337885, -0.011063206319215195]
mips:[0.01954291573195461, 0.018548592706781764, 0.049038113591748776, -0.07259470835881875, -0.08338894528682103, -0.004195656886707191, -0.01975050513389316, -0.007022045674130573, -0.000780246434136369, 0.04025989006466269, -0.0034866273280067203, -0.047302261567268716, -0.11016099738070734, -0.1715362786958145, 0.02161029984249364, -0.16518972285905645, 0.050258036112957136, -0.0457297720562996, 0.09489863398941376, -0.05135385822375828, -0.12594304232623688, 0.031786096170562966, -0.01076124937340448, 0.04470068977881998, -0.0148043956104978, 0.017142661017018817, 0.004342017110461541, -0.11395557084821897, -0.08525133261783002, -0.06905358539050026, -0.008915057567260982, -0.25571089878687503]
mipsel:[-0.006465864206298375, -0.1150280847726877, 0.0236089384088385, -0.0387067913913161, -0.16150673756536088, 0.02510524205574, -0.010628740633290161, -0.07678607854552943, 0.010431843480298126, 0.029240152275078847, 0.02463646131147646, -0.10981175388235016, -0.10913295531019666, -0.06787957169481064, 0.008365829240770431, -0.16655652493952916, 0.038982140935754785, -0.07194244834091525, 0.03638563733390422, -0.00573923708332793, -0.12513753999700367, 0.009714731941968325, -0.0031770886005594986, -0.03396472214930287, 0.040129879830510716, 0.010637177023618731, -0.005810975863663551, -0.10364554868319513, -0.14233552644603947, -0.15527683591204847, 0.020203611333877065, -0.2505026895369735]
powerpc:[0.09438084358168182, -0.19514250347848877, -0.1602554467620147, 0.09908139053575404, -0.02095722771974897, -0.02181276667470691, -0.03186009975545402, -0.003516833316640049, -0.13684267271611716, -0.0004701955742183218, 0.050233801514803604, -0.1573050837009362, -0.03628229502234577, 0.03904090166064257, 0.005564023232313354, 0.09204854639554198, 0.023178981832786775, -0.2671137456224469, 0.0141363457353632, 0.0487638928774404, -0.03145711826158711, 0.006126072593262618, -0.01337109482562507, 0.012203948077584306, -0.1593541581740176, -0.012828495944471358, 0.06323907890371608, -0.21393111130710094, 0.05859511689558262, 0.06428148449499316, 0.05255880034411563, -0.026832564122179395]
s390:[0.11584814328808272, 0.04933465310054182, 0.06840716244639197, 0.1628083104739275, -0.0637949953203161, -0.07302508980843062, -0.020442566474308876, 0.03896362643613208, -0.08128561063201277, -0.19801441296198377, -0.08469620114498763, 0.10818269946637538, -0.06494352170082555, 0.02362147439590547, 0.00726312765641251, -0.38298820023660446, 0.06847485179192835, -0.2064436779710572, 0.06043670475216541, 0.2549876385398347, -0.07956676770241154, -0.0482474886092111, -0.014961311404547437, 0.022921193994656204, -0.1271413554266836, -0.20307716012294755, -0.1524664696948106, 0.13041126865442704, -0.07524286522034875, 0.1270420407127353, 0.016748189475373862, -0.16712374100259134]
sh4:[-0.12659091633568403, 0.08724157067970115, -0.14596379090292366, 0.10018620768251346, -0.05430976376015894, 0.004116902257259775, -0.07811174909438824, 0.08710814711216458, 0.049406575930690075, 0.0071138050327190375, -0.0928405061778778, -0.021970303678150036, 0.17257683329142035, -0.05782524583086187, -0.13141396524471893, -0.03856807719787788, -0.17257975770489012, 0.006551742978597713, -0.0953369693461424, 0.0942980197577081, 0.027837640681413395, -0.013286464238081087, -0.01958000442360166, 0.06037101081031752, -0.00870536571711292, -0.03479479475839185, -0.03849522253382592, -0.004203390385234193, 0.1709135272775044, -0.04580802566866397, -0.08553127988711007, -0.08103144841809688]
sparc:[0.03966651456423094, -0.002182682386520271, -0.03444038521031568, -0.32145510180882364, -0.06113725149450545, -0.006200396681551761, -0.018255749347939155, -0.013452096767721832, -0.056880979027603036, -0.17653699123898975, -0.12086498308947614, -0.1801753688972902, 0.12523759192803735, -0.07620309733737474, 0.06918715341487776, -0.29812374944365233, 0.030134503764788982, -0.11010262405362783, -0.093224103217409, -0.45324123097046654, -0.08564621577852582, -0.007261538948908559, 0.001975260143351741, 0.05856909726953727, 0.04501260919458841, -0.23773617996289473, -0.06113902913640512, -0.2720396317658019, 0.1845883566798948, -0.051174514237112716, 0.08032952551073844, -0.1620451157101018]
x86_64:[-0.46640890512421457, 0.14313705891954734, 0.05865838651660144, -0.0283159209067643, -0.05187162576012507, 0.006038096875999626, 0.009296742442583864, -0.026336454994473887, -0.2921443649400245, -0.07161128580772638, -0.02686295744570802, 0.051742358881536624, 0.015933299884658858, 0.08687648058456912, 0.0005448868961738793, -0.13916030534062057, -0.514717206758824, 0.19714528760239342, -0.01737107271099071, 0.02373094726709283, -0.07436485435407302, 0.005835829950269337, 0.0017268748534508562, -0.09277977947554261, -0.32580959498496215, -0.03068038258173325, -0.0387839126558766, 0.11570721730941239, 0.005033851541921477, 0.025787984928318252, 0.09128763828540877, -0.10352429211858777]
xtensa:[0.03411808077540958, 0.10667568261271568, 0.10146140262144497, 0.023549829892160395, -0.3088377068366681, -0.12469176559183263, -0.014930116191269391, -0.0673075285186243, 0.02471373489577942, -0.05834068946596758, -0.106792184350514, -0.08883921368967887, -0.1234928072060611, 0.09446365507205347, 0.0241268519963005, 0.025330717306195658, 0.015588385398044254, 0.07090143565284923, 0.09339343387363049, 0.12780841647950553, -0.3148311317952659, -0.1740796590136185, -0.006114220816959534, -0.04704431195313817, 0.017798010145305302, -0.1234659860105087, -0.09360132507885323, -0.07085998536848383, -0.13057469525265245, 0.1127096091571455, 0.016184651411006258, 0.047828203038509425]
avr:[-0.16999088796266165, 0.07002480783963969, -0.1711637604134018, 0.07629612453363202, 0.11245943706421607, -0.009041447274601365, -0.0498734565535227, -0.024498273006506175, -0.032283160895859316, 0.019495271603744282, -0.12613538964381263, -0.0905799445697809, -0.10306368600587042, 0.014677113114390454, 0.057694021531982054, 0.12948020205919097, -0.21008777639514142, 0.023956498551425204, -0.21349440914729387, 0.1453720151080479, 0.03960507635471964, 0.004317579591198205, -0.04400196444685607, -0.010227198874593618, -0.02376376823051997, 0.03969300254967571, -0.144743316267895, -0.0582045962545873, -0.001244728397460177, -0.01063220038640865, -0.018031871322546977, 0.18340399722352915]
alphaev56:[-0.018103457949084665, 0.13470616354500772, -0.3657429532891783, 0.035988492967219156, -0.01684877334392567, -0.049944597111520384, 0.004923776123205597, -0.004709781067768092, -0.0939189807595796, -0.032285001807720315, 0.16040281041872703, -0.13190587946196458, -0.08059587895222652, -0.01654697530729256, -0.13677078072245774, -0.17704618182455717, 0.027993298324806706, 0.2267980424478793, -0.38694144547100406, 0.048241476857264265, -0.040276944852054124, -0.04480092758065692, -0.02219917504449058, -0.022493566654440526, -0.010446070670719244, 0.0180451707335836, 0.2182331249163709, -0.1532753203140714, -0.06323551243836714, 0.0037949145446857903, -0.2652688544474388, -0.32368022787636]
arm:[0.049231242378073775, 0.03468852107301126, -0.027777883367308392, -0.026287942175981727, 0.16249841577498672, -0.04591998069669434, -0.03173852290625107, -0.00915161185066113, -0.07201387065050044, 0.052112740301499365, -0.08776803395840953, 0.10298947341918527, -0.14439873197069952, -0.14667411276877454, -0.06192176460189736, -0.0777536531217511, 0.05301371833137554, 0.02211456763095399, -0.03161584935590946, -0.020010102512617665, 0.2683088303463733, -0.06868606700321123, -0.04489011559108582, 0.045575550406494345, -0.08218779316256178, 0.07012369854821421, -0.06271238377236138, 0.07626185493562383, -0.24192772614146255, -0.20122547816756053, -0.05717849620577362, -0.05451144875950563]
m68k:[-0.09143757183090312, -0.015240625212024198, -0.06054844595301302, -0.17099453739148293, 0.09249185949703584, 0.015516586635568584, -0.004290134859609514, -0.16880276229660504, 0.029960406626615296, -0.11060377371674884, 0.05193559244945387, -0.10132161070953008, 0.014084295698184632, 0.058478957673815855, -0.004917659656948309, -0.00034532022256259886, -0.05589070305644891, -0.08280698900232317, -0.07060205923199055, -0.21029996229654047, 0.13087162603379082, 0.013660329819943333, -0.00990200921175465, -0.18246233716937676, 0.051520647603579835, -0.05156989132057644, 0.05304009137288651, -0.10663976984150277, 0.030895000564693877, 0.05843360751273213, -0.02504291937026004, -0.009482675597204632]
mips:[0.01963728314168801, 0.018768881409620422, 0.04832820432239267, -0.07266454939826378, -0.08401509143420685, -0.003947652865736245, -0.019442830429930582, -0.006819334214180264, -0.0009145779244408759, 0.039867182034164665, -0.0040099053411222245, -0.04789135939327396, -0.10968563120108689, -0.17177644537947998, 0.0215792453188433, -0.16510530000198922, 0.04931333208514552, -0.04655905893106411, 0.09458069389239657, -0.05048878486856815, -0.12585594945855075, 0.03157192443744739, -0.010370785158022353, 0.04361212098545227, -0.013211155910503298, 0.016483176789715545, 0.0025940936851479974, -0.11368922116952317, -0.08587843336368936, -0.0686798693632233, -0.00836495772966216, -0.25659038319374505]
mipsel:[-0.006678123935696862, -0.1144383774806522, 0.023309572503685656, -0.03858139188737232, -0.16154227997630863, 0.024119645574889815, -0.010000008933853348, -0.07702786665225336, 0.00974472179837428, 0.028453380639381878, 0.025032600936626587, -0.10980226989356702, -0.1091621519475163, -0.06779490826850353, 0.008295532170285913, -0.16601052055918214, 0.03882865015205787, -0.07149846214565105, 0.03653390679480032, -0.005340754705830661, -0.12437183688220317, 0.010382610065545835, -0.003282155731143952, -0.03348014949112499, 0.04010240281204437, 0.010179287614725568, -0.004995659323135444, -0.10279077598085767, -0.14247201928145167, -0.15531700605629448, 0.019887874979312943, -0.25052488087708796]
powerpc:[0.09374555496489671, -0.1950707662995102, -0.16059209088161555, 0.1002141332418096, -0.02135308792714911, -0.02185736855305366, -0.031794110091680275, -0.003128031027160357, -0.13709235873721065, -0.0009169190815859199, 0.05098903108706884, -0.15709115700957052, -0.036209532196014645, 0.0387657636075693, 0.004820039144355007, 0.09170333689754408, 0.023222865079545612, -0.2670402316364233, 0.013666543501374983, 0.04820128751492427, -0.03164098766929182, 0.006541590537425166, -0.013305210086071426, 0.012274728617483258, -0.159728039907672, -0.014036941946647686, 0.062462250409220654, -0.2136950635095376, 0.058224543754250235, 0.06364543047799535, 0.05200455875227239, -0.027071898696304355]
s390:[0.11578729609039956, 0.049638140568169564, 0.06816924111477246, 0.1625875267925073, -0.06377384551783677, -0.07321009278891905, -0.01971919616825143, 0.039116723277964276, -0.08155720154450483, -0.19810099120659128, -0.08451706162788833, 0.1080143552680462, -0.06424488402145948, 0.024180347555585728, 0.005866650131425883, -0.3835790668347559, 0.06836284231796413, -0.20646786356031335, 0.06036672733075916, 0.25394540631394535, -0.0796038768801815, -0.04754831768049225, -0.015388115149119731, 0.022210019105692518, -0.1280951922573177, -0.20278763975993658, -0.15194180591902834, 0.12969520671645227, -0.07509951393100657, 0.12712314054848775, 0.016010183451593062, -0.16682036693546246]
sh4:[-0.12684307512589496, 0.08747114800587179, -0.14574121899527898, 0.10005722365728958, -0.054384780519117305, 0.004200052662949937, -0.0783002365135946, 0.08720925678711422, 0.04941169182085159, 0.007009532734421208, -0.0927380766140978, -0.02203475960375414, 0.17253451334939607, -0.05777661982448867, -0.13141125675062704, -0.038556728801703834, -0.17241246925619197, 0.006511049559694301, -0.09541988971421073, 0.09445081367170993, 0.02763816125993589, -0.012926830962348658, -0.01959590615332766, 0.06032005816659252, -0.008549078286697235, -0.03459601643377853, -0.038490533831175476, -0.004103193593442649, 0.17072824122341101, -0.045813514017463725, -0.08540897098575342, -0.08106013884693676]
sparc:[0.03988378558562725, -0.0019469889354930458, -0.03555925520482013, -0.32151438897334933, -0.060433070608565634, -0.007598452587245177, -0.019839178604079823, -0.014268993892517217, -0.055074531449058245, -0.17726114982122068, -0.12094988426543439, -0.1797161270512221, 0.12727138805832397, -0.07613898655500814, 0.0695014467931177, -0.2971781477878166, 0.031118891514507117, -0.10936948781734923, -0.0940795458564176, -0.45273484661159186, -0.0860924001583172, -0.005747876505711017, 0.0032380034174358256, 0.05845031662452314, 0.043200120339141744, -0.2371872956096049, -0.06077090135708371, -0.27192859188415786, 0.18530493810522788, -0.050283306057178, 0.08084111307185603, -0.16252270074922762]
x86_64:[-0.46692320497382106, 0.1440330765618786, 0.05758540076758419, -0.028050463098003943, -0.05207705304714399, 0.005434757863921703, 0.008472478127722885, -0.02576055555934092, -0.2920752871128591, -0.0699403729848388, -0.026153973809463014, 0.05040888994469043, 0.015804325191077356, 0.08586230362160976, 0.0003283398551520207, -0.13839078131670005, -0.5152163403112153, 0.1981450838552011, -0.01778721284010814, 0.02416631369639507, -0.07308485537206418, 0.00432301523576098, 0.0022564553539163217, -0.0920773643978023, -0.3258388702898833, -0.03054862338750451, -0.03943730859213924, 0.11465781685769584, 0.004926235012984833, 0.0258475256494872, 0.09135489487194778, -0.10329758036503599]
xtensa:[0.03290853704932192, 0.10616896189844684, 0.10292904406715285, 0.02364712659964713, -0.3089292836477404, -0.12485479756902702, -0.01722571228358203, -0.0662294498542803, 0.025838421867857026, -0.05776509131248413, -0.10702895862094673, -0.0880205597478821, -0.12327562713908248, 0.09569168836837337, 0.023397781793830414, 0.025087602128953473, 0.01565029522053051, 0.07166530094819658, 0.0938338507852321, 0.1268846211127902, -0.31443730364272515, -0.17377527136745863, -0.0032543793160653063, -0.04885136298788041, 0.016909067747771612, -0.12370259912145345, -0.09388993522437201, -0.07182572510782415, -0.13070424765158267, 0.11085187843522257, 0.01763525618882916, 0.04843921734452335]
avr:[-0.0521471795029237, 0.038148263942712486, -0.07097394856817953, 0.0553468179129271, 0.04778578593793138, -0.0016432246195576075, -0.014069665231011195, -0.007921902901232694, -0.018926685107531108, -0.008609233086448762, -0.035412922738777004, -0.050490780052032634, -0.031041251669542764, -0.0053594974857560105, 0.03144496094600781, 0.064271341977395, -0.06033462715755975, 0.0005888002604313856, -0.051281577213888506, 0.03081846636806742, 0.02455076839358235, 0.008322298901903074, -0.0070390161744914945, -0.0032540193500620973, -0.013253445149705338, 0.010908451183742554, -0.047762981853378114, -0.024212883540927262, -0.029077895842482833, 0.027236241755361545, 0.03619395521122249, 0.03784615476355643, -0.0681973164357046, 0.043240396010113286, -0.037698037359437386, 0.029886841800296136, 0.03495751314562803, -0.006372148307557661, -0.009906391655282254, -0.007288340552961156, -0.006016168278083702, -0.006419431503350673, -0.033906177679663564, -0.007194635675731878, -0.030991981741681142, 0.0025731908386208233, 0.002529483560820924, 0.040355761677285974, -0.062283159855519375, 0.018985766141252306, -0.06465246198489241, 0.007069388046795308, 0.039273845686045146, 0.0015542677769291404, -0.012558282307453698, 0.0092772305673376, -0.002123685229576944, 0.012648787137549918, -0.03530128197288469, -0.006237001938369445, -0.017267610813893695, 0.023543236455167003, 0.008760816220399899, 0.01966219913897012, -0.04130998132334649, -0.0005961558296602171, -0.08845288266596509, 0.029274881104602798, 0.02135423430814771, -0.010640488141176838, -0.011393996669817106, 0.009695464385841552, -0.016422525252262146, 0.008015795289025112, -0.018435761011462378, -0.004602587584410198, 0.0007824437215656617, 0.007855236908557809, -0.008329520881860135, 0.06297532296121511, -0.06786862471574326, 0.007924997256200767, -0.057716053613186234, 0.029963790599401647, 0.005152108938953123, 0.005198500579948822, 0.004146957487149177, -0.00890353864731761, -0.003593013670822506, 0.02205693427462492, -0.015655445876364932, -0.02949012835495142, 0.006563134930350942, -0.017424209378648848, 0.011905648078437166, 0.04760770148976064, -0.0820897224672216, 0.016331772687877024, -0.06558523835522724, 0.0469015683408464, 0.018039318027097212, 0.020209144780390285, -0.011118916587518297, -0.002428467796943116, 0.014926713851006138, 0.019946787868020288, -0.07357964252045064, -0.005757757265414661, -0.009141910945786456, -0.014188381928671077, 0.014109939173388479, 0.0533757592367966, -0.05813726245866832, 0.012697033121993564, -0.057683083000164385, 0.046430267982636754, 0.015464201045344841, 0.007610535601450807, -0.031002853562864016, -0.0072217196069374375, 0.004956883519108732, 0.007520463471897198, -0.04033123023917763, -0.0031665871625021183, -0.002738337446208015, -0.00030447861661310027, -0.018440901463364266, 0.06401609280412317]
alphaev56:[0.0005152782585851619, 0.04337862321248829, -0.12558330591903313, 0.023900820776491565, 0.005405209801284681, -0.009926955235551309, 0.012238225739689315, 0.008956788264012274, -0.021428905464449987, -0.010042048998217682, 0.030287513005772256, -0.04123901001622166, -0.014236244271540039, 0.02052362227403775, -0.04161190947895848, -0.0710883988354928, 0.02201904082175138, 0.02780908795450232, -0.08700527496293431, -0.0023242556307757336, -0.0009539082666686645, -0.014055200870427909, 0.012426479925808503, 0.0020120940806165823, -0.026596885640541357, -0.028580411948402943, 0.05453151690886921, -0.03629327252278081, -0.034266934802488595, 0.0028598772170635675, -0.03099632402021795, -0.051003242553543514, -0.00018493061360435725, 0.04554875791616681, -0.11515713086742152, 0.006426587925039802, 0.006881311253928631, 0.004472841602416239, 0.0028372781018398143, -0.01931798106765191, -0.01709218750136977, -0.0011028569219620873, 0.04535004728337609, -0.03597904528380292, -0.013748263589745393, -0.011109596406764522, -0.03248860283657618, -0.055220014852730745, 0.00704327351279046, 0.04911149466183961, -0.09443379948320638, 0.017489619983130793, -0.027439276376904236, -0.0045139207007746105, -0.01089149299604384, -0.005153796548119279, -0.02584724237148557, 0.009964923979340847, 0.07983196644320813, -0.04301888261504432, -0.02534702719874835, -0.02224776790050838, -0.05756082372593036, -0.038045216847664556, 0.0019036471995197523, 0.07419510088360419, -0.10020587104418102, 0.011687274656645836, -0.010320628493227582, -0.01731535157827396, 0.002977565382510404, -0.014596506300746655, -0.0018770667757035107, -0.005431167830571807, 0.05596809576975119, -0.051117111838518484, -0.028705447573765867, 0.012958400145306689, -0.07387591875968703, -0.04666301069138131, 0.004162118762403583, 0.0780685015734318, -0.12071543604895603, 0.005318499216523855, 0.003181904577932797, -0.019603680998172984, -0.0004850749826981039, 0.004426602592720678, 0.007528403480390802, 0.009006946595145126, 0.06838095645201543, -0.05343895405193176, 0.00041321200184041897, 0.023025606670332145, -0.06939065074216699, -0.13009928628294928, 0.0149604589780809, 0.0816821170282991, -0.08363270467038174, 0.01772332879015285, -0.02430833409055406, -0.007386029136581897, -0.007962158464345623, -0.01107457399809951, -0.020236526666513818, 0.02518143658190648, 0.05454251963570916, -0.041871685018445626, -0.024644917016405907, 0.008306999997554415, -0.09942129643806354, -0.07158938838142498, 0.015013704368355151, 0.06622769846926757, -0.13376632374938593, 0.03808002068355464, -0.026947463761448243, -0.0022642779562157805, -0.023872716330037798, 0.024828073754456337, 0.004705910248988503, -0.002947140531827637, 0.06217689999518136, -0.023673778851958545, -0.002790139209755047, -0.0024683928225113097, -0.08309770380723787, -0.1000670335165802]
arm:[0.014492800855422282, 0.024037244105350124, 0.00448890510603517, 0.0025212593647593907, 0.05633671691404535, 0.005259160477243428, -0.014250591344199587, -0.023039316604160826, -0.020423248859865708, 0.025757383061790456, -0.04533722320947318, 0.030766257956102595, -0.045262497386559276, -0.03151910978237592, -0.03144710714517123, -0.019724707667947542, -0.003658047423508201, 0.00912532094731363, 0.004931132693041326, 0.012804977213362222, 0.05898787114471715, -0.010893495077938369, -0.006485320364705847, 0.02368962817938059, -0.017142894081371065, 0.02673466619165466, -0.013698268592459546, 0.04511104848340172, -0.06815500572491313, -0.07080379580779267, -0.03527158737898461, -0.023043802705780183, 0.017130391482382996, 0.005621058325583964, -0.005706968174820669, 0.005319630276029933, 0.05559814495151478, -0.022396692200874098, -0.009341205324249969, 0.017773018806918055, -0.005389850309910805, 0.015180724772232234, -0.04843823120583612, 0.06960834183530079, -0.08725954947524026, -0.03556886037152262, -0.02269930838735813, -0.017003125582827155, 0.03702223543748722, 0.009267379984205648, -0.016762774847741684, 0.02771182270839891, 0.09657255444451504, -0.021937523645631788, -0.017030612542095123, 0.0035440670753584137, -0.039046094454673934, 0.016769540613831246, -0.015395507930823383, 0.035942552801585634, -0.07452169260470796, -0.056573647856712754, -0.04341117594518014, -0.009420229193940836, 0.027984906680568678, 0.004789852770278965, 0.010660099364607024, 0.015424177642855322, 0.0862690830088531, -0.026334465568714032, -0.029038578748567436, 0.01261502203295099, -0.03660972183212104, 0.036222723209166356, 0.0008525018183980564, 0.03846356458338075, -0.0839438516212052, -0.06029568929472532, -0.05402903407315481, -0.009491765416448205, 0.028723345245097724, -0.0028369013329213617, -0.010567454557224187, -0.00183761636360051, 0.09186265431886341, -0.00644271479793618, 0.013738373412449946, 0.020363354443013, -0.033192821841536706, 0.009557620064644468, -0.020984150862885215, 0.024413036857280874, -0.0911491142606607, -0.07116889150125642, -0.02603750192099552, 0.007762649504006286, 0.026779534271566482, 0.0028967740145277704, -0.02505281165719486, -0.00023585889129887344, 0.10554866516375278, -0.026111832767916215, -0.023030824574845173, 0.017968630865002593, -0.03822038291525865, 0.025029544929136737, -0.03339237974903086, 0.052159682285374896, -0.07979198954783866, -0.06470859984137692, -0.014193249558350716, 0.006530836743612813, 0.035592612670391995, 0.029633156902130385, -0.022447520237033936, 0.004177066509437448, 0.10907446286542878, -0.007010139720143822, -0.00545464033405964, 4.624216461219645e-05, -0.04523705283988288, 0.016020716472519035, -0.04495673640916159, 0.016237484438201284, -0.06506261289752206, -0.06963713435928019, -0.005757008496084587, -0.012483077909376689]
m68k:[-0.0019378783707593265, -0.015363686602137093, -0.001376503168986846, -0.0347579039200373, 0.03466056479241155, 0.015889782202919443, -0.0014760143151043407, -0.05041544671252189, 0.01135359693183751, -0.04449601537972133, 0.007462628408656975, -0.027168734996701707, 0.02274524946573075, 0.007399975027719578, -0.01149930071938165, 5.896939260368473e-05, -0.025560908210987103, -0.014463718151763404, -0.002243839995729989, -0.0493617792474663, 0.047727740700974255, 0.005866087697386048, -0.007015188247161336, -0.05620444129627723, 0.015847853993847198, -0.02651627423361749, 0.025252406239283116, -0.031036849673306836, 0.011524151905014482, 0.019159805089511504, -0.017022088141772303, 0.01563582384772795, -0.03924098810168986, 0.009687097349470916, -0.016059468651227628, -0.042180516119549066, 0.021937407296178546, -0.003875223870184837, -0.00033794874604407366, -0.036183964212982096, -0.006661261358147463, -0.020371843955776004, 0.025272249450544987, -0.024960207237656348, -0.008022243621002179, 0.027033485098000326, 0.004154706563360324, 0.020295688441176983, -0.028922284352116787, -0.005978817865621141, -0.00957120333071009, -0.05183178982387682, 0.03660327346076095, 0.01064128897796198, -0.00039721226582543987, -0.04990335637243686, 0.01936930425968082, -0.012840935063518279, 0.02021400459827333, -0.0356467044065689, 0.00939898324630669, 0.016888335580565312, -0.0024314541550555483, -0.0055138710690899265, -0.034572509896596944, -0.014886454807722703, -0.021105811279914902, -0.029100029556510146, 0.04603256533381469, 0.011166992301126562, 0.0078801532319463, -0.04614376533278759, 0.020203434890386483, -0.02365305476980517, 0.008741905720950658, -0.02298939607142917, 0.01203194572667407, 0.023180440460791773, -0.012142815127448794, -0.01404480018584292, -0.012327705743632338, -0.02307718459538113, -0.009457843040469323, -0.06268126479713924, 0.04330349993318572, 0.005153181719275536, -0.0005011338736630983, -0.05477817283705262, 0.010806570963988607, -0.003211662712774926, 0.010988612867414474, 0.006607760812225743, 0.0011020934963920789, 0.01343694665059494, 0.013801215586888111, -0.028962143779476087, -0.013971518987166536, -0.03936068765424197, -0.00163999156104622, -0.056283218988981906, 0.019683885178671187, 0.0036263740648887965, -0.009720811348089133, -0.049465468328336114, 0.027124839282836502, 0.001115125568894844, 0.023737414566658344, -0.0696020981966878, 0.037965707372176555, 0.03421056144788897, -0.009674186413719399, 0.011569706496147763, -0.004535007762792915, -0.02849383424994359, -0.002724551756203208, -0.0816931814686112, 0.059861088459719, 0.016147085260873214, -0.0031370023799814784, -0.06875773821595733, 0.024575210279090938, -0.012645286032653332, 0.02139109190557227, -0.01648593213625108, -0.0036214372122296327, 0.019024053364985697, -0.011624790244957276, 0.0025517597001761265]
mips:[-0.0009790503125360615, 0.019869251879821102, 0.024262487235657534, -0.024123170915160995, -0.038734749123176995, -0.007139171477112694, -0.005743813586698449, -0.030237640735741388, 0.006542912773000997, 0.020926301088848732, 0.009800284533031698, -0.021365976952962145, -0.01720287084482804, -0.05066010849174494, 0.020816179087898165, -0.022850455248416085, 0.020160107435137548, 0.011357755442861729, 0.020553988948841615, -0.020002702390944253, -0.03320761865458293, 0.0008605153066935291, -0.0068865821680512175, -0.008710506022893881, -0.01946155279209229, 0.020662072566649863, 0.006773288778726301, -0.012080014901215972, -0.017739468349643878, -0.04972430458750506, 0.0003545069913590185, -0.03061609458970349, 0.0007206095289959693, -0.006503299525354954, 0.02680673805885905, -0.009540153503761431, -0.0015775683747122843, 0.013337372703168905, -0.0037978345907987857, 0.017665415373670182, 0.007711764306296782, -0.00022131652240403265, -0.00811932000275441, -0.015248296528864154, -0.06002682304367544, -0.03783583170741779, 0.009382032641363393, -0.0513785575018221, 0.028980834192825496, 0.008555787930280879, 0.015378321473228216, -0.03357672627215691, -0.03016755476292506, -0.0015517304463767087, 0.00307416718567714, 0.0061828879928299925, 0.019440904506384825, 0.027250397192359218, -0.0031864164394110727, -0.013013227434891821, -0.03881610464462343, -0.054365037271814326, 0.012956243567184614, -0.06636832945164689, 0.040315918779646805, 0.009584278048479809, 0.050971581067444864, -0.014708530889483961, -0.052943532444033964, 0.007793636122901881, -0.001109433865444559, 0.004503650756164677, -0.018843367979011368, -0.00400998201972188, 0.0030353880373821347, -0.037379557168729836, -0.051574853626353855, -0.0021493388309120893, -0.0006488715816221786, -0.05072441607210681, 0.02078963526605086, -0.028370842219152155, 0.027725974412985552, -0.0065412880006904366, -0.044390711406643704, 0.0227627703686645, -0.006223452920668965, 0.034519902604280284, -0.012351904206946913, 0.00548094046870607, 0.008280449322356356, -0.008236502350912047, -0.03080359613553842, -0.017825658882605896, -0.013478332191805801, -0.06940892859800225, 0.02094200550498059, -0.003931932787483682, 0.03719418422238002, -0.03175162971498374, -0.03414902568679057, 0.018732671029868656, -0.003215928270555405, 0.02289026117637458, 0.00013097458362829235, 0.004095511125859788, 0.0052246377887406594, -0.030263859430043564, -0.009330385147568286, -0.04857723361987682, -0.006588182917357229, -0.06261700569006742, 0.011279298902530403, -0.007231901231961232, 0.030458516937855798, 0.0031750762835707678, -0.033329652577220446, -0.009183339418286493, -0.0027277194819867834, 0.0243760964030908, 0.002872563755434405, 0.03059734551160569, 0.011762241265083523, -0.03233729595233541, -0.024657630683797872, -0.0007034275497563823, -0.01984177082866427, -0.10216535136333868]
mipsel:[0.0013149474885697182, -0.041949843995922685, 0.03687705583936072, -0.015993178681063844, -0.036619790124425934, 0.016937937665582235, 0.0003484001355858589, -0.02073266305634105, -0.0028686777313853867, 0.009461034732992339, 0.03503257937012177, -0.05263005622466023, -0.019967754318200973, -0.04619678404121086, 0.007362906037320277, -0.036007872028562524, 0.016507189177674207, -0.022028149739593, 0.004841005177588587, -0.014063496103920135, -0.04533351054495247, 0.018108613040655013, -0.006903928676393703, -0.02612544872171281, 0.014212900165694972, 0.022030685496828472, 0.0073933691880699775, -0.028559474887413103, -0.03878369390655912, -0.014688849462526032, -0.00861075005956867, -0.04163614621270355, 0.014023157628763556, -0.02015875679259291, 0.02386266386401911, -0.0013967230667402235, -0.06075939074897445, -0.00469749627547106, 0.010349141133466433, 0.0008321682571817939, 0.004526323205739425, -0.001098109453833927, 0.007957156144384178, -0.03700090984870981, -0.02123566800571669, -0.0071472540032244455, 0.004239224793517428, -0.07833601366074032, 0.006203508877764777, -0.04602846935165525, -0.0006892975562633423, -0.03037682503562908, -0.023153708956554154, 0.0051634647608975025, 0.0028806276769098443, 0.002602949472723213, -0.0038846589590789816, 0.007232022830718737, -0.005075034473595451, -0.030990012866961715, -0.03644366085816812, 0.003396385312736174, 0.009797871074639296, -0.026530539241463306, -0.007491584522595671, -0.019277951573237015, -0.010494530570760194, 0.005433652866440925, -0.04835985854678293, 0.004389397838048562, -0.01414910037746855, -0.012016074354556807, 0.010748524367775342, 0.012552673659064435, 0.007057148540383249, 0.006782373916296118, -0.009220742245510005, -0.005482247074011989, 0.00854446408550224, -0.09536807553016464, 0.025082625971455264, 0.008172639662230884, 0.01022720281188014, -9.102044920473898e-05, -0.02040993746814491, -0.0179342604307381, 0.005230430731549113, -0.008172158776180912, 0.01399102711668028, 0.01212825261752143, 0.007330985985833488, -0.04309430898176292, -0.03097369294801994, -0.038596440274441125, 0.004987661476060306, -0.09071986631728794, 0.01838975283637691, 0.005087253085530193, 0.03223758396100775, -0.01083852596951009, -0.04720314356519936, 0.0025172552301969972, -0.0006680264712386186, -0.011225463165788313, 0.01756120701964869, -0.007545264471209936, 0.010866970028374966, -0.013082629884256545, -0.05002514730883963, -0.05633368705364061, 0.02055367745300417, -0.0757392962749742, 0.007601443651127402, -0.020172215325330877, 0.01152515898052481, 0.014200238420292196, -0.03917786381270327, 0.018620459642563, 0.0024299776915662637, -0.0044213100316193585, 0.010009079580771192, -0.002752375656832691, 0.000894563464868524, -0.023459442223998362, -0.03847482269064026, -0.07214113847630912, 0.01005299630958495, -0.03986418334264571]
powerpc:[0.05430276349585414, -0.04297160112560977, -0.02892532723649958, 0.027164780977957003, -0.020451976179792383, 0.001743562432955995, -0.0125275357593049, 0.0033242646232949395, -0.06308552353736138, 0.004748511144089878, 0.010100071912881124, -0.04021056049253701, -0.019881585930966436, 0.033583181535871386, -0.0009069386076754602, 0.01792379767999135, 0.01938917281117526, -0.053002986015775, -0.05334117250752562, 0.02560675592081284, -0.0023826714241909396, -0.005646295505086303, -0.001279640269473705, -0.003524873985445735, -0.016315243391877645, 0.007948474498946801, 0.02220232842619174, -0.0678897896459983, -0.007378928703596406, 0.004771600943935293, 0.015554789615049866, 0.03993701887636097, 0.029985298630795767, -0.053086475567118055, -0.044614391236845914, 0.027504534064829382, 0.005840538214273205, -0.011993439425535586, -0.012320714324192022, 0.005785751580171859, -0.04129518480607533, 0.014545699532560331, 0.009072411232364918, -0.03993105493575036, -0.016401653667433184, 0.021769265659709516, 0.003061241837213352, 0.02500254618753617, 0.006435653177085633, -0.06523342277679732, -0.03347713196227959, 0.04525470521209233, -0.009133415734573647, 0.0006799573135757256, -0.0003791753197035927, -0.0024123797635686077, -0.03774572213409908, -0.015255300691599916, 0.0197404746027772, -0.05299124557313595, -0.01077067042730834, 0.0312701230753517, 0.02333863707575616, 0.024719500743738444, 0.013926458257134088, -0.033745475672120676, -0.0015987713272246793, 0.011339878915220059, -0.015926432253806234, 0.012109982003888606, -0.007156643690794516, -0.020740244409823735, -0.05607021541083675, -0.005741094248164392, 0.008005472829876157, -0.04832745047970153, 0.01936823106163393, 0.022585064724530386, -0.010853419779766909, 0.03588903421713184, 0.014594259376337793, -0.06731365742719608, -0.00870986284131778, 0.04655556510357531, -0.03838087180828562, -0.011640202914040039, -0.009054151910314726, 0.017843436007268274, -0.053059615606167836, 0.002433481475069046, 0.034009496731862494, -0.051414474430561845, 0.02310851019219029, 0.014907492350724347, 0.014273305639266709, -0.004439634516983634, 0.014674171877207733, -0.09890232144171356, 0.007009239943026015, 0.014168395483571213, -0.002923868715207551, 0.005486796719921284, 0.006710216740445225, 0.02357611547582907, -0.049442342660316704, -0.022484352950081905, 0.03645305435708745, -0.05096900368557138, 0.020996864069145908, 0.01809437227056251, 0.017600058104735156, -0.014944280968393155, 0.00767594469429888, -0.07992161516180203, 0.009093608176665073, -0.01080099466470435, -0.009264004380636267, 0.00534908121446684, -0.01198687855208703, 0.011621646304796165, -0.033017533922314414, 0.02107708675746424, 0.016764339180670842, -0.08888534735591971, 0.0399902365719782, 0.024649609432986986, 0.034870578326723245, -0.01375445885918463]
s390:[0.03578237131864221, 0.02370344819815115, -0.010141002508036004, 0.056968119818202746, -0.00901870507618999, -0.03846784762079652, -0.0003193782383318445, 0.019689253307817255, -0.02683173165655368, -0.06683503235997683, -0.017784353320647213, 0.04856111950045385, -0.016171380110609816, 0.0353761412815163, -0.019408142425639967, -0.08192408177288918, 0.022304060993462875, 0.04706190694374305, 0.03578588715068448, 0.012849186701372837, -0.015071602780818306, -0.006844273189930355, -0.0006305476604451391, -0.006670543835207054, -0.018550126369001385, -0.04570658587398007, -0.008484503097483304, 0.04098468440176063, -0.016955658739056117, 0.008980515447802418, -0.008070499024744007, -0.10668316729956297, 0.04243863014108351, -0.0035931372339120683, 0.054121283820157365, 0.05232370521475769, -1.3290950332131346e-05, -0.030494856481760226, -0.005705594676470583, -0.0021323442072736245, -0.00979926268971229, -0.040195394533399105, -0.034876175547949986, 0.023269676829878565, -0.01685260855757309, 0.0012459855918885722, 0.006662892431039138, -0.10032069581109739, 0.053889481677229546, 0.003412648525332836, 0.008760933880387255, 0.07200626083886787, -0.029492614216594798, -0.008297467465634426, -0.011794968025373581, 0.01551875664497673, -0.0429988872372029, -0.031221916717668583, -0.024378080121520047, 0.027676578112292932, -0.01928123740988227, 0.01646335845851344, 0.01139895281483468, -0.10579075153644958, 0.009887545485679572, -0.004502269143308479, 0.03480615371456251, 0.05195967711691019, -0.027496779903482756, 0.0017547700278706764, -0.008206168978938385, 0.010246979521212592, -0.033940445361191354, -0.06311062725504195, -0.03892556091321237, 0.03122815805890627, -0.03386938328594647, 0.028651238280180822, 0.030703374363528227, -0.05382703817820595, 0.037604290010921484, -0.09614583900483338, 0.029201503320383706, 0.06749783047226848, 0.00625807956643013, -0.0042230542020421005, -0.007693163348248355, 0.027622849331663327, -0.03958791139759314, -0.0630529250606801, -0.047895619467670944, 0.021599104630080614, -0.021678641680489576, 0.04645394422802621, 0.027933911178803967, -0.047971512522272525, 0.029501957349496864, -0.0680747759220001, -0.006575803038181011, 0.07655811779494344, 0.0071039869609155985, -0.02428624592826935, -0.000795127447864482, 0.0011686467206184568, -0.016879270676291327, -0.06525186438538011, -0.02223178999230837, 0.04209168742386618, -0.023302209808628082, 0.0429162118034175, 0.012730432428013357, -0.050833742394286514, 0.04051586516793105, -0.026182873192735306, -0.03605506965585657, 0.08467202800485532, -0.05334961180028591, -0.014571949104870668, 0.0040789897835655856, 0.009163490751032352, -0.018390546620630204, -0.04653971372981062, -0.05379845675368029, 0.08130428000828753, -0.04327250209983197, 0.06611625352793167, -0.013949451645809949, -0.0444603882648798]
sh4:[-0.029149008663182225, 0.03912851495615878, -0.0070714312345576584, 0.03828480781539112, -0.014401432677364651, 0.006491341964763191, -0.0438156229353161, 0.01808017566816315, 0.02259497654458506, 0.0021274973496141817, -0.036742613245267716, -0.008247021463522327, 0.07363113766504634, -0.03974068167450906, -0.02205007305436629, -0.013755521183042756, -0.029000852730750596, 0.051240909069267, -0.043059556910130206, 0.05825585798492537, -0.0283168135557013, 0.003647944547645477, -0.020571866705266884, 0.044373022378699015, 0.004186554436993103, 0.001964588688080118, -0.020306974792631723, -0.0017829744051939404, 0.047331041206563174, -0.025669284693197143, -0.044034564731078654, -0.012914577905372369, -0.04289145671881788, 0.01257944215024374, -0.05550053304687164, 0.031326467113965674, 0.008299403804858432, 0.006293274706911976, -0.014071797992626535, 0.03026547995296392, 0.02694255399388146, 0.005813025293892521, -0.027609810209532383, -0.032291888284913375, 0.0591828381581711, 0.00986417697119646, -0.03543113653223553, 0.0032901746459117593, -0.0720232125445759, 0.04154778824052114, -0.043078297921985406, 0.02337459261011569, -0.012160961126848861, 0.003266279454789634, -0.004332505117155026, 0.03738117749382328, 0.014907821170178298, 0.007499321904283521, -0.017100999293000182, -0.01677161366262348, 0.061037801750911995, -0.0059679305370445275, -0.03485200408174712, 0.0031887319310755714, -0.06517804077856003, 0.006642405315110048, -0.023648393696600267, 0.031535172484497505, 0.016984184946514075, -0.005173506855218352, -0.02301122433073066, 0.01870261347354554, 0.004772009556431284, 0.0031084788134525376, -0.004676111419711143, 0.003816250690431334, 0.05594123659166608, -0.02119012259202819, -0.02657999438767064, 0.013605601650544828, -0.036142570591273515, 0.019055053415212804, -0.024548574240297816, 0.03261552150047008, 0.008035593162439897, -0.004064960967223856, -0.00364977612937824, 0.009814562222722055, -0.017143375750850617, -0.0013871838515855967, -0.0009279512543835172, -0.007731975645373075, 0.029629656466743086, 0.010220663513667464, -0.020906791732457086, -0.0072117575773346385, -0.04850593257680821, 0.011762721611953348, -0.027497298207865943, 0.04080423347725533, 0.0014477068588597528, -0.015312969231187334, -0.00876904487638325, 0.020547086677209166, 0.009606935491759372, 0.017275586098844758, -0.018110058265041945, 0.028576623135206272, 0.07178557170606718, -0.0019147074132377971, -0.04135666423710062, -0.05492135684103671, -0.04788173175135536, 0.0109837288474483, -0.049983206996253464, 0.043635565989509885, 0.006158176637647905, 0.005802741025848556, 0.008721145686536416, 0.03829421323525957, 0.012807646256011648, -0.010150753977925295, -0.018375674652150346, -0.006525553319833327, 0.06669642153772791, -0.02892281680159784, -0.024897759360568136, -0.020081343978459298]
sparc:[0.019581148065579153, -0.009121615982755939, -0.015086254900430104, -0.08101888649493623, -0.01000872678856981, -0.01029493623697454, -0.0010772240305818432, -0.0012291233656117318, -0.015386632670915907, -0.03123586861747055, -0.034594455290299544, -0.06108145470676168, 0.05030142867588344, -0.048019798398138, 0.02790437866525358, -0.056284624522479045, 0.04788466359040107, 0.0034558907516151075, -0.016424656230334823, -0.10994016681785304, -0.009552237918071664, 0.005623242686458086, 0.004602223344948171, -0.013859388042407248, -0.014604122369859994, -0.03671950513618868, -0.04812614856610525, -0.04216628275347603, 0.04137278260951011, -0.02448673159549015, 0.013151039950989844, -0.07851616720422944, 0.006382248671141208, -0.006349927640397186, -0.00672737693732756, -0.08599140118037883, -0.02265064196611725, 0.017053101650751367, -0.00619168420134595, 0.020534210150717457, -0.02400979691255945, -0.0570751995719353, -0.03448731871130139, -0.03653784247518892, 0.03971499210413274, 0.011203451065584263, 0.026330213453846774, -0.11796578544560772, -0.006606471280660029, -0.005221641536384472, -0.019562954614122427, -0.08825132090024211, -0.026615326758122934, -0.007844685509337522, 0.003293263553028183, 0.002792070836057251, -0.008249310159341376, -0.059966685334698074, -0.009043260689800778, -0.052773818252210336, 0.03011736341850453, -0.0034867174045287667, 0.027844250819437987, -0.05470204914802885, 0.010333352363954192, -0.02147717423541518, -0.024977532658060474, -0.12077665826387317, -0.019431571041642656, 0.013401980539256687, -0.005385376823192892, 0.006532737528699747, 0.02407876781225967, -0.043056358822760016, -0.027726496665460627, -0.03073215531289865, 0.03405289477253543, 0.010013580512097166, 0.009836973214552857, -0.09274058157684353, 0.012647863485788956, 0.002707296624849845, -0.031072393046406833, -0.09920236654509537, -0.05749777482788072, -0.012440589928952346, 0.00017629841433175366, 0.043121936058183374, 0.009973041978292336, -0.0549868224014309, -0.035351230574755095, -0.064888368574957, 0.05980961768415254, -0.023263499124268432, 0.015776575036999942, -0.04289979779861792, 0.0361557430851121, -0.04348367698230076, -0.03227226531484134, -0.13580251059587028, -0.014254713833371712, -0.006407695934660515, 0.007831513776159588, 0.008876492939295889, 0.01482937855656759, -0.06886435749260902, 0.008675455454458358, -0.06043101844659834, 0.053484335062230305, -0.01826270258542073, 0.0208167850542941, -0.04772198076100681, 0.030082405445311135, -0.025792012105961916, 0.0042492204448708005, -0.14911075179825942, 0.0011929084128378124, -0.021814429933291798, 0.003632688308333729, 0.029054111936605845, 0.020648964669237446, -0.07384979160828252, -0.029018529300916113, -0.11753526086917361, 0.07970764998642951, -0.027726017770798413, 0.032789238943457706, -0.03284340781132855]
x86_64:[-0.13398098661988958, 0.024524351111398262, 0.01749525666659034, -0.004777361295184944, -0.029092191774654427, 0.012626292767463647, 0.007882916348491724, -0.01730684450069742, -0.07958687708368951, -0.016405546749492864, 0.01678779749949251, 0.020064796009683247, 0.01204670539245453, 0.026444168900043696, 0.0054669074261885, -0.028262083965193883, -0.11023206671007928, 0.03932637880415902, -6.470788502820536e-05, -0.024876911855447992, -0.008132744138057054, -0.0019335338814147442, -0.01136370029161262, 0.0023201068881178524, -0.09535164333014139, -0.012423403717594914, 0.007059505369374829, 0.0050627119803647236, 0.0307728721037123, 0.05203019869889774, 0.0048429915412478135, -0.04213485158798364, -0.14359330931267186, 0.04975668436716538, -0.0038099440618783787, 0.012742555363930375, -0.013147527290432302, 0.002039876303207817, 0.009979447607450507, 0.004485452270611526, -0.09124310369000665, -0.000767305549673056, -0.007579409955357032, 0.0430929453681814, 0.008683754831057901, 0.007884591968048244, -0.00790239284764435, -0.03623406341592935, -0.14476504724279565, 0.04583713539464064, 0.004187441113527569, -0.006657706404775315, -0.024514807620917733, -0.0016800230083629884, 0.013254335402893249, -0.030081417752061895, -0.03215306410450147, -0.004994922287757602, -0.029150233373817995, 0.038822851916522606, -0.007215754863313577, 0.01973686192636624, 0.007211663588696622, -0.013848749493373197, -0.1675699685863333, 0.0788123723446067, -0.00679507111210485, 0.018096108725159956, 0.005801741898744973, -0.008927269426007118, 2.259829767422562e-05, -0.011223375342809486, -0.0632182776380737, -0.005131633048887733, -0.015922422838472738, 0.011676877934184314, 0.0007730509394503743, 0.00046789887337342015, 0.03710047777858961, -0.038548452589402, -0.12986422852881094, 0.07515269600143654, -0.003035307365167062, 0.025789413680013324, -0.04243766989109364, 0.017408392565161544, -0.001497033390780737, -0.029510797593688427, -0.09279517552448482, -0.014583827595868815, -0.01786188049398932, 0.0566834007429776, -0.008049706856900356, 0.02774481158478348, 0.01629763605887745, -0.04451341165478562, -0.15732015340094382, 0.08574657137016223, -0.00025132055151488966, 0.0056845768184640875, -0.016543465720974614, 0.010519677838542598, 0.0027784300774806774, -0.0473042412986336, -0.11532126128027964, 0.017622658508239426, -0.015056814818065242, 0.053987894077965275, 0.013642904093199364, 0.0019780137069661846, 0.025650426568088233, -0.03059905993850936, -0.1514397862533941, 0.05441677879076497, 0.028605735002774985, -0.011048451354335399, -0.012478554275664645, -0.00014310088317163032, -0.002474624385181205, -0.04029695155175464, -0.10245682115836525, -0.013181022880854808, 0.0016526523250667382, 0.06454200184559881, 0.014108759814108422, 0.006071145456490875, 0.02939949502180116, -0.031627799847715354]
xtensa:[0.015660921344152597, 0.034835590247302886, 0.0328566567998079, 0.006302771058417507, -0.11857081091952351, -0.023713833505343455, 0.007656323952031109, -0.012071816976493274, 0.018545931652205562, -0.011744779484040816, -0.038658338929279897, -0.008498223152255659, -0.04532338608477558, 0.03206167728945219, 0.005362916821105392, 0.01453206550535131, 0.03256679686150218, 0.03285047366403209, 0.022219810165569776, 0.02973703500558481, -0.08236740488960358, -0.026468303478944247, 0.0024450125403916714, -0.004974944040010757, 0.018393961120322603, -0.030941369794470493, -0.04194663044877279, -0.036139590343542256, -0.04233039084931753, 0.013684264735126243, 0.02018277458476365, 0.003226057257054089, 0.0108531936699445, 0.038347628090787386, 0.02806839758425165, -0.0021705866165151896, -0.057104288193149694, -0.04616182080453351, 0.0009652827418425149, -0.006678948984450512, 0.002991166401901234, -0.020549834472888714, -0.016185673284986053, -0.028247117622765563, -0.012235455858367238, 0.009720199149776078, -0.0011696065844077265, 0.008936409037927737, 0.0037805054265341097, 0.0470722663745006, 0.01515033236905946, 0.0028922111790059793, -0.07058801522425956, -0.035824064937542276, -0.014422934744274175, -0.019691962238445, 0.003314115689788346, -0.018891747345525824, -0.027201497350062383, -0.022828173746601836, -0.026375028912442484, 0.048024518815144156, 0.013014471306070178, 0.011664614930061096, 0.003049447267665946, 0.04376022138956885, 0.027210136196873794, 0.008165948286620987, -0.10731375568332653, -0.05745702012781921, 0.008761722202462286, -0.01751262087861077, 0.009976479853312034, -0.021106542699948373, -0.004314941098619039, -0.009858629429784957, -0.02032928011905279, 0.0208855145837465, 0.0005897182445383418, 0.025619034078058253, 0.007142219391314865, 0.019771951336953978, 0.033419937041543904, 0.02604387801609202, -0.09658717104721841, -0.023641952434925444, -0.0029748732632687586, -0.009773949838985692, 0.004345564654216682, -0.024900452012492975, -0.03519167544160577, -0.05088506966881469, -0.034711384754513575, 0.04969440156741204, 0.019250876899792605, 0.027773882784396367, 0.030620107737997143, 0.04032188322406243, 0.03256151550852175, 0.04509788792214503, -0.08089996443406833, -0.05841649045745712, 0.004328855127157952, -0.018175988634959356, 0.0038050748584761373, -0.05638301374453781, -0.0501703961513261, -0.02839829100299497, -0.028171903162691605, 0.03294766059810988, 0.010354309840871377, 0.0295825763489217, 0.010372493877170602, 0.014213219658943602, 0.041192809965262804, 0.048340600597139044, -0.07829068181776101, -0.05552844814956295, -0.021426698962973445, 0.0035446245104257252, 0.01740856619804754, -0.031074112270163788, -0.029532779402669993, 0.001705630976015783, -0.02272899671541762, 0.0066390962256593425, 0.001296230204357349, 0.0038844373816910483]
avr:[-0.052138570892477504, 0.0381267363983782, -0.07099157331457827, 0.05536847294336421, 0.04773396380278212, -0.001664463344472747, -0.014070431096656072, -0.007942263354211273, -0.01893503721419258, -0.008597224701037487, -0.03539508209515036, -0.05053014783227326, -0.0310515193305807, -0.005343863337812569, 0.031426678248172794, 0.06426193172580623, -0.06029599446087219, 0.0005649968836302744, -0.05125983041054834, 0.03083099444867686, 0.024502235835898875, 0.008378618844928909, -0.007034749794340048, -0.003226806810239194, -0.013238919075571468, 0.010902591176463786, -0.04774188410929782, -0.0242221492877001, -0.029052528391073584, 0.027286106770543734, 0.03619909290323201, 0.037870030099439685, -0.0681732233284283, 0.043223463647192074, -0.03770767545939078, 0.029867401856018782, 0.03494638166532764, -0.006335124790015236, -0.00988724225471833, -0.007318352281201201, -0.006004226433283472, -0.006440469313210801, -0.03394895028864938, -0.007202925279968338, -0.03102721509826793, 0.002632893506702499, 0.0025183095915116355, 0.04035180777414974, -0.06226038715514983, 0.019003188918187645, -0.06467625904303902, 0.007098557936958545, 0.03931683090608091, 0.001534947349090142, -0.012544586355532829, 0.009287996716489954, -0.002109200347253328, 0.01270129875347468, -0.035295422756449334, -0.006249875154324417, -0.01727854500497957, 0.023580820132080443, 0.008717228894257373, 0.019643300751766513, -0.04131438773981443, -0.0006171410948830415, -0.08842983614087226, 0.029279256072333965, 0.021349360314472564, -0.010603341402078045, -0.01141815290966017, 0.009732948675463359, -0.016411653134485893, 0.008010023218075422, -0.018425869265583938, -0.004616894035855488, 0.0007271101820905023, 0.007880421888807224, -0.008309448241025554, 0.0629873333489821, -0.06789490471828445, 0.007966202217606964, -0.057707301683988646, 0.02991960451363998, 0.005145730330978301, 0.005211378057858369, 0.004222164494254661, -0.008895172865930577, -0.003564143671564104, 0.022071973881282715, -0.015631704454079527, -0.02950978369435189, 0.006606873104320671, -0.017385148820685255, 0.011941012677278384, 0.04764455845296983, -0.08207546317038909, 0.01633926584437239, -0.06555691636553686, 0.046928421331040776, 0.01806912901108415, 0.020219709230123447, -0.011109754505677728, -0.0023957837079050695, 0.014888157365219734, 0.019925376717552557, -0.07357229796759239, -0.005782749651180682, -0.009109297011307076, -0.014107854488367632, 0.01418634189457619, 0.05338909408752281, -0.05812462391561431, 0.012699586551530914, -0.05774381245358652, 0.04644780075718943, 0.015476703566516486, 0.007627451975494884, -0.03098762898833339, -0.007190773122849779, 0.004955960436004416, 0.0075157160770609925, -0.04032213799840504, -0.003215010078342443, -0.002782411775433438, -0.0003199406013986002, -0.018403990062152806, 0.0639992274054846]
alphaev56:[0.00048695861058201145, 0.043326502600270704, -0.12558126130167258, 0.023905504723236118, 0.0054115165568858516, -0.009934905571738432, 0.012256970286709253, 0.008979784994293104, -0.02144917504015769, -0.010071324538104998, 0.03028380955180931, -0.04123940683236674, -0.014258847860364353, 0.020521323128070715, -0.04163443616987099, -0.07108636249794949, 0.021998953752480312, 0.02783807647022861, -0.08696878197997987, -0.0023148956000458077, -0.0009537762606025047, -0.014033999802727652, 0.012431854414724684, 0.0020469559907237526, -0.026567665071808425, -0.02859967153285961, 0.054553119692792154, -0.03628573669538288, -0.03430642040071785, 0.0028726040382525157, -0.031007861694779284, -0.05100009940506742, -0.00021754951880335568, 0.04553285667847922, -0.11519302406705585, 0.00644334033099933, 0.006869629944369714, 0.004496689417009206, 0.0028099260223221445, -0.019353374334456375, -0.017077509641730142, -0.001143763443733643, 0.045323784916707285, -0.03598135653746996, -0.013746785904429487, -0.011144837010584536, -0.03246755299090449, -0.05521266246618549, 0.007031136277370347, 0.049107673166189796, -0.09443648411874532, 0.017523886676486463, -0.02745645259332165, -0.004514723314405743, -0.010850741070080546, -0.005130439335106275, -0.025851595104842372, 0.009955459731445813, 0.07981923444512222, -0.04304198338036126, -0.02534017951170238, -0.02223189997404064, -0.057574042228312146, -0.03806804157748654, 0.0019202467347443626, 0.0741877357800415, -0.10019024387345186, 0.011653170078498478, -0.010314254083502361, -0.017345599114613714, 0.002999249872741424, -0.014601142705450508, -0.0018992286654603411, -0.0054729301406331535, 0.05599370962231625, -0.051102596352234034, -0.02870404454889652, 0.012936503745377477, -0.07389183600130322, -0.046704818117469134, 0.004130758002690056, 0.07805649336570057, -0.12068719868007284, 0.005348887979597224, 0.0031883185115124625, -0.01961090634549988, -0.0005087881509382376, 0.004434348237903427, 0.007543424717989747, 0.009017871871647579, 0.06843922753990923, -0.05343257381240169, 0.0004218026274913566, 0.02302527741481542, -0.06941255219817095, -0.13011055955946196, 0.014995383855351034, 0.08170597670953193, -0.08363156869191513, 0.017715759766925947, -0.02428901730989327, -0.007366833671636671, -0.007962134799474411, -0.011099648455322322, -0.02023496390621399, 0.02519065342314522, 0.05451944752361144, -0.04186239092290541, -0.02465896589426802, 0.008263630793217945, -0.09943677571008273, -0.07156478583906234, 0.014999862589188371, 0.0662595911887049, -0.13378015569173057, 0.03808131480098671, -0.02694215475634965, -0.002272007293176029, -0.023857572871943778, 0.02487011074760653, 0.00472685229413237, -0.002974520607925933, 0.06212673543777852, -0.023695568131612707, -0.0027912556694718437, -0.0024775739611473785, -0.08307761967750688, -0.10003443697474788]
arm:[0.014489979424393758, 0.024035789084281445, 0.004489633955012088, 0.0025434560091826116, 0.05634526490450981, 0.005234184179208071, -0.014277977775985459, -0.023042161846855813, -0.02041018067502261, 0.02576217420865524, -0.045357554075795885, 0.03074538782918297, -0.04524752832478935, -0.03151199432672654, -0.03147306946288442, -0.019759921366619443, -0.003648979214506935, 0.009132306418037589, 0.004948701546409811, 0.012811260286002291, 0.059012241194399025, -0.010883238811168892, -0.006497684136891466, 0.023668417413442607, -0.01714146465255839, 0.02672633079586298, -0.013659046499674199, 0.04510900868185969, -0.06813028553632405, -0.07080289721178701, -0.03526630977710517, -0.023033960844972085, 0.017143304088767117, 0.005646931163295618, -0.00570415460214759, 0.005303408421503273, 0.05560171693486343, -0.02240347085066534, -0.00933372430208001, 0.017790993029638894, -0.0053637595063040465, 0.015199024943948229, -0.048443713937621674, 0.06960055855136571, -0.08728543604300684, -0.03556585160886584, -0.022662881471849167, -0.01698245919597276, 0.03703152807089981, 0.009260779543453418, -0.016766943549632294, 0.0276786416364375, 0.0965762799289336, -0.021942141735025483, -0.017024818066302735, 0.003553625810296693, -0.03905929356493815, 0.016782554571818417, -0.015401014715156813, 0.03595491993759267, -0.07453492582632057, -0.056575102111357474, -0.043390550530124736, -0.009414810097052207, 0.02799095410853594, 0.0048026319106547, 0.010678547887529559, 0.015410064509281418, 0.0862872900286122, -0.026347697282137067, -0.029060932877992406, 0.012613728892999781, -0.036610403516179536, 0.03622688115571261, 0.0008661204320227104, 0.03846629655886805, -0.08394084148223621, -0.0602917463047238, -0.05403408463598338, -0.009504306201989618, 0.028729159399361055, -0.0028498111857012233, -0.010568966738243797, -0.001838130065035225, 0.09187038562617286, -0.0064337818714032035, 0.01373027087032663, 0.020367698518152816, -0.033212246369580305, 0.009558037334344838, -0.020965334661648516, 0.024412460115339794, -0.09116224424307857, -0.07112823708630378, -0.026014713081500402, 0.0077531286975550725, 0.026796115880572683, 0.002883573938946797, -0.02505610697107517, -0.0002531772974093718, 0.10555548501662304, -0.026130696222598726, -0.023043793649948692, 0.017983905059710172, -0.038220804439101044, 0.025030792259921605, -0.03339749632185506, 0.05216180985399875, -0.07980446225298346, -0.06472569338810864, -0.014183273737180204, 0.006519052124267223, 0.0355691672755677, 0.029645522948784635, -0.022456840082139, 0.004199936027347684, 0.10908691130447264, -0.007023181680419204, -0.005424931840606124, 5.2129196586997097e-05, -0.04524464592395921, 0.016039476459885498, -0.04496196632477231, 0.016239216172234887, -0.0650237060396473, -0.06967620087902508, -0.005791565964842028, -0.012521668696054922]
m68k:[-0.0019617295653573384, -0.015409296188882609, -0.0013857221899738399, -0.03474779309551682, 0.034669507307506064, 0.015902684460398154, -0.0014567024655388898, -0.050407230018975034, 0.011408449552792053, -0.04454877227190658, 0.007502926508213762, -0.027121941824213795, 0.022744466248622447, 0.007427093334712104, -0.011442672449693412, 6.62825090535547e-05, -0.025555708800060483, -0.01445694683761651, -0.002274185647328795, -0.04932151828738881, 0.04772216319891355, 0.005812855917370728, -0.006959971268836015, -0.05624170827584351, 0.01583619073385457, -0.026511972318787342, 0.025227414196082276, -0.031063055871574843, 0.011542754777399898, 0.019145036615335786, -0.01704242602762967, 0.015617799166522525, -0.03925232665247513, 0.00973373835261007, -0.01603842585861947, -0.04224766070073139, 0.02193497540492926, -0.0038462629727098554, -0.0003201076812065546, -0.03617021544311836, -0.006658959358768925, -0.02039372118557879, 0.025291732697472428, -0.025014832113743113, -0.008068358767807692, 0.027048731827993628, 0.004130584992498112, 0.020320248271489632, -0.02891556848127746, -0.005976817897002471, -0.009616377014261431, -0.051848208382946216, 0.03663149906056958, 0.010649608599710475, -0.00040803909168010314, -0.04991927660694304, 0.019353070324085883, -0.012829985240555132, 0.02017873407334291, -0.03566680064964356, 0.009364666673279076, 0.016880012057122484, -0.002451355363651564, -0.005515860271700437, -0.034584974228961105, -0.014852216618529401, -0.0211467270514048, -0.029075718441464993, 0.04605298259528295, 0.011151743225741455, 0.007870594259723218, -0.046138691347320265, 0.020168352377438845, -0.023680377804954165, 0.008699310804466436, -0.02296567684126927, 0.012044348118110225, 0.023209011069768696, -0.012162098840468576, -0.014080835537778745, -0.012282658111759067, -0.023067270625051945, -0.009505946386035214, -0.06266929140715455, 0.04327935485215816, 0.0051644470982081725, -0.00048389821512205626, -0.05478107590913714, 0.010772084192936253, -0.0032385056097462735, 0.010978689771366772, 0.006601317231850258, 0.0011157245581648158, 0.013479348215270717, 0.013749312129621787, -0.028989953991395524, -0.013973921018626245, -0.03939387055968264, -0.001685569849373007, -0.05626100642127221, 0.019689451424309074, 0.0035766042873064986, -0.00969696995330963, -0.049477167661489505, 0.02713794114876711, 0.0010696314876769213, 0.02378644580800224, -0.06967440765466734, 0.03798298553286015, 0.03421986212653115, -0.009681962907736383, 0.011591282743784934, -0.004508647248520304, -0.028495552714111822, -0.002729091687927072, -0.08173408998958015, 0.05985906126151317, 0.016205227472510898, -0.0031759434077688812, -0.0687389601763651, 0.024549824439669125, -0.012621433169623685, 0.021410522701933946, -0.016497812741381613, -0.0036157888525774995, 0.019036013333415133, -0.011594001922103072, 0.0025377188971137236]
mips:[-0.0009323093723216806, 0.01987141620053331, 0.024300186567237998, -0.02413627435177694, -0.038695307145968666, -0.007064651811299697, -0.005694559466212523, -0.030274739458302096, 0.00657678189218994, 0.020918826975744015, 0.009874813917862504, -0.021347061532264032, -0.017259554823830653, -0.05063129791162769, 0.02089281034675235, -0.02287856308191518, 0.02019148950964316, 0.01140723465168301, 0.020576761782539692, -0.019970650238131833, -0.03320497529711948, 0.0008626525570609709, -0.006814333163869714, -0.008720200739162236, -0.019414302904633446, 0.02068397198120956, 0.006798562781593484, -0.012119426108746409, -0.017736346636438884, -0.04973212413211917, 0.0002882811598383995, -0.030626341186247654, 0.0007185754660050438, -0.006516423641557405, 0.026802656367250557, -0.009513037103936708, -0.001554813834890365, 0.013300201113029373, -0.0037802499695154695, 0.017669388553382362, 0.00764049384437786, -0.00025203747311049315, -0.008104480490138921, -0.015250538954606985, -0.06001078300692249, -0.03782752107023753, 0.009393451080879802, -0.05136946734139076, 0.028999395699571936, 0.008563029230566444, 0.015364994941054436, -0.03359100278609339, -0.030190672134595403, -0.001594353227163672, 0.003203392363669395, 0.00621970922412768, 0.01944766959655127, 0.027253907555256928, -0.003163735412419358, -0.012997437352500614, -0.038868672401163595, -0.05431367158689897, 0.01293793384455942, -0.06634229894720173, 0.04031377261048743, 0.00957552464059418, 0.0509750232974277, -0.014641647656501776, -0.05300460182564676, 0.007803260823514337, -0.001041355516782091, 0.004478690706390648, -0.01883932059610511, -0.004032801442459641, 0.003054601030950172, -0.03737761817463232, -0.05159837738942876, -0.0022244338429754473, -0.0005545706853857209, -0.05074198193449569, 0.020757660746584645, -0.02845732065671727, 0.027744178487745328, -0.006462886661291651, -0.0443756338593525, 0.022827184376365963, -0.006173012618914864, 0.034560920667559884, -0.01225957546652514, 0.005574195659280298, 0.008277766870109098, -0.008296196055302895, -0.030826618885746452, -0.017774298066947705, -0.01343308662016349, -0.06940499020763669, 0.020975683414026152, -0.003958216239876609, 0.03715006365870335, -0.031724990123831426, -0.03411653315726039, 0.018745277553664147, -0.0031999283909967926, 0.022853633326732497, 0.00019143275160776754, 0.0040842268000911685, 0.005315477188716006, -0.030228404075567247, -0.00926455986169613, -0.048592613258631685, -0.0065435908018814885, -0.06265551698620553, 0.011255476017917265, -0.007187884193658318, 0.030441304414962185, 0.003146133676619561, -0.03335670031578436, -0.009154915634955539, -0.002620677964149, 0.024349642760205906, 0.0029267816237906136, 0.030668118977906018, 0.011706115497425694, -0.03233585007855429, -0.024700201013456078, -0.0006867961051403357, -0.01978188485136105, -0.10208813327307381]
mipsel:[0.0012099049552700713, -0.04190356339933702, 0.03692536374522782, -0.01600128529025228, -0.03663990763867503, 0.01693373299143064, 0.00029133879065560623, -0.020732617519079986, -0.002876097289641151, 0.009372790830699697, 0.03500873494733622, -0.05258385168920516, -0.02002620067185581, -0.04616364563962079, 0.007336200758153169, -0.03604346643071521, 0.016485803210034396, -0.022021867986961517, 0.004839523899723963, -0.014103247339038342, -0.045373164017726876, 0.018122544639339787, -0.006867025115782136, -0.026018230137794477, 0.01417866732374485, 0.022026757013554533, 0.007361467917098757, -0.028546595258249402, -0.038754491568815205, -0.01469350529099367, -0.008598840901048767, -0.0416484125146155, 0.014074900621983593, -0.020146717558457896, 0.023802990709281546, -0.0014152446957541754, -0.060858647063080175, -0.004733344050310366, 0.010355234312040582, 0.0007649672239432982, 0.0045512348856857, -0.0011139740544134984, 0.008018900108560711, -0.03702459605141866, -0.02124123178720875, -0.00718101494102479, 0.0041605136723525445, -0.07829449572776039, 0.0062521714710906786, -0.04602456868281944, -0.000680955622129802, -0.030362619811270006, -0.02318724651815734, 0.0050934462215482, 0.0028317278971621783, 0.0026081553610622908, -0.0038409142469854204, 0.0072518882561385615, -0.005076013700886241, -0.031011660017377644, -0.03642868296909576, 0.0033916744859467805, 0.009718345117600459, -0.02659550521178787, -0.007488914139700375, -0.0192706449943828, -0.010478074983052636, 0.005454852902563058, -0.04831125381638626, 0.004317447318400464, -0.014140279372666677, -0.012007019749826158, 0.010771873160355877, 0.0125604599291182, 0.007057429911182769, 0.00673695148932249, -0.009272883395896983, -0.005524540850513865, 0.008511272130974567, -0.09538664462014791, 0.02505270406963994, 0.008235887542787356, 0.010230257945552526, -8.114446500314085e-05, -0.020424800592472044, -0.017859731995959555, 0.005219225175070844, -0.008133174170846871, 0.01403014021257045, 0.012178330385228626, 0.0072976783442641755, -0.04310248223937169, -0.03103569854532787, -0.03868432120157024, 0.005052399938031222, -0.09069236837345215, 0.01835682037581883, 0.00511858488873971, 0.0322600608678595, -0.010856871326130314, -0.047192865593831436, 0.0025403619987559747, -0.0006094500443687576, -0.011261688996903567, 0.017604421288058614, -0.007523838522149184, 0.010894301181509414, -0.013087787355841582, -0.05000762642118964, -0.056320568123809873, 0.020548194996499007, -0.07576104588470385, 0.007623410830673627, -0.02018018767602736, 0.011528634688867298, 0.014127009034731202, -0.03917202042559243, 0.018605645452895562, 0.0024134443581264858, -0.004342083531009819, 0.010038137946548936, -0.002744980783168121, 0.0009497498256742791, -0.02343299750392537, -0.03841389706855126, -0.07214435435408406, 0.010119804424104708, -0.039867255891266495]
powerpc:[0.05434404526581724, -0.04296812144297934, -0.028936080150521272, 0.027151085339498417, -0.020441580340274518, 0.0017761558155083117, -0.012590939435169264, 0.00329313856303598, -0.06312722831005012, 0.004773649955227311, 0.010093393532326194, -0.04026406043767892, -0.019849016739374364, 0.03355665704253643, -0.0009418772901214841, 0.01793120866028427, 0.019296727792067373, -0.053035733779946435, -0.05333239347973855, 0.025559841289757263, -0.0023481632114148486, -0.005679258461504957, -0.001294893824177109, -0.003566453180038597, -0.016292369376270415, 0.007942358797116841, 0.022185937479816675, -0.06789959260300554, -0.007427545769717746, 0.004798847171974338, 0.015539314728970877, 0.039958307784114064, 0.02996853963723625, -0.05305049321180628, -0.04461573691877338, 0.02752978087509263, 0.005872270969056421, -0.011994277216985944, -0.012314780319333652, 0.005779813512577165, -0.041291624161683985, 0.014529805824671234, 0.009121987498852648, -0.03995902263944668, -0.016460847453634672, 0.021782905287973008, 0.0030315686886101217, 0.024994352909696888, 0.006431603574951166, -0.06523310579021664, -0.03349212987622397, 0.045237643593664036, -0.009131543897784988, 0.0006809882619070215, -0.00043585132780371593, -0.0024246177894120305, -0.037765953271731406, -0.015252323672239743, 0.019712646534214825, -0.0529779992998905, -0.010825917527391869, 0.03127559632101142, 0.02336255303250939, 0.024693406178244722, 0.013873124676856653, -0.03378664917606737, -0.0015971021653269518, 0.01131408745886909, -0.0159542271346912, 0.01207149164118944, -0.0071716160154256785, -0.020757844492067218, -0.05604214327340384, -0.005754511608561986, 0.007953583673673275, -0.04830815250237971, 0.019409913227774075, 0.022593115497163623, -0.010803243520742092, 0.0359180408910475, 0.01458849419128342, -0.06728545615275829, -0.008733215119516363, 0.046497665428317014, -0.038383942070767056, -0.01165844916363552, -0.009098138147908316, 0.01787531041006418, -0.053040847983775154, 0.0024080434255069486, 0.034033097361628024, -0.05139317449696097, 0.023117215756183154, 0.01493897554177021, 0.014257988879167216, -0.004476672422622988, 0.014666874138418204, -0.09886623858590037, 0.007034775284295432, 0.014213677384623454, -0.0029455129781496042, 0.005406909030796555, 0.006719228937851279, 0.02357310542925583, -0.04945215899806724, -0.022487085024229463, 0.036478767492119625, -0.05091296882433445, 0.021033521108324803, 0.018136687189489856, 0.017597886906813336, -0.014974911999016583, 0.007726729735283906, -0.0799756518101516, 0.009132565967042958, -0.010803678998177017, -0.009225724432202816, 0.005337946575801345, -0.012026850475067276, 0.011622646317751001, -0.03301706128237754, 0.021090065972153862, 0.016737130166941713, -0.08892422377961437, 0.03997320246703452, 0.024678955552699607, 0.034871617282843145, -0.013692516124728193]
s390:[0.03575337774052996, 0.02371800274807535, -0.010133990291912875, 0.05692778239437923, -0.009034780178179238, -0.038486658057575215, -0.0002955486367538285, 0.019783920375658997, -0.026801117854907998, -0.06680409922313127, -0.01773222788858912, 0.048582395993775195, -0.0162035630202499, 0.03538189738420193, -0.019408660236682335, -0.08192215375444122, 0.02228486697696149, 0.04708455560635348, 0.03579054051875014, 0.012868793623898655, -0.015002708157137714, -0.0068674321398409155, -0.0006864273602546537, -0.006660876618392388, -0.018573403255501365, -0.04573768376137329, -0.008495613724062233, 0.040927920372678776, -0.01691791358126075, 0.008960205675417252, -0.008115806021365048, -0.10671365286937382, 0.04242576481650682, -0.0034971707560819396, 0.054115162844505085, 0.05225535532234438, -4.7715904835699056e-05, -0.030516148407729385, -0.005716467336000863, -0.002212450852175016, -0.00973853816738578, -0.0401456714375809, -0.03490226733028303, 0.023299855469865596, -0.016817664752306397, 0.0012069159121182512, 0.0066551442750827005, -0.10025872346025214, 0.05387464673145657, 0.0034561203180627355, 0.008809414732305171, 0.07199263913558827, -0.02949046576308983, -0.008334964413181682, -0.011787421644698018, 0.015515944122273301, -0.042990112394846375, -0.031178484302262097, -0.024349015508142776, 0.027700092984080972, -0.01924089971229012, 0.01643897369880237, 0.011361682159879583, -0.10575079483666315, 0.009916263709938413, -0.004528280428875944, 0.03484600407762158, 0.05187803709373636, -0.027460921819481652, 0.001751922597762939, -0.008232674562745278, 0.010269375356270519, -0.03389409647714307, -0.06306816895527267, -0.038932434988473874, 0.031232692672762755, -0.03386296160427296, 0.028616470697204813, 0.030724046943287845, -0.053820590891098065, 0.037571287609401254, -0.09612937733064164, 0.029142255203951792, 0.06751051074390328, 0.006218832524820374, -0.0041768667509855025, -0.007682350025140409, 0.027575149877428512, -0.039533734355841836, -0.06306067731962527, -0.047879433696386565, 0.021522883605345322, -0.021650034548228208, 0.04644205623003236, 0.02790542105433308, -0.047937480668670956, 0.02947868719884776, -0.06805834226735907, -0.0065987820715866265, 0.07660551957504719, 0.007153877342106127, -0.024300605449835866, -0.0007857709664700771, 0.0011595279913571683, -0.016912218726601348, -0.0652196247700139, -0.022249291055185413, 0.04210722927791822, -0.02324705933223344, 0.04293206693251676, 0.012778104019158215, -0.05084810652496283, 0.04055589458124639, -0.026160497396436052, -0.0360273123350141, 0.08465334326273583, -0.05332822336055386, -0.014605108738717459, 0.004111610898468763, 0.00916499941088175, -0.018336196777818572, -0.046506249171307, -0.05377299207643728, 0.08130491183623968, -0.0432738795344888, 0.06610880251801853, -0.013973390643131479, -0.04443356747313653]
sh4:[-0.029146798375827943, 0.039111119511761334, -0.007098987378643027, 0.03833970511682209, -0.014418779282394325, 0.006508984149828733, -0.043756259755093056, 0.018083019162362143, 0.02268548840198817, 0.0020768384054504732, -0.036706427782419594, -0.008239708486750165, 0.07365527479249308, -0.03977709026604091, -0.022080128422768897, -0.013766174411478213, -0.029006662330389756, 0.05124093834263818, -0.04302341271641425, 0.05828717258691278, -0.02833235077137018, 0.003618587654747382, -0.020590123969246258, 0.044373816861326375, 0.0041679693750452055, 0.0019668827855739307, -0.020297710699639194, -0.001789952050760413, 0.04738447982999946, -0.02566313508981648, -0.04402087196792394, -0.012941498175976607, -0.04290979333181073, 0.01258314634103933, -0.05551487277796263, 0.03138687958201877, 0.008359122748818169, 0.006319579995002961, -0.014018901295394164, 0.030295311083075423, 0.026987156124872336, 0.005805118260421355, -0.027625847193728726, -0.03226864294887775, 0.05917097381241887, 0.009860594483319138, -0.03541108612135841, 0.0033032197426898836, -0.07210708219019395, 0.04156295779558521, -0.04308811321844945, 0.02333953943790063, -0.012126083827968984, 0.003247118115658534, -0.0043933049093611825, 0.03736323700443925, 0.014868400935770817, 0.00746756391913903, -0.01710772869124081, -0.016770135612473168, 0.06105802856424604, -0.005968295993803937, -0.03486528466222534, 0.003200546793823222, -0.06515641885765892, 0.006641180998034319, -0.023612537824926883, 0.03149594913108883, 0.01698476159209488, -0.005199265387780107, -0.023015741731534388, 0.01868853606933861, 0.004797284759056841, 0.0031105031746430614, -0.004636520479870693, 0.0037986563470311196, 0.055898399405316226, -0.021204062101737118, -0.02663471354035859, 0.013589720785790294, -0.03616764375105677, 0.019048687927389778, -0.024540888296107902, 0.032635825036584805, 0.00805165128002447, -0.004098836872370392, -0.0036637356533716294, 0.009858883577222219, -0.017110924436215234, -0.0013788870514290575, -0.0009569335995128473, -0.0077676014076562975, 0.029655979907729953, 0.010252085665942252, -0.020926735336531922, -0.00721043565235988, -0.04847430699860188, 0.011795779560091762, -0.027524585443413158, 0.04079658087568345, 0.0014753945692527898, -0.015282946515783201, -0.00875164089760445, 0.020534305889479677, 0.009577570215073212, 0.01724103816616868, -0.018099643193963198, 0.02856461550007453, 0.0717689320973473, -0.001888222878451607, -0.041357338414770836, -0.05494361514350544, -0.04788041713617681, 0.010943611402140481, -0.04995667390573766, 0.04370528405245366, 0.006119136888481013, 0.005792929308458604, 0.008693798746007736, 0.03832776812525395, 0.012798420928658748, -0.01013701988652366, -0.018365737756582304, -0.00651734590461016, 0.06669805013770005, -0.02888763454642712, -0.024897785964442424, -0.020086503443636182]
sparc:[0.019608712305817184, -0.009139892381879787, -0.01506241536487735, -0.08103634169251347, -0.009983955408294961, -0.01029195088603144, -0.0010425646651656296, -0.0012504795130810079, -0.015416276230845221, -0.031259826700830454, -0.034578153986852614, -0.06104840688815061, 0.050319634784113366, -0.0480146386893815, 0.027890509975331372, -0.0562907036425422, 0.047905386865585806, 0.0034494151856850207, -0.016460910925435078, -0.10998129176862416, -0.009579439312044271, 0.005613148516916428, 0.004596849352857758, -0.013860710117137793, -0.014587423055458673, -0.036710094951821, -0.04815490203528261, -0.04219615851300347, 0.041369952141889536, -0.024447812690785185, 0.013140203950708208, -0.0785193805640348, 0.006379202657749843, -0.006357696765020825, -0.006710411890935176, -0.08598699867981191, -0.02266155513152969, 0.01703378795287036, -0.006138695820036983, 0.02052786439005915, -0.02398220805254657, -0.05708057902829283, -0.034487931860327656, -0.03657878938659599, 0.03967963818432674, 0.011175170422323367, 0.02635587407077628, -0.11797549977945958, -0.006607632045109533, -0.00525935952965963, -0.019566260628910703, -0.08831873566163718, -0.02666839136107223, -0.007878765177617365, 0.003284259452130699, 0.0027693398523746444, -0.00822657006789161, -0.059982250401939406, -0.009061635797534471, -0.05272779908336661, 0.030121683160606032, -0.00353702585779244, 0.027828887051594003, -0.05469653607476649, 0.010363976436164334, -0.02150653216128065, -0.024972048824279787, -0.12078965006220242, -0.01941621158147182, 0.013408502459035267, -0.005421779140988464, 0.006577485530297692, 0.02408247046689016, -0.04305660532261649, -0.02768086944296566, -0.030727225437074488, 0.03406799916452737, 0.010018304693534487, 0.009826571544542676, -0.0927149190174863, 0.012638904895747033, 0.00267627657726765, -0.0310273799169729, -0.09919581322887491, -0.057497095540151144, -0.0124530935428762, 0.00019849076549321505, 0.04314609750797168, 0.009989219744236203, -0.054990213731573145, -0.035376706748745046, -0.06492257340356195, 0.05976379949051102, -0.023238004629998307, 0.01578734120815617, -0.04290448150801923, 0.03616579701013867, -0.04353638475813428, -0.032260747049476464, -0.13582552697352757, -0.014235827328996581, -0.006408312234644619, 0.007842682395348598, 0.008918756540978573, 0.014847336632822599, -0.0688553562446184, 0.008698523721673153, -0.060417454036083354, 0.05350561579049995, -0.0182639815405224, 0.02079583902674704, -0.047729384443841005, 0.030061533034148245, -0.025789881782740255, 0.004215593661132141, -0.14914896209980122, 0.001177504095159399, -0.021844559200559985, 0.003615202044421536, 0.02900207056424078, 0.020642821412987317, -0.07384124443600978, -0.029021516156966895, -0.1175392182596106, 0.07971264426313492, -0.02768835224683934, 0.032803810418837495, -0.03290598197885391]
x86_64:[-0.13394753090478578, 0.02454159556051745, 0.017472161109342597, -0.004778318985241299, -0.029128970795351802, 0.012591435469224706, 0.00790987232156462, -0.017294655303566258, -0.07956474171326473, -0.016412065998513057, 0.01678513364869818, 0.020069386577933772, 0.012020599456792479, 0.026457537211617442, 0.005460536582263247, -0.02827354665242105, -0.11023625267147076, 0.03931119137325055, -4.159096742201648e-05, -0.024889410363794127, -0.008165818744905799, -0.0018879339540219977, -0.01142097725555221, 0.002305971648975767, -0.09536160367035673, -0.012406702788805771, 0.007091366128635328, 0.0050707426089866385, 0.030772785212178855, 0.052021754285424854, 0.0048523638443712085, -0.04213222272628223, -0.14359782973869217, 0.049787587756241085, -0.00376440875005669, 0.012723167733263986, -0.013154906065454285, 0.0020600763525057044, 0.009957859020947719, 0.0044839049858798295, -0.09122645395308554, -0.0007434111996843931, -0.007560457828476116, 0.04312003208118635, 0.008722579001442153, 0.007867539665768792, -0.007923069276258774, -0.03623443936651237, -0.14476130771057247, 0.04582554712703727, 0.0041686288545898205, -0.006619648133520436, -0.02455266374430932, -0.0017194479814850643, 0.013232158990396476, -0.03010454107743184, -0.03211965390015352, -0.004977614946338519, -0.0290925209807701, 0.03884457592386499, -0.007168888104501457, 0.019731490976428318, 0.007203671699361529, -0.013829499176141714, -0.16757654227975427, 0.0788470702124422, -0.006795364832732708, 0.018069822803173635, 0.005777017444465311, -0.008906419112682508, 7.695658120728281e-05, -0.011207005239148452, -0.06324100176361691, -0.005104257084238496, -0.015901816148640925, 0.01169112046485219, 0.0007369933313461668, 0.00046842115494904763, 0.03709192202161771, -0.03858519247790677, -0.12988319309165466, 0.07514637711510361, -0.003023088948882603, 0.025764326021282934, -0.042465647145736994, 0.017400348064447124, -0.0014689184721634072, -0.029490030112779547, -0.09278348669759644, -0.014566705597577674, -0.017863995430639996, 0.05673899035887861, -0.008048405175390782, 0.027706904689460514, 0.01629019280396473, -0.04446643307797027, -0.15730714560293868, 0.08576400165602932, -0.00023925355963295725, 0.005683787812543132, -0.01648392242626218, 0.010549051647617136, 0.0027487068720568855, -0.047283823333737166, -0.11536069216143158, 0.017631364133935665, -0.015050404188821857, 0.053963857262572176, 0.01363879567157989, 0.002001846434567353, 0.02564634028106521, -0.030636499706296824, -0.1514591465960891, 0.054454440896314134, 0.02862499064099479, -0.011077815438745605, -0.012475349885776985, -0.00015734501313365636, -0.002450185679078557, -0.0403113835827656, -0.1024847194773012, -0.013197484108253556, 0.0016447029807223296, 0.0645509515347787, 0.01412016023377791, 0.006074676246379966, 0.029424027565863632, -0.031614103695088075]
xtensa:[0.01563439265636864, 0.03489137432674725, 0.03279966398048185, 0.006328433075930217, -0.11855344608817775, -0.02368468944089627, 0.007700257485020723, -0.01206628162366188, 0.018546541068241076, -0.011703666378599951, -0.03864190237296294, -0.008511504332446329, -0.04531401667559925, 0.031987066277409534, 0.005387496387214915, 0.014536790773057775, 0.03251827912639256, 0.03288108788766471, 0.022222517819654754, 0.029737112993315874, -0.08236192976142777, -0.02647397008552753, 0.0024461526739488785, -0.0049064291125129455, 0.01839247970803339, -0.030980558268234346, -0.04192137835711549, -0.03609760850740995, -0.04233293011788847, 0.013714536161445771, 0.020178349241681864, 0.0032727447053736438, 0.010906107734726327, 0.03835472270271159, 0.02803618023981584, -0.002157739826813369, -0.05711301978181775, -0.04613414552583439, 0.0009721448213012506, -0.006684842154953704, 0.0029695234604806735, -0.02059013565961204, -0.016193419860081736, -0.028244295170097508, -0.012278636180316046, 0.00970126357843844, -0.0012175332852882516, 0.008947171793625483, 0.0037697292095868478, 0.04708933370367366, 0.01513653271634895, 0.0028154761948978478, -0.07055041429903035, -0.0358253736422676, -0.014430607145439367, -0.019732121575916663, 0.003346819815160081, -0.01885567175844184, -0.027191798339126924, -0.02281301705692924, -0.02642152153983589, 0.048029779265923604, 0.013002199703930075, 0.01166867760728563, 0.0030490921722090085, 0.04377295329755309, 0.027196168694342698, 0.008120843170366746, -0.10736871989373876, -0.05743679748763462, 0.008805912405071057, -0.017511202494318007, 0.010023680757490964, -0.021123344456978353, -0.004284792526692753, -0.009876349148673693, -0.02029194829126167, 0.020856639102909857, 0.0005474777582387403, 0.025649316595886075, 0.007161564853564716, 0.01983391923493108, 0.03350740149064227, 0.02605255440620602, -0.09662596744985313, -0.023654280373074515, -0.002911768546684348, -0.009780629927749246, 0.004351716431848143, -0.024930344484046466, -0.03523339815184481, -0.050873756947114164, -0.03470056523744452, 0.049709115627072586, 0.019243531001656836, 0.027780140532881466, 0.03060795258476854, 0.04033321034977448, 0.03253932512119189, 0.04509605976761329, -0.08087315030378203, -0.05839739245827164, 0.004326706746153978, -0.01816679188308448, 0.0038003582714730374, -0.05637482381153779, -0.050157260675801625, -0.02837456457323953, -0.02814108792592128, 0.03295031305373761, 0.010353228237402293, 0.02964229355890728, 0.010375106505534304, 0.014180280147824187, 0.041226740721864316, 0.04831624633210185, -0.07833029113271933, -0.05553883480856568, -0.021430999231344935, 0.0035399044186589035, 0.017410911932126814, -0.03106048155523102, -0.029530067844443727, 0.001724956508975155, -0.02275423829990722, 0.006624402930173458, 0.0012660386237973605, 0.0038965786616841835]
avr:[-0.05212180912104144, 0.03815053242746695, -0.070997809538554, 0.055367892166840495, 0.04775128440810762, -0.001666988194829758, -0.014040652968934463, -0.007924335210398356, -0.01888715556094455, -0.008625609912989586, -0.035377605038184615, -0.0505258210467762, -0.031059045124111954, -0.005348572844940078, 0.03143893516589925, 0.06430706203969382, -0.060315162879148634, 0.0005299924109542707, -0.051274295224441754, 0.030863737298218445, 0.024551168023570703, 0.008343092811566238, -0.0070189008975018435, -0.0032462120088990647, -0.013202466619034837, 0.010864271887678287, -0.0476855840941456, -0.024209779045707116, -0.029086421324387306, 0.02722847332654918, 0.03625459295454849, 0.037856514103037205, -0.06816947592677827, 0.04327639751759774, -0.03770705203066757, 0.029844682277939884, 0.03496225018586437, -0.006368081750552169, -0.009936578085263947, -0.007284010497722372, -0.006011654274158227, -0.006459654693526093, -0.033910547190636214, -0.007210874989944473, -0.031004452012485115, 0.0026298264195022594, 0.0025134302456876626, 0.04037428396172629, -0.062256220318824024, 0.01901967413902878, -0.06468968807946743, 0.0071028986672919394, 0.03932919641063326, 0.0015269458863817725, -0.012546281523928459, 0.009283843906892566, -0.002119642938349548, 0.01263346843209088, -0.03527751406943355, -0.0062815512643731065, -0.017321033962447146, 0.02354041368281033, 0.008770757378689082, 0.01963699888094165, -0.04128017456077395, -0.0006240342225064416, -0.08844156656676991, 0.029270390805916983, 0.021338618944362484, -0.010587092184682113, -0.01138744447437972, 0.009751768028601976, -0.01643040910882595, 0.00800070027897221, -0.018412635804287425, -0.004620296875684597, 0.0007461234946207277, 0.007881261142778774, -0.008277825917933152, 0.06300981153899818, -0.06785557957375163, 0.007948254379385504, -0.057673651061723535, 0.029916875524481416, 0.0051426455594696914, 0.0052682667182187915, 0.004202689450280168, -0.00890161259702613, -0.0035809066858794696, 0.022042754679959562, -0.01563158052639487, -0.029490431178323142, 0.0066021750808326184, -0.017431278652900336, 0.011945780558089324, 0.04761199273071771, -0.08208813394721493, 0.016285879783395737, -0.06558696708156665, 0.04691152366782385, 0.018049077979852446, 0.020236855880534175, -0.01111293604651006, -0.002427507320445569, 0.014885401337283466, 0.019950264244500075, -0.07358767034215107, -0.00577436985895034, -0.009129454244678132, -0.014139815556707791, 0.014149332580802698, 0.05334273051532048, -0.05812359800036175, 0.012695393634816794, -0.057709339467026805, 0.04645257617600055, 0.01545295146099576, 0.007610381752306422, -0.03100434399399736, -0.007238367169124459, 0.0049576841020721315, 0.007537240576645727, -0.040346234226203447, -0.0032030787207577276, -0.0027464627765022274, -0.00030290847422511806, -0.01839122826609285, 0.06400832664663612]
alphaev56:[0.000491381092487007, 0.0433218177899493, -0.12556803600010993, 0.023879217024714388, 0.00540642734660641, -0.00994953619738573, 0.012242655720376425, 0.008979269322173362, -0.021438046533797578, -0.010084771441214273, 0.030263502632332143, -0.04122206252823443, -0.014214475549938918, 0.020564467370746027, -0.04161491159106919, -0.07108360696227338, 0.021977754984170206, 0.02784218001007125, -0.0869861935507963, -0.0023362110000897376, -0.0009373733064984277, -0.013997399205740918, 0.012409443497219027, 0.0020262405236176084, -0.02657245971997398, -0.028605708081484556, 0.054517315838976045, -0.036268285244620384, -0.034277285337521494, 0.0028900052257324754, -0.03100449533374333, -0.05105756566306683, -0.00021159617016340473, 0.04553930316916618, -0.11513872897531198, 0.006428870127729097, 0.006882380491497121, 0.004498746735276062, 0.0028080015499289943, -0.019339958065254126, -0.017070889875334606, -0.001139116939910568, 0.0453401044788242, -0.03600204272397828, -0.013747247523070036, -0.011124443711099842, -0.032474660287907464, -0.05521886007138133, 0.007024708058641358, 0.049088905870554235, -0.09446051985326055, 0.017534435683743205, -0.027463446191364, -0.004536288200685187, -0.010866225567804505, -0.005154316375743613, -0.025832871967987357, 0.009966708506126826, 0.07979102238924005, -0.043043706765641745, -0.02536311040536166, -0.022255210117935846, -0.05757967500715804, -0.038063050585450134, 0.0019177335929256353, 0.07422425482596248, -0.10019121976315314, 0.011692145796324155, -0.010344834793993445, -0.017332022467031097, 0.003021512132349145, -0.01458854120029548, -0.0019223638104481685, -0.005443860818415627, 0.05601953872873368, -0.051097775149333426, -0.028707273673951112, 0.012908441068448101, -0.07388116359497937, -0.0466800947361059, 0.0041844368732056126, 0.0780508402113364, -0.12068064297761583, 0.005341593683797778, 0.0032361949651296133, -0.019548958264678132, -0.0005407558678177326, 0.004451677371534925, 0.007509851032353299, 0.009050488947439848, 0.06838497381160209, -0.05341269248609061, 0.00044661144972218725, 0.02306834759467769, -0.06943374605632704, -0.13011043148639975, 0.01497724820453083, 0.08172764985928742, -0.08359935228570439, 0.017718412960724197, -0.024274922446656907, -0.0073703433704879915, -0.007953744845993795, -0.011096202596275147, -0.02019516729757102, 0.025187557679674327, 0.05449336342205701, -0.0417729838549197, -0.02463498131062897, 0.008249338889074552, -0.0994454779134119, -0.07157157989102096, 0.015028047494258819, 0.06625706756253882, -0.13376572195575806, 0.03807676475235014, -0.026943786305991858, -0.002282310570737559, -0.023889183842793895, 0.02484178991061219, 0.004715626841659873, -0.002985522855202316, 0.06217315828747451, -0.02372252347109898, -0.002819586779219238, -0.0024837050908199185, -0.08307285797766592, -0.10003166943940577]
arm:[0.014482005022919447, 0.02403161583617291, 0.004489942179221572, 0.002523612755798967, 0.05636199993876826, 0.0052453116922260784, -0.014282018504160807, -0.02303653194678254, -0.020410327274220253, 0.02574784330490925, -0.045364264885706204, 0.03077391870625509, -0.04526135678419166, -0.03151218888571264, -0.03146986702992726, -0.01974500796446773, -0.0036508983630928896, 0.009126105514212092, 0.0049449961740923665, 0.01281684675411698, 0.05901461500023061, -0.010878599610198445, -0.006479358893760023, 0.023671888396078047, -0.017150221172639354, 0.026733886334017076, -0.01368833929315499, 0.045132627201993986, -0.06815520390595695, -0.07078961339377628, -0.0352560742841589, -0.02303294155373504, 0.01714315884814112, 0.00561711908721356, -0.005730514263527991, 0.005323415668937864, 0.05559760920604681, -0.02241155918460296, -0.009356484622016326, 0.01777510659009972, -0.005376922941904904, 0.015173520543019854, -0.04843232562347438, 0.06961911908180866, -0.08725938315633408, -0.03557402373664437, -0.022651615039811755, -0.016997326577363126, 0.037030974911193205, 0.009238993346029801, -0.016753724052827153, 0.02769772419240358, 0.09658724319650805, -0.021939464873594904, -0.017040392858824943, 0.003542135696326773, -0.03908266962468797, 0.016757755430864444, -0.015416642518283577, 0.035951488288845417, -0.07454156676343807, -0.05654475182674928, -0.04341178883010413, -0.009434350374927684, 0.027984075303246363, 0.00478532935818742, 0.01066243448104618, 0.015414313952616264, 0.08627588357519037, -0.0263494055692507, -0.02905287040627752, 0.012596458177604597, -0.03664315247448911, 0.03624403228776125, 0.0008483620111253544, 0.03845191008627215, -0.0839247791457246, -0.06031651343540888, -0.05402719280174303, -0.009465510989332357, 0.0287012351382909, -0.002839176103024596, -0.010567816546452117, -0.0018559683858921225, 0.09184106135416521, -0.00645575406776286, 0.013711993210487869, 0.02037210812330122, -0.03320758721301843, 0.009552633806755743, -0.020970107347994114, 0.0244151888449331, -0.09113777221533914, -0.07116316749665261, -0.026007854171544168, 0.007779847757889347, 0.026764927006865436, 0.0028860665977673457, -0.025060404432644075, -0.0002301936857725678, 0.10555691910019992, -0.026116646407917877, -0.0230314993522487, 0.017952551897756082, -0.03823297411456119, 0.025018840118671386, -0.033394434516211255, 0.0521708217242119, -0.07979114840292023, -0.0647480255641845, -0.01418972023615445, 0.006541299369875284, 0.0355704921829362, 0.029618360863533647, -0.022457069137658024, 0.004178819780923606, 0.10908677938350149, -0.007016927595008201, -0.0054615133547093395, 5.5192207960168755e-05, -0.045233058399171897, 0.016026325807673023, -0.04495515494486253, 0.016245902453889294, -0.06504906681554348, -0.06964848004698282, -0.005770852965540076, -0.012511792399995248]
m68k:[-0.0019071277015214906, -0.015384202606724403, -0.0013757077746281872, -0.03471921280912493, 0.03467342455478353, 0.01592647350248379, -0.0014640461726640002, -0.05040389584426586, 0.011375059252375298, -0.04451910463638018, 0.0074379291553563825, -0.02717950086581025, 0.022742841644006122, 0.007409154333369515, -0.01148059871764124, 3.100994850943888e-05, -0.025566408690373278, -0.014420133270507016, -0.0022396813382999123, -0.049283506364634876, 0.04771550177188282, 0.005821217481585967, -0.007006812700481668, -0.05623800769402029, 0.015852038983331793, -0.026538416625602728, 0.02523599151518463, -0.031047495533152173, 0.01151586282173355, 0.019193511460808717, -0.017033880834616835, 0.01557372654161554, -0.039249514937866034, 0.009695841863170436, -0.016021231458733347, -0.04217359305423025, 0.021901351747190767, -0.0038529836175559564, -0.0002979899864605482, -0.03615627101505498, -0.006631631755787091, -0.02036625059000993, 0.025270866295369326, -0.025005481676969026, -0.008065180289413929, 0.027060293361176657, 0.004145204794571156, 0.020311957441605803, -0.028935406802523194, -0.005935663237766118, -0.009578199500123981, -0.051896684513731015, 0.03661084019936677, 0.0106578267996271, -0.0003894195993349537, -0.04988788066428203, 0.019321690108130795, -0.012801072428147518, 0.02014910497555656, -0.035617305627319455, 0.009388933015773693, 0.016879364219593816, -0.00244381833808431, -0.005513977821995565, -0.03455991480185253, -0.01487339020673645, -0.021116928580502462, -0.029089547656199453, 0.04604119035359831, 0.011112265853343689, 0.007894687875516188, -0.04614131046395002, 0.02022187315399994, -0.023631570958722554, 0.008732480692703656, -0.022971797287875916, 0.012028077489211069, 0.02321099476779953, -0.012181620167467879, -0.014084822804015658, -0.0122778322979726, -0.023075940493352144, -0.009478565090382791, -0.06266832766820266, 0.043260236200918054, 0.0051323143674953135, -0.0004818191592314805, -0.054821994512915084, 0.010769390339483171, -0.003262789614332396, 0.010980029509357584, 0.006619887597939351, 0.001102780412211621, 0.01348230885751148, 0.013754446834896758, -0.028959130349636163, -0.014010591982720465, -0.03940664713743123, -0.001654385646538553, -0.05626611818819076, 0.01969285955703328, 0.003587269622575441, -0.00971478426360745, -0.049467974146124444, 0.02722831295531108, 0.0010470785679161357, 0.02373575794167666, -0.0696355251297251, 0.03799634145440985, 0.03422400183082852, -0.009655305150378251, 0.011549384535823829, -0.004510076832956626, -0.028511817669730186, -0.0027461421284428384, -0.08172590441796128, 0.059872156523082934, 0.016177351395876956, -0.0032081498524043936, -0.06873711123939212, 0.02458296322565464, -0.01263033886444657, 0.021375375102561687, -0.016497446386819443, -0.003623885388596876, 0.01908401145794001, -0.011594141923571713, 0.002581225640640845]
mips:[-0.0009679726827209709, 0.019830657075896253, 0.02433895671016037, -0.024177301109426636, -0.038718025365795015, -0.007100318917892337, -0.005755224968864738, -0.0302280058776852, 0.006557961942459991, 0.020898399220225117, 0.009825086386654533, -0.021447436153601018, -0.017276620580733613, -0.05065293773051044, 0.02086803094263938, -0.022874742177112734, 0.020142796257536802, 0.011331207082991014, 0.020545917243118033, -0.020050451901429, -0.03324879783249348, 0.0008611369824944997, -0.006930961641125328, -0.008766059379460376, -0.019472498280081907, 0.020648524879610903, 0.0067656195280009195, -0.012105545933671654, -0.017768835443582966, -0.04972819501116923, 0.00034139798437066924, -0.030642924293828235, 0.000752894670016518, -0.006470259361502775, 0.026815083878748702, -0.00958292415712848, -0.0014936933362337, 0.013322017084800568, -0.0038101267794697735, 0.017676211211918643, 0.007647306329578926, -0.00024215140045015667, -0.008148468793524866, -0.015222381453336096, -0.05999258479978356, -0.03784813482407835, 0.00938584755958113, -0.05141437879972328, 0.028969673982926967, 0.008545791364783116, 0.015337488792679222, -0.03358674053281983, -0.03012456926262301, -0.0016474175861673954, 0.003117958845440366, 0.006177165550777884, 0.019415839930603945, 0.027244612131869492, -0.0031457427080953783, -0.013008256826455006, -0.03877900715977097, -0.05435378457786377, 0.012918331602950753, -0.06640045469751507, 0.040356991120540274, 0.00964502141013836, 0.0509479128471477, -0.014711445043958073, -0.052939005242052715, 0.007756088225694039, -0.0010837556170766884, 0.0044740898978558345, -0.018783651304608098, -0.004064641964303946, 0.0030429243957890615, -0.03745699524403758, -0.051637884192842605, -0.0022243559222887067, -0.0005958905889824742, -0.0507553595630265, 0.02080228790413, -0.028363433081244456, 0.027771611362882608, -0.006461915671543509, -0.04438240840955678, 0.02283467240815611, -0.006187416917961671, 0.03450128408337982, -0.012298514316392038, 0.005571286459735928, 0.008269192742482414, -0.008296528639373291, -0.03082732963764583, -0.017783137269146557, -0.013438808253576785, -0.06934533924957217, 0.02096709582143399, -0.003940650978032345, 0.0371741932932481, -0.0316667466106812, -0.03419444793235678, 0.01873803977491308, -0.00324967299031816, 0.02291392206207666, 8.889059414009755e-05, 0.004061996262878108, 0.005239171152520199, -0.03020327583951595, -0.009262612475764277, -0.04856018728157804, -0.006576336952630549, -0.06265471739465227, 0.011262682351816227, -0.00730439695795295, 0.030369153733874308, 0.0030815667253897712, -0.033352620581875846, -0.009195610271493205, -0.002651431407143091, 0.024393791433308425, 0.00286090975724764, 0.03064231073399252, 0.011691422317441387, -0.03230889630245903, -0.024653626728334446, -0.0007400241047383073, -0.019874429930995804, -0.10218328534677065]
